#include "poids.h"
#define _2_OPTIMIZE B00100000 // MULTIPLE_BIASES_PER_LAYER 

const float biases[] = {
  -0.012298424, -0.18441932, -0.2922445, 0.0, -0.47293597, 0.00071512396, -0.47279164, -0.42816237, 
  0.0, -0.010944313, -0.006657062, 0.02690253, -0.015053121, -0.017006204, 0.0, -0.008942661, 0.0, -0.0063175014, -0.012655139, -0.0059864656, -0.0013518538, -0.0062412545, -0.0043040835, -0.004188276, 
  -0.015239785, 0.015239805, 
};

const float weights[] = {
  0.056064602, -0.5218596, 0.3931749, 0.07553747, 0.31240898, 0.4357282, 0.3426318, 0.69649583, 0.039622333, 0.09924401, 0.5505896, -0.013048917, 0.732805, 0.11862075, 0.57326317, 0.3934491, -0.17308334, 0.7758863, 0.32496858, -0.010676444, 0.6057075, -0.2507064, 0.44136885, 0.26087326, 
  -0.24343416, -0.40228087, 0.06323788, -0.20629905, 0.70297664, 0.3095926, 0.37887874, 0.35207924, 0.21896791, -0.21650305, 0.678735, -0.008559883, 0.9040846, 0.10790829, 0.47803107, 0.30119786, 0.0064828107, 0.48428094, 0.47771248, 0.18331662, 0.53838474, -0.3044269, 0.58951235, -0.18301976, 
  -0.19820653, -0.22345635, 0.030799998, -0.22093366, 0.3906468, 0.40895835, 0.23993394, 0.08029743, -0.022429295, 0.3279237, 0.3585996, -0.10817854, 0.7831547, -0.16516668, 0.5535978, -0.011769208, 0.1667138, 0.8734629, 0.37419263, -0.009767473, 0.18662192, -0.4643668, 0.5276858, -0.098461926, 

  0.04493752, 0.07559083, 0.028650492, 0.035886034, 0.022947846, -0.0008421019, 0.030520432, 0.017102271, -0.03198664, 0.07162899, 0.038242467, -0.029941257, 0.06716606, -0.038461376, -0.044370692, -0.07679679, 
  -0.07430961, 0.045909204, -0.008521802, 0.011830479, -0.05852267, 0.057361253, -0.0058405697, -0.07175134, 0.018499628, 0.047000125, -0.019873163, -0.0011542905, -0.054673795, 0.05178558, 0.037939586, -0.024041658, 
  0.05251564, -0.07495525, -0.00031886942, 0.09007332, 0.051858872, -0.08333383, -0.06879128, -0.080067, 0.063997254, -0.036705583, 0.0033067842, -0.036733627, -0.010749313, 0.0026164106, 0.060764436, -0.04195211, 
  -0.010977775, 0.06509438, -0.005785018, -0.07452774, 0.030907646, 0.033592865, 0.06471144, 0.043431364, 0.051808536, 0.055435047, -0.032691225, 0.04206457, -0.016937345, 0.008939475, -0.05805452, -0.055687763, 
  0.06655572, -0.05246124, 0.06009209, 0.04485648, 0.0040001394, 0.016606312, -0.05652169, -0.03751428, 0.027423263, -0.06149933, -0.08268934, 0.08218764, -0.030484771, -0.0050642006, -0.058051866, -0.06359859, 
  -0.0675759, 0.026547901, 0.0726876, -0.04091416, 0.13474542, 0.02524759, -0.0345959, 0.059857965, -0.061551277, 0.06709112, -0.0897023, -0.055470534, 0.014898971, -0.036236215, 0.031951286, 0.012686357, 
  0.026993245, -0.033204876, 0.04627098, 0.0719768, -0.04537809, 0.048872802, -0.016414426, -0.03999614, -0.016830504, -0.009307353, 0.011206008, -0.07690605, -0.029979926, -0.0422677, 0.052421793, 0.055779457, 
  -0.0022029802, 0.021687899, 0.00019129181, -0.006586154, 0.04002785, -0.081096, -0.0037498325, 0.07207747, 0.057424173, -0.011219499, -0.053051926, 0.05584345, 0.0025868523, -0.04994224, -0.076171644, 0.077458866, 
  0.019828431, -0.060653914, -0.009055175, 0.041953035, -0.008352704, 0.059136167, -0.016192138, 0.024851106, 0.06861356, -0.02076951, 0.0020649657, -0.07734906, 0.0731896, 0.035746895, 0.04797025, -0.047385238, 
  0.078439176, -0.037441555, -0.0571209, 0.018841147, 0.028509004, -0.034856122, 0.042646356, -0.041643657, 0.05394599, 0.04881304, -0.03851216, -0.027997987, -0.06253195, -0.0204884, 0.03058498, 0.042003423, 
  -0.041615296, 0.0034958972, 0.005303459, 0.038300402, 0.069228955, 0.033226635, -0.04421719, -0.021830214, -0.07155049, 0.0027587656, -0.03517021, 0.024491383, -0.044853512, -0.04848444, -0.068479985, -0.079548515, 
  -0.030617822, -0.023376822, 0.07054579, 0.0012940243, 0.03981202, 0.020624183, 0.021449469, 0.006177753, -0.031132169, 0.010726891, 0.03328187, 0.06506431, 0.04486894, -0.042719144, 0.0040085837, -0.04744493, 
  0.027939036, -0.018588899, 0.00025916097, 0.08522295, 0.052136425, 0.005539477, 0.06799641, -0.0010772076, -0.079874426, 0.058636602, -0.04965173, 0.015075121, -0.06992435, 0.00014307229, -0.04483985, -0.013303217, 
  -0.060964085, 0.0028502278, 0.04048836, -0.00793367, 0.054086156, -0.0258364, 0.0016222224, 0.024943896, -0.07292293, -0.040899944, 0.0220397, 0.0023875178, 0.03749819, 0.031011142, 0.03984283, -0.0089941835, 
  -0.06667183, 0.021185027, 0.024829475, 0.056048054, -0.06445353, -0.015573078, -0.011991158, -0.01410348, 0.04240817, 0.025430594, -0.04491897, 0.040239066, -0.029517233, 0.030149465, 0.06424054, -0.056219596, 
  -0.05510811, -0.08844611, -0.068970114, -0.041655775, 0.0054991054, 0.03537409, -0.012202106, 0.062336933, -0.037002727, 0.017551923, 0.037462134, -0.009982703, -0.023536742, 0.01720787, 0.06781706, 0.052582547, 
  0.008853212, 0.0021665767, 0.03587815, -0.05177176, -0.04875291, 0.020088725, -0.018218908, 0.03694638, -0.06368472, -0.042754132, 0.029202469, -0.038996756, 0.06191036, -0.076492734, 0.033290207, -0.06972243, 
  -0.020775199, -0.035227064, 0.027780002, 0.05468368, -0.095689714, 0.047762368, -0.048979226, 0.051077057, -0.01117111, 0.026693435, -0.074028075, 0.021413097, 0.06839977, 0.028350351, -0.043013047, -0.06254283, 
  0.04067363, 0.058027774, 0.044394437, 0.01438309, 0.024512926, -0.004067127, -0.046460845, -0.009831511, -0.018295757, 0.04215542, 0.0013165394, 0.054527905, -0.055379074, 0.00022750112, -0.013929514, 0.012560701, 
  -0.06793347, -0.05377125, -0.0003639236, -0.059164036, -0.059206948, -0.074013814, -0.04551658, 0.06556235, -0.014511943, -0.01906868, 0.013631649, -0.0010781139, 0.03886667, 0.0026412532, 0.01641, 0.017133676, 
  0.069801554, 0.0066807647, -0.072013125, -0.045934547, 0.016530268, -0.01901502, -0.035538524, 0.0003989914, -0.06238108, 0.00038338965, 0.017165016, 0.028725315, 0.03860793, 0.06580512, 0.05406623, -0.04160993, 
  -0.037040807, 0.06596743, -0.04018164, -0.17910156, 0.13405015, -0.07213365, -0.072446704, 0.064454526, -0.013311014, 0.027635641, -0.01703753, 2.7179718e-05, -0.067125976, 0.045205116, 0.06897491, 0.05410941, 
  0.041521497, 0.005467494, 0.032424483, 0.05562809, 0.019482657, -0.030159758, -0.036659416, -0.016504223, -0.07011669, 0.016643418, 0.029940465, 0.055957314, 0.021528862, 0.022100061, -0.08210525, 0.039884884, 
  0.072472095, 0.026883686, -0.020696113, 0.058451608, 0.04062539, 0.013871841, -0.028387815, 0.04456809, -0.03648582, -0.07589969, -0.06238274, 0.0061463327, -0.018978547, -0.084218144, 0.012926136, -0.010154967, 
  0.002059698, -0.02246543, 0.051517203, 0.06603387, -0.010102786, 0.0395326, -0.052826107, 0.058548525, -0.025921032, -0.05534323, 0.035202354, -0.049539864, -0.019623704, 0.023734584, 0.045533672, -0.010775857, 
  -0.023902528, -0.017147163, 0.07082916, 0.09108967, 0.0071766404, -0.052217, -0.060187824, -0.07569144, -0.056786492, 0.0037156534, -0.066681325, 0.03277606, -0.00013103298, -0.021762708, 0.009719634, 0.053247005, 
  -0.045886025, -0.07821894, 0.014745925, 0.0486094, -0.04038012, 0.03217155, -0.04909189, 0.049931634, 0.037097752, 0.06400157, 0.03813855, 0.067391805, 0.016387759, -0.07549045, 0.011292727, 0.050806906, 
  -0.026383571, 0.048965976, 0.0043323115, -0.067044884, 0.0013839528, -0.03363669, 0.0024858937, 0.06804365, -0.07452715, -0.015098408, 0.05927843, 0.015986972, 0.0022491887, -0.009081729, 0.058979392, 0.044028938, 
  0.01207532, -0.014295726, 0.0015725958, 0.07053453, -0.08885882, -0.0329504, -0.009690069, 0.0103588095, 0.030774638, 0.052368004, 0.050759923, 0.047030214, 0.044178292, -0.02804849, 0.063676804, 0.030987924, 
  0.07042287, -0.06840776, 0.02414301, -0.009773768, 0.110742725, -0.025236549, -0.010412231, 0.034622528, -0.032811407, 0.03416209, 0.060220093, -0.06729062, 0.033071987, 0.019668125, -0.06262374, 0.06527564, 
  -0.0019422397, -0.016128117, -0.01949906, 0.045403, -0.01610834, 0.05840126, -0.015525751, -0.017776988, -0.05522608, -0.05168472, 0.007936644, 0.0380236, 0.041311592, 0.06696971, -0.04044034, -0.026213042, 
  0.025750145, -0.0032845729, 0.0013192657, 0.115915865, -0.05282001, -0.091835625, -0.016536541, -0.039620996, 0.054443553, -0.058485314, 0.04588251, 0.0601038, -0.0065887775, -0.05301233, -0.047406666, 0.078450434, 
  -0.05810354, -0.0580646, -0.027737156, 0.0037924573, 0.038279116, 0.0483032, -0.001272589, -0.07133062, -0.034390066, 0.074106544, 0.0021028146, 0.05328387, 0.027671508, -0.0037378445, -0.065090105, -0.0099003315, 
  0.04569015, 0.045577157, 0.01864807, 0.060353674, -0.05268774, -0.049698424, 0.07814829, -0.031014787, -0.0013241693, 0.072212115, -0.055203717, 0.048910197, -0.039114255, 0.03676813, -0.004755376, 0.071031414, 
  0.0003131479, -0.0029874698, 0.060060967, -0.03649552, 0.041049197, 0.014490677, 0.0046503097, -0.060115643, 0.022434376, 0.005120551, 0.033730682, -0.039534166, 0.00663162, 0.0066116564, 0.008160435, 0.0020122624, 
  0.029215656, 0.009760812, 0.062890634, 0.0033702329, -0.05178854, 0.044034205, 0.030395873, -0.017418325, -0.01716265, -0.0734891, -0.048657887, -0.05163518, 0.005322784, 0.057415187, 0.008427367, -0.006567374, 
  -0.07176453, 0.027866984, -0.07465035, 0.07664601, -0.042332366, -0.028402638, 0.075425655, -0.028338406, -0.029802255, -0.03992394, -0.009974422, -0.007065935, -0.07414434, -0.062399734, -0.06833749, 0.044049513, 
  -0.053860262, -0.052549817, 0.0048615597, 0.039294302, -0.00951672, -0.028601622, 0.04549113, -0.013852276, -0.017125577, -0.008055747, -0.0027379007, 0.04493764, -0.07228976, 0.047781095, 0.0555508, -0.025618725, 
  0.049844667, -0.008851662, -0.085723914, 0.05382603, -0.088085644, -0.0703445, 0.032239318, 0.013433791, -0.058658622, 0.01404116, -0.0016989121, -0.034436274, 0.0462096, -0.03899785, -0.00861947, -0.009287628, 
  0.050328568, -0.09820905, 0.004623715, 0.059801113, -0.07081631, -0.0484253, 0.04811929, -0.032246504, -0.014704362, -0.034004066, -0.054290794, -0.009213979, 0.016592445, 0.036295366, 0.0070129484, -0.028871447, 
  0.029474214, 0.058355443, -0.025152612, -0.06171704, 0.008046991, 0.021249384, 0.02343785, 0.023137655, -0.056600623, 0.04097256, 0.022119865, -0.028573465, 0.073485404, -0.03704724, 0.06648943, 0.03710592, 
  0.05580665, 0.04360308, -0.03143098, 0.023777934, -0.11712001, -0.06948237, -0.029434491, -0.057943203, 0.018991165, -0.052877564, 0.035162404, 0.025961079, -0.052685205, 0.061397836, -0.019596059, 0.058997173, 
  -0.02375253, -0.081601895, 0.044070482, 0.037374906, 0.01162869, -0.009151323, -0.0075053424, 0.028554799, -0.037208047, 0.042349223, -0.04170846, -0.051795997, -0.03774125, -0.07709632, -0.055039644, 0.002487313, 
  -0.008925699, 0.008536555, -0.020052228, -0.059204046, 0.06624517, -0.0681373, -0.011816651, -0.07711398, -0.073945746, 0.021058626, -0.03792271, -0.051463187, -0.07081965, -0.014676243, 0.014319815, -0.046864953, 
  0.04789664, 0.040981583, -0.02107742, -0.010531496, -0.11701497, -0.057562057, -0.07314497, 0.065171726, -0.0006702244, -0.052620944, -0.06144071, 0.061271157, -0.046885114, 0.0311851, -0.0006856918, 0.057009343, 
  0.007195987, 0.025194926, -0.018302424, 0.24382214, -0.12479469, -0.035672102, -0.01504872, -0.037012175, -0.033359617, 0.004911065, 0.021648893, -0.005069539, 0.062428772, -0.012194186, 0.057556614, 0.03689854, 
  -0.02174399, -0.0057688607, 0.060822863, 0.097022496, -0.09138867, 0.039534926, -0.013497546, 0.02504334, -0.06746108, -0.027464371, -0.0024786678, 0.0040046177, -0.03956553, 0.049949054, -0.06733257, 0.0058141835, 
  -0.0027031824, -0.041064367, -0.06673319, 0.064004496, 0.03234396, 0.0036389313, 0.034694873, 0.04183442, 0.010505557, -0.075560346, -0.0018757305, -0.048412368, -0.053097982, -0.046527795, 0.06282848, 0.041540843, 
  0.050637558, 0.034386516, -0.056700516, 0.030295491, 0.0048241466, -0.056024164, -0.07965699, -0.023726322, 0.06999284, 0.07487179, 0.050701052, 0.01702059, -0.05760093, -0.059452467, 0.0561475, -0.0052383766, 
  -0.07638166, 0.0031520638, 0.043605335, -0.13668853, 0.05747406, -0.08686769, -0.059192784, 0.052793175, 0.052893326, -0.0692927, -0.05635785, 0.01829376, 0.008507263, -0.03709322, -0.04908816, 0.07461912, 
  -0.033941843, 0.00011460428, -0.05001502, -0.008961528, -0.013751224, -0.09362901, 0.04019647, 0.00482964, 0.017741479, -0.0058521777, -0.07292357, -0.074834414, 0.038127236, 0.032593016, -0.078611225, -0.06258597, 
  0.023563974, 0.057729244, 0.014185034, -0.035541423, -0.06725986, -0.018368408, 0.05293022, -0.07721727, 0.056851566, 0.052726313, 0.04001394, -0.07837157, -0.02811395, -0.07686897, -0.043490864, 0.008298576, 
  -0.050326586, -0.07348064, -0.055980008, 0.011319655, 0.003835609, -0.008790223, -0.07432084, 0.017314149, -0.05979238, -0.055030253, -0.016353333, 0.04283176, -0.029731339, -0.07507629, 0.013492346, -0.03135161, 
  0.030327864, 0.022982758, -0.0581029, 0.25602043, -0.13652582, -0.083391175, -0.013840117, 0.075167075, 0.04015375, 0.053430457, 0.03382583, 0.055179358, 0.07423051, 0.035209432, 0.044324107, 0.07407867, 
  -0.05639009, -0.027354477, 0.035515234, -0.026757538, 0.0050082603, -0.06602522, -0.0017129853, 0.043651078, -0.0024480745, -0.05342956, -0.084911086, 0.030647416, 0.02600605, -0.008096867, -0.008878302, 0.0040297555, 
  -0.020635754, -0.06636598, 0.07153165, -0.04386792, 0.010560767, -0.08483737, 0.06697978, -0.031192584, -0.0152120665, 0.01842765, 0.0075299083, -0.024443714, -0.051458173, -0.013337793, -0.07134319, -0.070047736, 
  -0.064050145, 0.059368476, 0.003272213, -0.06733935, -0.02229556, -0.007003531, 0.07807113, -0.06256388, -0.07699254, -0.0126508325, -0.06991326, -0.006815128, -0.052789994, -0.07467766, 0.062814474, 0.041639462, 
  -0.011820048, -0.035245534, -0.03193725, 0.07118216, -0.014920466, -0.033084154, 0.061711565, -0.07065364, -0.038808372, -0.076364145, -0.005617838, -0.0348124, 0.014440538, 0.05733114, 0.06295078, 0.060112435, 
  -0.026887115, -0.030952282, 0.036504477, 0.036183264, 0.10598366, -0.006922747, -0.066286966, 0.023171818, -0.077431984, -0.07154009, 0.044147387, -0.061458558, -0.061295178, -0.0160005, 0.02203211, -0.03216521, 
  -0.059805855, -0.009577312, 0.027207062, -0.01381845, -0.0048362315, -0.03996612, -0.030977454, -0.012418136, -0.03586771, -0.024337523, 0.03379421, 0.044804186, 0.03575062, 0.015080027, 0.04386598, 0.0151157975, 
  0.033646002, -0.008852002, -0.074599266, -0.0051571913, 0.03852453, -0.0018189682, 0.011320971, -0.083868325, 0.050175443, 0.027570657, -0.02433294, -0.016643459, 0.029352983, 0.04175049, -0.003351588, -0.00883856, 
  0.042723782, -0.071952164, 0.008802856, -0.24143033, 0.18220294, 0.061924513, -0.020692829, -0.003979355, 0.017357409, 0.060374334, -0.04695079, 0.05136989, -0.04467805, -0.0202686, -0.0643428, -0.024674498, 
  -0.03321941, 0.052145243, 0.058586862, -0.08059962, 0.11352134, 0.009031861, -0.04425741, -0.034165684, -0.039673302, 0.023137243, 0.019420957, -0.05437822, -0.050961543, 0.03803403, -0.016657732, -0.07427094, 
  0.022703484, -0.033961657, -0.0016155643, -0.056402463, 0.007853622, 0.0054135663, -0.010331199, -0.08030996, -0.04701925, -0.040373646, -0.045757934, -0.061284363, -0.0014564788, -0.074003205, 0.06672158, 0.049503673, 
  0.04434856, 0.01760427, 0.05216238, 0.026407145, 0.07992096, -0.053277537, 0.04952708, 0.025041386, 0.052911, -0.004117295, -0.0016508698, 0.04718177, 0.03850022, -0.031717084, -0.0033324957, -0.062357165, 
  0.0069606006, -0.026307188, -0.07280381, 0.022122279, 0.057868313, 0.04642333, -0.07888061, -0.013699364, 0.05606687, 0.062126532, 0.0020826065, 0.059026536, 0.019854465, -0.014912626, -0.0014709781, 0.031637415, 
  -0.0406843, 0.010619367, -0.086833574, 0.03636555, 0.015820337, 0.03139822, -0.07507074, 0.053477064, -0.07495417, 0.061631743, 0.050580993, -0.03682105, -0.023008995, 0.05214261, -0.04121639, 0.0082961, 
  0.04196021, 0.06654078, -0.013377823, 0.028619416, -0.05557107, -0.06185206, -0.028193891, 0.07421738, -0.02176955, 0.012679383, 0.07500294, -0.026308648, -0.040411122, 0.042653456, 0.0003129393, 0.020636864, 
  -0.006602533, 0.06502973, -0.020189503, -0.042383086, -0.02767817, -0.021429593, -0.034798853, -0.0071121035, -0.0045348033, 0.06664961, 0.03534603, 0.05076601, -0.047064953, -0.00884161, -0.07774594, -0.013369719, 
  -0.004753351, -0.06669726, -0.08391451, -0.11626959, 0.2027881, 0.030935088, -0.045727015, 0.04913546, -0.016989417, 0.052058145, -0.011260049, 0.027156115, 0.013161801, 0.03608515, -0.0036670864, 0.07982628, 
  -0.02200184, 0.010331004, -0.07673094, -0.036119465, 0.07189096, -0.061348412, -0.04076472, -0.08730454, -0.028604474, 0.046242464, 0.027928507, 0.034391392, -0.017827045, 0.0040347003, 0.05001391, -0.03584379, 
  0.035304956, 0.032086838, 0.05592671, -0.0634741, 0.027482549, -0.04439153, -0.025574628, 0.046978705, -0.0005780831, 0.042803966, 0.06579484, 0.08052297, 0.025184581, 0.017143395, 0.009470903, -0.005477169, 
  0.061709255, 0.07311571, 0.054344907, -0.008579694, 0.07169747, 0.06344828, -0.012113154, 0.0076843128, 0.06908712, -0.016968615, -0.06753385, -0.079644844, -0.023833197, -0.05266265, -0.032084126, 0.012710154, 
  -0.02589637, -0.0021703043, 0.0175749, -0.017264262, -0.045135472, 0.029458538, -0.07598364, -0.020589352, 0.059209123, -0.040089834, -0.024122711, 0.06833344, -0.006878468, 0.028982848, -0.036389958, 0.059471883, 
  0.06909414, -0.08635217, -0.025892977, 0.008552989, -0.024965815, 0.047986418, -0.047019783, -0.065459274, -0.075013205, 0.05123477, 0.011785684, 0.043556456, 0.02059034, 0.013209699, -0.05576718, 0.030442543, 
  0.06890364, -0.013999969, 0.04652852, 0.04231996, 0.023690417, -0.018016774, 0.017789237, 0.060799375, -0.029990908, 0.074208304, 0.0042346492, -0.054487534, -0.04341802, 0.013913035, -0.0464631, 0.049017847, 
  -0.05754172, -0.0046406253, 0.056403596, -0.03284242, 0.050755877, -0.08205075, 0.029311307, 0.06559836, -0.028952137, -0.04433435, 0.023894578, -0.058908835, 0.019482767, 0.062256534, 0.011568707, -0.00023041239, 
  0.016016215, 0.027763668, 0.034647923, -0.026683064, 0.04525137, -0.057162937, 0.03956098, -0.0191986, 0.0729309, 0.0016222, 0.042243574, 0.07011145, 0.027607217, 0.063602835, 0.042241678, 0.046836376, 
  0.0789385, -0.06327706, 0.049661744, 0.008604396, -0.05202784, 0.047550824, -0.016791299, 0.049779475, -0.030022673, 0.062065538, 0.03508175, -0.045542434, -0.008992803, 0.049858678, -0.08233308, 0.04204078, 
  -0.0526214, -0.08501959, 0.028077839, 0.034976687, 0.022473885, -0.048394386, 0.07262972, 0.031233558, 0.062566906, 0.0083632395, -0.028652849, -0.038062003, 0.015941322, -0.011828364, 0.056499686, -0.038160276, 
  -0.07213651, -0.06363604, 0.038914964, 0.07389639, -0.01631124, 0.0028158799, 0.05961646, -0.019495396, -0.068684176, 0.00631448, -0.019338652, 0.065456286, 0.032933667, 0.00578811, -0.038892537, -0.051958892, 
  0.00078905374, 0.002315955, 0.05459519, 0.083411604, -0.0015628472, -0.060446642, -0.067035995, 0.029702688, 0.007235177, 0.03576375, -0.085087046, -0.05554451, 0.019463858, 0.069309324, 0.01893205, -3.2808468e-05, 
  0.019150876, 0.044753052, 0.010806618, 0.039448388, -0.050780926, 0.017405841, -0.051441066, -0.024755722, -0.038887132, 0.0021454804, -0.010031223, -0.006335621, 0.026290247, -0.064918995, -0.030804122, 0.031815752, 
  -0.004963577, -0.03220545, -0.033147674, 0.04900904, -0.06826855, -0.06664519, 0.009819165, 0.06636967, -0.055075794, -0.04612748, -0.07786598, -0.0027043447, 0.0754033, -0.045442212, 0.021138802, -0.031021569, 
  0.07308555, -0.040371887, -0.080292016, -0.0033677164, -0.041726694, 0.047575284, -0.014244489, 0.047091123, -0.022278056, -0.018236253, 0.0029243375, -0.020320863, -0.0115259485, -0.07213544, -0.032347698, -0.064002424, 
  -0.04875604, -0.018868567, 0.00017461365, 0.35155308, -0.28928992, -0.078050226, -0.061794065, 0.06434257, -0.037571304, -0.07021026, -0.05100956, -0.05715899, 0.028189309, -0.040251978, 0.037530743, -0.07275875, 
  -0.06375131, 0.036621068, 0.0074424325, 0.058305304, 0.01999205, -0.096293315, 0.0040967315, -0.07607126, 0.068111375, 0.058620088, -0.0029051853, 0.02986435, -0.07200109, 0.012474893, -0.06721116, -0.051784914, 
  0.02016081, -0.0473888, -0.06785103, 0.088898264, -0.2019685, 0.035027005, 0.04311344, -0.06781312, -0.049107313, -0.07151467, -0.015097933, 0.01989543, -0.064493425, 0.036955334, -0.020048287, 0.014116995, 
  0.01613485, -0.016088068, -0.014389798, -0.03573798, 0.045236185, -0.028730154, 0.0372022, -0.07518056, -0.04785673, -0.07007843, 0.013508983, -5.3450465e-05, -0.06032841, 0.049715936, -0.047358934, -0.03885783, 
  0.07375634, 0.04354608, 0.009115796, -0.09339685, 0.049529094, -0.08346007, 0.026403941, 0.029670047, -0.03865291, 0.01061734, -0.049449172, -0.084408976, -0.0024545174, -0.004613285, -0.045797605, -0.049728777, 
  0.057014853, -0.019173197, 0.022983639, -0.09265649, 0.010078857, 0.0059790583, 0.0056163147, 0.018100532, -0.0070246086, 0.07287642, 0.059553623, 0.06617166, -0.055526692, 0.007897522, -0.014964853, 0.06019584, 
  -0.065474495, 0.023377359, -0.012869187, -0.017561205, -0.0140968785, 0.042863756, -0.029520065, -0.037912916, 0.0361628, -0.004224874, -0.031500295, -0.056742586, 0.046769604, -0.07168704, -0.01699923, -0.045815073, 
  -0.076086126, 0.013509537, 0.026055016, 0.025368776, 0.06678109, 0.0050197765, 0.061366007, 0.061262112, 0.029176585, 0.050712403, 0.01797068, -0.05267528, -0.038430497, 0.014639065, 0.021474402, -0.05427205, 
  0.05018772, -0.074157074, -0.021171767, 0.31285065, -0.19368067, 0.05658023, 0.014204159, -0.011714257, -0.014832713, -0.059281968, -0.06920407, -0.020485187, -0.07553784, 0.04123421, 0.07870102, 0.05671226, 
  0.049843475, -0.02486428, 0.011438765, -0.034250844, 0.045209754, -0.054206543, -0.018017482, -0.08645697, -0.006341763, -0.040242273, -0.08310287, 0.02729625, -0.07801845, -0.055854756, 0.05299416, -0.019604208, 
  0.014788024, 0.049088348, -0.04619671, -0.019858344, 0.10519199, -0.040604584, -0.032599885, 0.06470002, 0.07898833, 0.037601154, 0.002696679, 0.062133048, 0.036718596, -0.056898065, -0.07947713, -0.005232327, 
  -0.031210892, -0.011318182, -0.021491524, -0.03938827, 0.05061733, -0.057899654, 0.0073138624, 0.045121484, 0.071199745, -0.037576653, 0.043757953, -0.0255245, 0.004800655, 0.037904233, 0.05247013, 0.014546536, 
  0.0070479736, -0.031785537, -0.016454598, 0.042622928, 0.06323189, -0.03883707, 0.034000218, -0.025583481, -0.04993273, 0.032912992, -0.033056606, 0.03312486, 0.020275591, -0.03637035, -0.068670504, 0.06861617, 
  0.07991849, -0.07854315, 0.0020789595, -0.027296925, 0.0023876484, -0.01640972, 0.0058809966, -0.08705507, 0.022951335, -0.0378267, -0.008692697, -0.054608613, -0.046971377, 0.04933567, 0.06421556, 0.008400675, 
  0.038413957, -0.06035338, 0.0686941, -0.030674841, 0.02579426, 0.0116187185, -0.0779473, 0.044304237, -0.04249164, 0.01848428, 0.0026404932, 0.02997619, -0.01304803, -0.007114589, 0.006747991, 0.012404375, 
  -0.0073381215, -0.008701201, 0.007672437, -0.059531674, 0.0011300521, 0.055344056, -0.041075885, 0.0295064, -0.03716355, 0.075470105, -0.023399575, -0.0838661, -0.027387232, -0.044013273, 0.0690257, -0.0036308484, 
  -0.061506018, 0.046105675, 0.00777497, -0.22653133, 0.31526032, -0.004574091, -0.077628344, -0.0234184, -0.035099596, -0.017937787, -0.06747248, -0.0018818453, 0.02686239, -0.010390796, -0.017640688, 0.067427605, 
  0.025504187, -0.0246024, 0.0069150543, 0.034616817, 0.10894076, -0.0681198, -0.0596755, 0.016016394, -0.041483395, -0.048046835, 0.054381777, -0.016683716, -0.063212655, -0.04910532, 0.018320074, 0.04036986, 
  -0.035635952, 0.04032966, -0.050263707, -0.1370025, 0.05844277, 0.035079814, -0.041793585, 0.0031053072, -0.075141385, -0.015836779, -0.0783382, -0.057139352, -0.02087891, -0.009951563, -0.046750847, -0.060827762, 
  0.03569925, 0.015239969, -0.059086878, -0.06578702, 0.056461424, -0.03450647, -0.043714773, -0.04663986, 0.058580413, -0.025064386, -0.0045320913, 0.057695895, 0.06642616, 0.07571575, 0.06466061, 0.07707021, 
  -0.07304076, 0.016267395, 0.016193843, 0.105481215, -0.007805751, -0.052037597, -0.04922047, -0.08489861, 0.040491253, 0.020201454, 0.03245047, 0.00849144, 0.0651768, 0.03800587, 0.03569089, 0.04583066, 
  0.026925348, -0.019329896, 0.04862539, 0.04843056, 0.026320972, 0.008888638, 0.0425525, 0.04878037, 0.063115835, -0.033756755, 0.056278717, 0.007358867, -0.037510823, 0.018765856, 0.06312604, 0.0005871195, 
  -0.045867566, 0.005101852, -0.058295038, -0.004639007, 0.065758854, -0.040051565, 0.02555535, -0.07563399, 0.052003294, -0.041927475, 0.07051307, 0.021669373, -0.053380787, -0.012896977, -0.04725429, 0.06280734, 
  0.025276288, 0.0021817342, 0.03140187, -0.059037976, -0.045289375, 0.010320177, -0.034497023, -0.0008477013, 0.07690519, -0.0534442, 0.009004946, 0.0641371, -0.0106159635, -0.035285637, -0.015091353, -0.05895082, 
  0.029795423, 0.0023112616, -0.049286958, -0.19992204, 0.2427612, 0.058344383, 0.04545477, 0.07300484, -0.02073133, 0.008742787, -0.073935226, 0.03838668, -0.014446951, -0.033811256, 0.056698814, -0.07836298, 
  0.07410739, 0.046822987, -0.010131019, -0.034861274, 0.076472774, -0.03626247, -0.0655989, 0.0077934563, -0.002099976, -0.009828022, -0.029626084, -0.040669866, -0.057999786, -0.0072440216, -0.033330157, -0.01719263, 
  0.020636939, -0.07848762, -0.07845031, -0.09917509, 0.102778606, 0.06347884, -0.032915823, -0.019044904, -0.03953798, -0.021772277, -0.01036597, -0.043184802, 0.06986421, -0.027952578, 0.045666352, -0.036771707, 
  0.020822592, -0.041222144, 0.06953588, 0.07457143, -0.02151502, -0.031655718, 0.034864597, 0.06005971, 0.07045531, 0.020217672, -0.009109043, -0.016613029, -0.026916627, -0.079722464, 0.039737917, 0.016758062, 
  -0.041776672, -0.042080987, -0.011027936, -0.010758877, 0.07461825, 0.050228924, 0.00044341385, -0.08856996, 0.008073822, 0.00021127882, -0.08522434, -0.07236058, -0.08120037, 0.0002831471, -0.025007186, -0.042370245, 
  0.037746765, -0.012197881, -0.013534944, -0.015018024, 0.025124792, 0.003808181, -0.04614273, -0.023160554, -0.03224115, -0.066597715, -0.064592786, 0.02319763, -0.07437338, -0.046305344, -0.04561507, -0.016964767, 
  -0.07497501, 0.021281771, 0.075066164, -0.053079337, -0.0031016022, -0.0013350844, -0.08002103, -0.014337897, 0.00094117224, -0.06076289, 0.034098774, -0.07917893, 0.055231944, -0.02932097, -0.070737325, -0.020854913, 
  0.07047841, 0.024359595, -0.072177544, 0.037511297, 0.09117414, 0.06286023, 0.07004954, -0.058190063, 0.0571474, 0.021684939, 0.038053043, -0.04500448, -0.04231907, 0.061922733, 0.035778232, 0.0037584468, 
  0.057344288, -0.063636065, -0.012783976, 0.011730322, -0.003457611, -0.03040877, 0.012929432, 0.06046152, -0.048393488, -0.03196612, -0.068077505, -0.03455568, -0.050501615, -0.025645733, 0.060618892, -0.06720873, 
  -0.055126473, -0.0064198286, 0.028684149, -0.0022270742, 0.006652808, -0.09522932, 0.069727674, -0.01698259, -0.05508534, 0.052297123, -0.089939974, -0.056374695, -0.08039976, -0.018926928, -0.013447876, -0.024182243, 
  0.06238489, -0.015850505, 0.058723804, 0.019437505, 0.013709909, 0.033301584, -0.023717731, -0.017589964, 0.029196225, -0.035512876, 0.020182846, 0.052289855, 0.012545148, -0.014335716, 0.056661375, -0.052946247, 
  0.06924595, 0.02794626, 0.020415701, -0.061034545, -0.024524335, -0.055878095, 0.016896248, 0.06715676, 0.059363946, 0.025274176, -0.025643557, 0.007088263, -0.015927456, -0.055351913, 0.0032155912, 0.038429715, 
  -0.040874176, -0.027207926, -0.024377422, 0.09954418, -0.10064244, 0.027882485, 0.021077298, -0.08459621, -0.018622845, -0.0092662545, -0.06688997, 0.047283545, -0.029540867, 0.008010925, -0.05486702, -0.007262724, 
  0.046906218, 0.018214174, 0.023028485, 0.02121462, 0.0010076516, -0.059319537, 0.01716242, 0.029992621, 0.07084736, 0.03609891, 0.013795569, -0.06638858, -0.075192586, -0.057705715, 0.040889032, 0.023150299, 
  -0.012810409, 0.015116565, 0.012618266, 0.07976203, -0.0182245, 0.07224913, 0.05939606, -0.022608139, -0.036485422, 0.003958285, -0.015525542, 0.062027037, 0.009765334, -0.035904683, 0.008854516, 0.007823437, 
  -0.049294002, 0.05530893, -0.0044857026, 0.05440439, -0.15581141, -0.09215373, -0.05935851, 0.019878816, -0.07066727, -0.033723127, -0.09137176, 0.06602822, -0.03797839, 0.039125483, 0.025726428, -0.084966734, 
  -0.005996637, -0.04788468, 0.020089108, 0.31747922, -0.24374469, 0.051569015, 0.03376697, -0.058991797, -0.014385939, -0.046732802, -0.019841053, -0.05280626, -0.0069594383, -0.036323626, 0.012725294, -0.0547954, 
  -0.01381994, 0.065311566, -0.07347893, 0.11019208, -0.120403334, 0.018622598, -0.027927224, 0.05649705, -0.07754829, -0.06660076, 0.05906232, -0.010034466, -0.0012407261, -0.04207422, -0.080149464, -0.048345383, 
  -0.017685242, 0.024625663, 0.022823371, 0.025433343, -0.10334162, 0.06395052, -0.06525677, 0.0051979353, 0.017927654, 0.072209075, -0.0134719955, 0.039096117, -0.07647212, 0.012096672, 0.05725366, -0.024871565, 
  0.017336756, 0.03873782, 0.03187453, -0.025465995, 0.049578607, -0.030068658, -0.03505762, -0.07987212, -0.004406087, -0.00038088113, -0.014292784, -0.057239354, -0.07257248, -0.06352051, 0.05051574, 0.02379132, 
  0.021568581, -0.08492503, 0.019482516, -0.13978826, 0.14831372, 0.01375463, -0.04623974, -0.0425891, -0.004049927, 0.052782282, -0.016215827, -0.07811905, 0.047894523, -0.04601735, 0.0677191, 0.01999907, 
  -0.023188092, -0.03306384, 0.00031705384, -0.073618725, 0.029506827, -0.072955824, 0.051917195, 0.039913565, 0.02562397, 0.0014430572, -0.043396734, -0.05121722, -0.010221835, -0.016283365, -0.051958505, 0.03789664, 
  -0.076901026, -0.056864068, -0.028204981, 0.042450376, 0.029473238, 0.05166246, 0.079279944, 0.008445099, -0.021421887, 0.051019266, -0.020019054, 0.027038395, 0.07855551, 0.05920145, -0.0027854517, -0.058028787, 
  -0.061014194, 0.058090348, 0.051985536, 0.0020404102, 0.038563047, 0.006680314, 0.06391966, 0.05345412, 0.024774715, -0.022382524, -0.050372075, 0.05159681, -0.058279302, -0.028707316, -0.053172115, 0.02988494, 
  -0.07850196, 0.035761453, 0.0015086777, 0.17707355, -0.24178185, 0.06072186, 0.06518774, -0.031281024, 0.020169094, -0.004448347, -0.043843538, 0.047385365, -0.072876394, 0.07262358, -0.026667573, -0.018339396, 
  -0.0069963187, -0.06531198, -0.013718722, 0.06905161, 0.050804634, -0.038538378, -0.030474693, -0.07892418, -0.029683903, -0.0040181694, -0.054414283, 0.03792175, 0.03207019, -0.06436232, -0.040030263, 0.009683935, 
  -0.06330034, 0.05955759, 0.052706126, 0.020925783, 0.005367792, -0.09455535, -0.0055686682, -0.06556853, 0.011393838, 0.0332773, 0.034260444, -0.05862609, 0.044242963, 0.0037643283, 0.018768672, -0.038140364, 
  0.011261418, -0.028920982, -0.039762676, -0.028816834, 0.07413925, 0.067154855, -0.043210812, -0.070143394, -0.029079918, -0.016422257, 0.04527974, -0.020747289, -0.063566595, 0.05445698, -0.06578768, 0.06499407, 
  0.06546302, -0.063247465, 0.010580714, 0.09748002, -0.11548269, -0.0069969995, 0.06508936, -0.0068918434, 0.032805182, 0.07246005, 0.044237815, -0.058157917, -0.00645073, -0.011206776, 0.06322392, 0.0713824, 
  -0.0746983, -9.632644e-05, -0.06522666, 0.06347312, -0.042757962, 0.00976188, 0.00026663393, -0.048986614, -0.078751035, 0.020809859, 0.009986837, -0.08284196, 0.06316816, 0.010213329, -0.010184423, 0.071800485, 
  -0.06412618, 0.032875203, 0.01523608, -0.031262774, -0.06078887, 0.0746606, -0.07307445, 0.07500775, 0.07852183, -0.07135528, 0.028285615, 0.06925824, -0.026028369, 0.017346032, 0.02523607, 0.07385655, 
  -0.065935336, 0.000104961975, 0.040170517, 0.0016012348, 0.03217962, 0.06287446, -0.051233627, -0.051308848, -0.06816143, 0.020720715, 0.017865514, -0.0011179303, -0.07001052, 0.0075380616, 0.053224783, -0.012974532, 
  0.066636965, -0.05285477, -0.017830366, -0.18462627, 0.15836897, -0.034903165, -0.025928188, 0.02271998, -0.038123008, 0.043200463, 0.053343277, -0.079586685, -0.017421491, 0.002936788, -0.021904584, -0.0772811, 
  -0.010263376, -0.06999028, -0.057946905, 0.038853545, 0.06819478, 0.048261005, 0.01606226, 0.040285673, 0.0145031065, 0.073575035, -0.034926288, -0.03712815, -0.05161739, -0.0019426207, -0.06901844, -0.043939628, 
  -0.006241873, 0.027754907, -0.010988101, -0.09853622, 0.009959363, -0.035949018, -0.04881554, -0.037293453, 0.04092077, 0.035813965, -0.08992567, 0.028066566, -0.0029150308, 0.06162707, -0.027335221, -0.02531987, 
  0.044928037, 0.05455786, 0.05107765, -0.012622349, -0.06187699, 0.00093937665, 0.05869113, 0.0163429, -0.075648, -0.05539702, 0.016449034, 0.011836618, -0.0013590083, 6.1653554e-05, -0.03517318, 0.05317396, 
  -0.023606502, 0.055433903, -0.015578302, -0.0067363726, -0.051695883, -0.026436608, -0.039084643, -0.06621752, 0.0496051, 0.05288779, 0.014844265, 0.03541142, -0.019454332, 0.05290628, -0.08138054, 0.0042035677, 
  -0.05830548, -0.037808407, -0.037430484, 0.056371715, -0.03009935, 0.013355399, -0.038679924, 0.051445205, -0.03520991, 0.06621464, 0.06066636, -0.07495413, -0.04209572, 0.01624962, -0.08215138, -0.04394696, 
  0.07174869, -0.033138778, -0.056769464, -0.041748766, 0.048779145, 0.039847925, -0.0010522306, -0.07926916, 0.0045353025, -0.009147584, -0.07844552, -0.045414608, -0.049805425, 0.039648622, -0.04062856, -0.019620612, 
  -0.046760693, 0.0496148, -0.06216236, 0.05509498, -0.09178294, -0.05805903, -0.067524344, 0.00161381, 0.04825385, -0.059862036, -0.009657673, -0.009374059, 0.051089637, -0.021447651, -0.02280356, 0.053021256, 
  0.05257511, 0.046602115, 0.030299723, 0.01979552, 0.090573214, 0.045947414, 0.038962454, 0.05990529, -0.06761005, -0.05028919, -0.060332447, -0.021150809, -0.030254256, -0.019893356, -0.015508227, -0.041554786, 
  -0.075737335, 0.05395343, 0.07030891, 0.052779824, -0.028075859, -0.09531404, 0.04247477, -0.071619645, 0.036549047, 0.05965153, 0.061849535, 0.014749174, -0.043852303, 0.07126338, -0.066697836, 0.04608766, 
  -0.066591114, -0.036823906, 0.044817984, 0.023755647, -0.01575, -0.013288449, 0.006965205, 0.055610217, -0.042421207, -0.07344794, -0.047823258, 0.043663822, 0.07610429, 0.03727247, -0.05263677, 0.049903408, 
  -0.057439767, -0.07824585, 0.011346988, -0.010052331, 0.009163886, 0.014104418, 0.050611302, -0.06036617, -0.04639455, -0.070348084, 0.07022981, -0.014686361, -0.03234593, 0.056726024, -0.011810467, -0.051570393, 
  0.06434794, -0.0735672, 0.0031360355, 0.051004425, 0.07888889, 0.0086087575, 0.047424346, -0.04929589, -0.012238815, 0.0042401724, 0.061094943, 0.0562663, 0.024265701, 0.02132115, 0.06805486, 0.038250234, 
  0.06925976, -0.017783452, -0.020228727, -0.06166688, 0.010012036, -0.02134879, -0.017569337, 0.009328191, -0.037211157, -0.057534344, -0.04367503, -0.043831404, 0.0433586, 0.017500002, 0.05308363, 0.042827807, 
  0.010436326, -0.05200827, 0.04073275, -0.07980437, 0.010358475, 0.03344462, 0.028425917, -0.07373607, -0.038201958, 0.0558701, 0.0054498613, -0.042273134, -0.059846155, 0.03459008, 0.0356144, -0.00584206, 
  -0.0028856471, 0.059541244, -0.041865554, 0.028954502, -0.003977429, -0.02716897, 0.0005775094, -0.01942801, -0.014333367, 0.0033709968, -0.060339514, -0.019067414, 0.0284184, 0.01684735, -0.0358352, -0.076997764, 
  -0.058116943, -0.006906762, 0.007423882, -0.030398732, 0.048044685, -0.06294069, 0.07664348, -0.032571863, 0.013133317, -0.050879017, 0.00037567347, -0.026640657, 0.046286494, 0.035528444, -0.052985042, -0.04814915, 
  -0.04754761, 0.06470079, -0.054930113, -0.0024559097, -0.04790567, -0.07229084, 0.028145328, -0.04667683, 0.012923859, 0.025575463, 0.0320007, -0.014244324, -0.050520983, 0.06983004, -0.08302257, 0.019078227, 
  0.0148409605, -0.07676866, 0.016979024, -0.023643002, 0.0629319, 0.048700046, -0.0015235692, -0.0104656955, 0.049738437, -0.05260357, -0.030867616, 0.031777926, 0.0563428, -0.047062702, 0.06318793, -0.07289788, 
  -0.05399688, -0.0496763, -0.023243338, 0.069966674, 0.07272014, -0.049610663, 0.06359102, 0.024629245, 0.011716358, 0.025951944, 0.053542152, 0.058137916, -0.060520366, -0.06787036, -0.041087825, -0.045414545, 
  0.039950393, 0.062500305, 0.07083324, 0.012209147, 0.025605474, -0.095658064, 0.033444464, -0.011161232, -0.020067636, -0.013718331, 0.01340913, 0.035631113, 0.009663047, 0.025291452, -0.04233713, -0.06924881, 
  0.071013674, -0.072997265, -0.007094541, 0.15672676, -0.12459282, -0.06940335, -0.057189114, 0.0047664046, 0.022689648, 0.012569004, 0.060668424, 0.02468624, 0.0188585, 0.057131857, -0.04915043, -0.025165925, 
  0.0057670027, -0.055860057, -0.037462573, 0.059563145, -0.07813899, 0.0017867833, 0.029760696, 0.07154189, 0.008073077, 0.077900395, -0.06498496, 0.078446716, -0.07610734, 0.053955227, 0.056942314, 0.021415934, 
  -0.006796822, -0.00013462991, -0.030478805, 0.12896827, -0.049729172, -0.055993732, -0.044383474, 0.061182186, -0.07915659, 0.06733023, 0.04595722, 0.04847262, 0.05804077, 0.07334274, 0.016723104, -0.01197655, 
  -0.050891176, 0.026857859, 0.028911112, 0.50939196, -0.55049604, -0.06582926, -0.025545936, 0.043995783, 0.07089515, -0.023784865, 0.03186776, 0.026289575, -0.07470979, -0.03691845, -0.069420576, 0.06167066, 
  -0.073734164, 0.012818883, -0.0060355845, 0.1347766, -0.0505306, 0.0045758286, 0.06299144, 0.036313843, 0.018597797, -0.008073183, -0.022662776, -0.056251217, 0.06503317, -0.037817627, 0.052117318, 0.044492394, 
  -0.008757122, -0.043658487, 0.04739133, 0.15866849, -0.22022869, -0.04987384, -0.012568541, 0.009967973, 0.07485342, 0.017668799, 0.017541071, -0.0033483682, 0.022860736, -0.043534566, -0.061879087, -0.08533455, 
  -0.0626103, 0.02770266, -0.052108295, 0.05431041, 0.025742285, -0.032694966, 0.058654785, -0.007666141, -0.032784376, 0.026379585, -0.008858353, -0.07740583, -0.0543387, 0.0577963, 0.007910937, 0.035438307, 
  -0.024239082, 0.054683447, 0.022326013, -0.29780668, 0.30055633, 0.030265048, -0.077863924, 0.023278242, -0.071545675, -0.026075687, 0.008137544, -0.041588318, -0.04741245, 0.056529105, 0.05201413, -0.06213935, 
  -0.06868005, -0.021549225, -0.0013695718, -0.062562786, -0.014644325, -0.002425351, 0.021379054, -0.06033087, 0.046999365, -0.047129124, -0.0111369025, -0.055316705, -0.0258633, -0.05485061, -0.041499075, 0.050164577, 
  0.038158305, 0.032940768, -0.021811489, 0.07654615, 0.0745361, -0.008622818, 0.0081781, -0.013652891, 0.06275098, 0.050112486, 0.020889178, -0.030979343, 0.059643492, 0.07993133, -0.06972327, 0.0517931, 
  0.06625925, -0.048751548, -0.07756513, -0.057094377, 0.08945328, -0.090656675, -0.0045301616, 0.05867685, 0.04841827, 0.044653013, 0.021616999, -0.0694997, 0.074750386, -0.06274016, 0.051771555, 0.0038819495, 
  -0.05542808, -0.05932681, -0.059975285, 0.4836667, -0.4521103, -0.090695895, -0.0016060919, 0.050729588, -0.037525415, 0.047530532, -0.03210607, 0.042598747, -0.052482262, -0.050507586, 0.049020514, 0.044680096, 
  -0.035706542, -0.03077381, 0.02780483, 0.0020633098, 0.06883218, -0.06365142, -0.055581473, -0.00847934, -0.07121353, -0.06689595, 0.017879138, 0.0155921895, 0.04988696, 0.06965173, -0.064640924, -0.02217685, 
  -0.025513068, -0.006419046, 0.016922703, 0.1372916, -0.16275612, 0.01575346, -0.06244129, -0.024857182, -0.06175755, -0.05708313, -0.046401657, 0.06142574, 0.015530819, 0.018671067, 0.019519653, 0.0008050895, 
  0.074739814, -0.023624063, 0.07526818, 0.07595824, 0.007425107, 0.05699715, -0.07817161, -0.072390616, -0.001941748, -0.058421694, 0.04805307, 0.053636476, -0.051530212, 0.046875447, 0.029986136, -0.00017019361, 
  0.060300395, 0.05582363, -0.076591626, -0.032938447, 0.042581033, -0.042751227, -0.050034244, 0.055762794, -0.03997248, 0.008597216, 0.040446404, -0.010023031, -0.04528224, -0.08297695, 0.07133996, -0.055845, 
  0.062277243, 0.045217272, -0.017244784, -0.08385731, 0.09525866, 0.0030630615, 0.0356362, -0.03562664, 0.03598024, 0.06384641, -0.06858752, 0.044909626, -0.052091837, -0.0063831005, 0.021039255, 0.07241495, 
  -0.022540413, -0.041127656, 0.05089788, -0.07023077, -0.079379514, 0.067877114, 0.045733377, -0.02391633, 0.035906844, 0.060873, 0.034976624, 0.064505026, -0.0026258528, 0.039944306, 0.056894705, -0.029486734, 
  -0.06825726, 0.06549128, -0.07500724, 0.009281498, 0.14177077, -0.027697979, -0.06259213, 0.057906076, -0.077204615, -0.06813305, -0.030842433, -0.039440885, -0.032933097, -0.045895375, 0.07394905, -0.05902866, 
  -0.07903368, 0.015083524, -0.08483788, -0.12381877, 0.16020216, -0.0019828412, -0.033344787, -0.06989757, 0.07393244, 0.06173359, -0.007940795, 0.056556344, -0.0755567, -0.029061265, 0.026918054, -0.010476559, 
  -0.04726257, 0.0057210797, -0.064804904, 0.01856328, 0.07165212, -0.032132737, -0.06384126, -0.006144471, 0.077083096, 0.056966964, -0.081128664, -0.07571901, -0.062258225, -0.04556996, -0.030768126, -0.072399914, 
  -0.009216838, -0.016687483, -0.030601878, -0.083277784, 0.068050556, -0.025507383, 0.053744942, 0.010130099, 0.043096907, 0.0355715, 0.02059771, 0.060622267, -0.031481773, 0.030176463, -0.068723194, 0.016549842, 
  -0.0036511049, -0.03247281, -0.077522136, 0.013704129, -0.03546648, -0.053881943, -0.01872747, -0.05837611, -0.014917411, 0.05847098, -0.03515755, -0.01195237, 0.014002696, 0.073791966, 0.062409356, -0.06812027, 
  -0.012769334, 0.017580615, -0.008853659, 0.00638234, 0.006214877, 0.051493388, -0.02485019, 0.06143025, -0.06143978, 0.050988127, 0.0025552246, -0.0833975, 0.046774052, 0.0346417, -0.01738947, -0.007896023, 
  0.046577275, 0.018519642, -0.018303981, 0.0061539593, -0.053915013, 0.0086763725, -0.014091022, 0.015727272, -0.03417068, 0.07341064, -0.007436769, 0.04328383, -0.027214874, 0.053735886, -0.064014144, -0.047892183, 
  -0.045642644, -0.07154818, 0.049863607, 0.063344926, 0.050086603, 0.014748953, 0.0054054037, 0.031152554, -0.0022808984, -0.031916983, -0.061825868, -0.022294223, -0.07655594, 0.05273205, -0.015586086, 0.07665555, 
  -0.05999071, -0.03342674, -0.00973869, 0.01973146, -0.047404096, -0.022244137, 0.07683802, 0.062429428, -0.03734869, -0.06346245, -0.084305145, 0.06286258, 0.02727539, 0.0033166723, 0.061528623, 0.03479318, 
  -0.051377233, -0.061891895, 0.043089144, 0.06157526, 0.045522485, 0.06333266, 0.01870735, -0.022151232, 0.02132658, -0.0120579675, -0.042557836, 0.00029811263, 0.037418686, 0.02334164, 0.07092878, 0.051176473, 
  0.06410396, -0.0185476, 0.007395434, -0.022626491, 0.05445457, -0.027554458, -0.01285319, -0.055775154, -0.0077211186, -0.024924183, -0.08927142, -0.0057233567, 0.04095989, 0.018849667, 0.071858786, -0.0267026, 
  -0.055116683, -0.045031838, -0.08859458, 0.034485172, -0.024728995, -0.037145447, -0.04540331, -0.0018650908, -0.040644348, 0.04105098, -0.084284425, -0.034832925, -0.06898044, -0.014772887, -0.058042254, -0.003237887, 
  -0.0066978484, -0.000985913, -0.005488321, -0.04426203, -0.079172306, -0.04958503, 0.029008597, 0.030714504, 0.014122538, 0.024635725, -0.033674106, -0.03365097, -0.0029922053, 0.023060769, 0.016749911, 0.041972928, 
  0.044317044, -0.033373874, -0.019263417, -0.024993591, 0.079563096, 0.027925935, -0.072909646, 0.026165077, 0.044968218, 0.054048385, 0.028072558, -0.07490586, 0.039806418, -0.0457169, 0.04037518, -0.014753983, 
  -0.0009811595, 0.036956258, -0.05260346, -0.04932439, 0.08448278, 0.033959616, 0.050193086, -0.022144878, 0.055200487, 0.04830802, -0.08405372, -0.06596402, 0.07285505, 0.055978976, -0.06400669, -0.0044408794, 
  -0.01750113, -0.07069575, -0.05462593, 0.019224353, -0.01754246, 0.012858972, 0.0043875724, -0.019272052, -0.025554128, 0.0057600513, 0.06704597, -0.05963681, -0.071824655, 0.016472705, 0.060170814, -0.03268168, 
  0.0036531538, -0.008762068, 0.034123797, 0.031923022, 0.054664012, 0.007862045, -0.0046673343, -0.01704731, 0.06473862, -0.050789867, -0.08798659, -0.016809471, -0.050268065, 0.06169815, 0.013494815, -0.03245592, 
  -0.022549614, 0.021511015, -0.018232001, -0.017119631, -0.09887077, 0.008760158, -0.008280858, 0.074428245, 0.034076594, -0.0734285, 0.039072283, -0.0058890954, -0.027295135, 0.0049154907, 0.0493574, -0.025532842, 
  0.07275167, -0.04499294, -0.03373886, -0.052829504, -0.0005270385, -0.07605262, -0.004223615, 0.013940874, 0.06103705, -0.0012219595, -0.027399847, -0.0071120267, -0.032828975, -0.07700606, -0.04337965, 0.027795468, 
  -0.007063456, 0.03556995, -0.04674187, 0.0809817, -0.07560835, 0.00521802, 0.072895035, 0.051854312, 0.007851571, -0.030189166, -0.031250488, -0.027768316, 0.02701385, -0.08163214, -0.0707318, 0.004965171, 
  -0.04355084, -0.06328357, 0.021651506, 0.00056920946, -0.009308494, -0.017812394, -0.013306282, -0.051299002, -0.02863263, 0.013959074, -0.025768455, 0.0521907, -0.070934966, 0.0794583, -0.04706477, -0.06370348, 
  0.016910583, -0.05594959, 0.06464263, -0.06465108, 0.008743258, 0.051939268, -0.066834666, -0.07946514, -0.05561454, -0.075170614, -0.0015450267, 0.044711884, -0.05889508, -0.04869317, 0.051672935, -0.07784236, 
  -0.026639495, 0.032258753, -0.06286629, 0.114755616, 0.019493066, -0.039608717, 0.05045086, -0.031473145, -0.06806188, 0.06745938, 0.033603143, -0.0098544285, -0.0040587955, 0.013923007, -0.066332795, 0.063483186, 
  -0.00020392239, 0.07411036, -0.016198955, -0.012990877, -0.017606024, -0.024943974, 0.023224935, -0.019027926, 0.06418072, -0.0003703013, 0.028959312, 0.03456927, 0.026617445, 0.012395881, -0.0050555617, -0.0068869963, 
  -0.059188545, -0.05366429, -0.08091422, 0.09181, -0.01446725, -0.08330604, -0.013905056, 0.036614362, 0.048946038, -0.003514951, 0.028589109, -0.011560163, -0.057232447, -0.064187385, 0.07232124, 0.06809094, 
  -0.05847161, 0.040837213, -0.014376086, 0.38735116, -0.5362842, -0.059060276, 0.07535881, 0.075558186, 0.041208684, 0.04863189, 0.037658446, -0.052831244, 0.06624822, -0.028204829, -0.05328802, -0.052868314, 
  0.07103875, -0.060258947, 0.04390096, -0.022981664, -0.05587596, 0.04040144, 0.040193066, 0.020109553, -0.07874098, -0.058889218, -0.07399912, -0.017454037, 0.04690719, 0.042133223, 0.055089124, 0.00024135831, 
  -0.0035610497, -0.020772941, 0.010630748, 0.01817963, -0.051830426, 0.04746944, -0.07583599, 0.051640127, 0.0006289929, -0.078554235, -0.07797958, 0.023196228, -0.004098678, -0.040010426, -0.07022867, -0.015612805, 
  0.030108325, 0.034021065, -0.029655196, -0.06846887, -0.0017020479, 0.06039916, 0.072054505, 0.024969593, 0.026413217, 0.031783894, -0.0137539655, -0.03494658, 0.025615767, -0.017751843, -0.005698949, 0.056665868, 
  -0.046797264, 0.0567097, -0.017669765, -0.22830975, 0.34400713, -0.08707763, -0.04298776, -0.018214745, -0.0112788975, -0.0779669, 0.008167836, -0.029545054, -0.010098736, 0.057812296, -0.046657965, -0.020909322, 
  0.03550084, -0.018052418, 0.04432199, -0.017088855, 0.13621773, -0.016091872, -0.064787015, -0.0428896, -0.013859242, -0.07642882, 0.02728893, -0.06491592, 0.037332054, 0.062155336, 0.036852323, 0.054280564, 
  -0.032639302, 0.07932769, -0.031112775, -0.01904083, -0.06836245, -0.07609705, -0.069162235, 0.045559824, -0.05467936, -0.01636707, -0.061550185, -0.05999644, -0.06654606, -0.016755715, -0.07304067, -0.015338734, 
  -0.049280524, 0.0529382, 0.038003884, -0.10084413, 0.06003655, 0.031834207, 0.037932366, 0.04463659, -0.07323389, 0.0342316, -0.07804439, -0.05330945, -0.018019814, -0.075492464, -0.071168266, 0.040934116, 
  0.010151401, 0.034847613, -0.08935131, 0.39340967, -0.30097052, -0.021361928, -0.04371567, -0.06688768, 0.030697688, -0.02723746, 0.03214045, 0.046313897, 0.05618581, -0.059510745, -0.05170037, 0.0320741, 
  0.06547095, -0.013054643, -0.024385743, -0.042842906, 0.13831086, 0.011985212, 0.07815714, 0.03026144, -0.05469757, 0.026937835, 0.06531889, -0.04101177, -0.03788568, 0.0018861621, -0.065664954, 0.036312, 
  0.026506081, -0.008983531, 0.022160843, -0.010919355, -0.00253991, -0.0036201433, 0.0013933256, -0.05354105, 0.010132946, 0.0049430775, -0.019241272, 0.047790468, -0.014745807, -0.02256757, -0.056804452, 0.026190855, 
  -0.050090384, 0.050197452, 0.010339007, 0.04749061, 0.040801924, 0.025535151, -0.045503583, 0.04864858, -0.026072081, -0.0644043, 0.003550835, 0.06972507, -0.017660636, -0.04652279, -0.048344105, -0.052665703, 
  -0.056793135, -0.0892938, 0.028474642, 0.028189763, -0.09193367, -0.031702574, -0.033505894, 0.021882426, -0.016115285, 0.0097097065, -0.029457679, -0.06868706, -0.07534846, -0.06974369, 0.0454009, 0.06693301, 
  0.0357564, 0.061525147, -0.050023742, -0.087429464, 0.018173523, -0.047805432, 0.06707485, 0.054485783, 0.057938457, -0.05998671, 0.061886057, 0.019608093, 0.0011869476, 0.060791645, 0.03534493, -0.016105082, 
  0.00018879026, -0.058202207, 0.027375005, -0.06628464, 0.051183954, 0.07758257, -0.06363218, 0.073551595, -0.053046755, -0.075619884, 0.038065605, 0.009806544, 0.049274027, 0.037869334, -0.029690184, 0.04122314, 
  -0.019218873, -0.033652313, -0.05369789, -0.12927893, 0.014801823, 0.018285748, -0.03781211, 0.032725215, -0.026643082, 0.050751064, 0.019671649, 0.016044537, -0.033528745, 0.046677478, 0.025816813, 0.053237345, 
  -0.021249458, -0.068071194, 0.04888152, -0.3865072, 0.49494442, 0.033203837, 0.071499646, 0.04758863, -0.029474176, -0.007857218, 0.043872997, 0.0051634684, 0.079265, 0.039286036, 0.036135904, -0.070478156, 
  -0.053353436, -0.029762525, 0.06478972, -0.07608958, 0.049850665, -0.084239416, 0.059862956, -0.0031634814, -0.06292552, -0.034434684, -0.08637084, 0.021862203, -0.068163015, 0.04781763, -0.06252408, 0.010702147, 
  0.009053759, 0.039856657, -0.03934504, -0.110616654, 0.11373114, 0.05002902, 0.03655252, -0.052139603, 0.055294722, -0.020559683, 0.061146867, 0.049653932, 0.07649953, -0.061719067, 0.005791942, -0.06390378, 
  0.067518845, -0.033494346, -0.07755507, 0.00013455749, 0.052626595, 0.016806342, 0.06701146, -0.042194106, 0.06984992, 0.01332514, -0.059303746, -0.0042277426, -0.0255526, -0.066585384, -0.07348322, -0.045200318, 
  0.04424271, 0.023995997, 0.021501288, 0.12546143, -0.053056613, -0.0015538912, -0.06817351, -0.031491112, 0.074309304, -0.04816376, -0.03986246, 0.03809124, 0.05611397, -0.010269139, 0.065102965, 0.04795616, 
  -0.04391637, -0.025682647, -0.0851028, 0.070752, -0.014220794, -0.041249655, 0.06342548, -0.010753545, 0.043636456, 0.022022046, -0.07744598, 0.016144715, 0.0673326, 0.044443123, -0.028350942, -0.029538924, 
  -0.033400275, 0.04985349, -0.077556975, -1.1853874e-05, -0.049113344, -0.03453577, -0.07115703, -0.020020809, -0.04833292, 0.0624796, -0.07255442, -0.041350726, -0.031971063, -0.063511215, 0.035609417, 0.00073505193, 
  -0.033364274, -0.08397193, 0.03877759, 0.0058497414, 0.037665613, -0.029776072, 0.048507318, -0.055935614, -0.0091820955, -0.07483595, 0.050145626, -0.07135946, -0.078244284, -0.019978216, 0.022948006, 0.0541873, 
  0.01949799, 0.018037135, -0.021462752, -0.097342685, 0.12406817, -0.01678534, 0.01622253, -0.020329531, -0.0142929405, 0.024654552, -0.02310859, 0.07322526, -0.035128515, 0.03740987, -0.035561066, 0.026060916, 
  0.0059696287, 0.057149462, 0.06667171, 0.1042145, 0.066306725, 0.054871038, -0.020449847, 0.056844566, 0.027662918, -0.017272832, -0.012552683, -0.01928346, 0.0785695, 0.06261555, -0.01927282, -0.063799135, 
  -0.0046180114, -0.0109031405, 0.032687996, -0.053781826, 0.028651413, -0.08225559, 0.030573592, -0.04164227, -0.018057704, -0.018110448, -0.011709855, 0.07095863, 0.05920874, 7.6682496e-05, -0.022408163, -0.0032466361, 
  -0.0061373785, -0.03855348, -0.028196469, -0.019278258, 0.018017575, -0.045979884, 0.05216922, 0.06754342, 0.030486166, 0.030174963, -0.004138805, -0.07484471, -0.067056626, 0.07697721, 0.019059159, -0.05008582, 
  -0.073931925, 0.012588486, -0.077138126, 0.06871681, 0.014546111, -0.024015594, -0.0536956, -0.0016292402, 0.0004529208, -0.024252627, -0.053902067, 0.070161544, 0.061767977, -0.016866729, 0.021705728, 0.05440702, 
  -0.07649562, -0.026441239, 0.063838914, -0.01161732, 0.058277626, -0.010819635, 0.012176186, 0.00322897, 0.021403812, 0.061258886, -0.09041364, -0.054109268, 0.049859714, -0.019716876, 0.014690048, -0.067383304, 
  -0.058127936, 0.07925652, -0.028942268, 0.007821143, 0.0024487823, -0.019188616, 0.009779304, 0.0064343438, 0.036514528, 0.0067397654, 0.048113495, -0.032483768, -0.05037971, -0.0048047975, -0.07708659, 0.005075127, 
  0.053616837, 0.058906533, -0.0059757885, 0.0069839554, -0.06407929, -0.012038798, 0.034348108, -0.06492903, 0.022439912, -0.06563999, 0.04363166, -0.04689973, 0.039601192, -0.081654824, 0.004972255, -0.046260446, 
  -0.024291366, 0.0058245924, 0.06060087, 0.063589096, 0.04900825, -0.065979674, -0.023550227, 0.06196803, 0.039449826, 0.0004870668, -0.0065628677, 0.07457246, -0.0006226003, -0.070595115, 0.019844793, 0.028195344, 
  0.059487432, 0.01128355, -0.046327222, 0.08614341, -0.059977926, -0.040963933, 0.030959189, 0.059250496, 0.073288485, 0.055873603, -0.01578225, 0.028847, 0.07795382, -0.07698347, 0.054070905, -0.011792594, 
  0.06458849, 0.046269067, 0.061097555, -0.0031778046, -0.025034448, -0.036900647, -0.051367648, 0.049693346, 0.03925713, 0.051752523, -0.064592525, 0.07611878, -0.050275344, -0.0097802235, -0.06402334, -0.013033889, 
  0.041422807, -0.055039007, 0.015828706, -0.07392369, 0.01181199, -0.006764315, 0.060346738, 0.023965923, 0.033442713, 0.054065004, -0.033238154, 0.03381897, -0.0074962527, 0.026821658, -0.071600676, 0.075244024, 
  0.060796797, 0.025751557, 0.038106523, -0.0031697466, 0.011730053, -0.051040675, 0.071624726, -0.027614538, -0.04169879, 0.0060186507, 0.03248749, -0.012838505, 0.053806435, -0.014220264, 0.037642747, -0.06880164, 
  -0.06124349, -0.075685225, -0.0037616193, -0.0062784883, -0.075872995, -0.08318021, 0.024611525, -0.017312527, -0.0033936575, 0.047870815, -0.026617253, -0.04643325, -0.07444255, -0.08257749, -0.0006609053, 0.06783503, 
  0.02869463, -0.008609414, -0.07136698, -0.041376553, -0.052307427, -0.061215505, -0.041971207, 0.035387643, 0.062680334, 0.027085468, 0.06312281, 0.065819204, 0.014251135, -0.07095297, 0.060037076, -0.015385985, 
  0.045286015, -0.0030697999, 0.049185257, 0.04917591, -0.018193806, -0.009771126, -0.004338853, -0.04301775, -0.029088657, 0.06841708, 0.03437867, -0.0013473482, -0.003135118, -0.041061446, 0.035002105, -0.029091112, 
  -0.026969519, 0.019783182, 0.01401222, 0.50642645, -0.61778903, -0.041557834, 0.03820935, -0.07941274, -0.062354304, 0.009835064, -0.0206003, -0.038851283, -0.011958614, 0.017860763, -0.0031299293, 0.029752277, 
  0.04751298, -0.05144218, -0.08701042, -0.009907587, -0.07594471, -0.004350966, -0.010241099, 0.0072531826, 0.02524867, -0.0739913, 0.00092798093, -0.038072713, 0.042502254, 0.025749868, -0.06301502, -0.07206896, 
  -0.01926266, 0.025690371, -0.0032925867, 0.073205665, -0.17970286, -0.08641103, 0.012725294, -0.061208807, 0.03731998, -0.0754575, -0.060348548, 0.035625122, 0.07248519, 0.06821116, 0.050582644, -0.05543119, 
  -0.05725249, 0.03916508, 0.020860754, 0.069283396, 0.06382392, -0.021375407, -0.009535961, -0.04145623, -0.02532991, 0.00966955, -0.032511428, -0.032734632, -0.032770786, -0.007512346, 0.016704194, 0.026102565, 
  -0.013404854, 0.010990957, -0.062360305, -0.3388903, 0.22438452, -0.030414838, 0.04646945, 0.016054926, 0.053239882, 0.014787055, -0.07930756, 0.03286384, -0.016420554, -0.03624249, 0.011922008, -0.06410281, 
  -0.019814745, -0.027314149, 0.021487752, -0.10395211, 0.13018571, -0.06271359, -0.054974318, -0.007871912, 0.04081876, 0.03729143, 0.0072506703, 0.07212786, 0.0072360775, 0.012110105, 0.030700088, -0.066281214, 
  -0.059678517, 0.002168633, 0.062112346, -0.03331079, 0.07007851, -0.06439201, -0.06942755, 0.008154623, 0.06517775, -0.062774085, 0.021315254, 0.0016157106, 0.0061953515, 0.015912294, 0.07012266, -0.050037373, 
  -0.04784138, 0.000334712, 0.057752717, -0.08113182, 0.036132354, -0.050344158, 0.035628967, -0.05481988, 0.0057158843, 0.067353666, 0.011151659, 0.051152077, 0.0068801795, -0.028626993, -0.052775916, -0.0630733, 
  -0.05738884, -0.08426674, 0.009304373, 0.4513911, -0.37896347, -0.026526693, -0.005338423, 0.05730346, -0.00018021464, 0.05403522, -0.035170518, -0.02008197, 0.05425647, -0.07314594, -0.04643683, 0.011197522, 
  -0.047298193, 0.02178951, 0.028659455, -0.107043795, 0.026051575, -0.07213272, 0.07802597, 0.070634685, 0.079546556, 0.025641825, 0.028526472, -0.017297039, 0.0723291, -0.02354856, 0.03631272, 0.047536, 
  -0.07915835, 0.058585916, -0.03276038, 0.0069098184, -0.0035939985, 0.052030545, 0.024581589, -0.0013337004, 0.0013432577, -0.080506824, -0.092037044, -0.075734444, 0.019781874, 0.05624764, -0.040315583, 0.075695425, 
  0.015851267, -0.07096568, 0.04628496, -0.0018325225, -0.07672694, 0.018656477, -0.051814325, 0.06218265, 0.020667382, 0.019220728, -0.010307074, 0.005119242, 0.07001123, 0.051396057, -0.03475705, 0.017983235, 
  -0.07487124, 0.034281466, 0.017735984, 0.1501556, -0.24922866, 0.04867536, -0.07646298, 0.054310817, 0.02081389, -0.03623673, 0.0565254, 0.06261479, -0.071991906, -0.013878052, 0.06060904, -0.07083093, 
  0.056346998, 0.047615875, -0.061993174, 0.027107399, 0.11968615, -0.012893449, 0.0018651858, 0.009263821, -0.019501597, -0.027530173, -0.043446727, -0.019279212, 0.06143581, 0.049435418, 0.0016800256, -0.075334854, 
  -0.026615158, 0.021763213, 0.036675014, 0.040717363, 0.037461907, -0.065634266, -0.00434044, -0.030947331, -0.025155343, 0.031586558, 0.0014566407, -0.053238958, -0.06085824, 0.06265229, 0.075791016, -0.059698693, 
  0.07827824, -0.06333896, -0.07808078, -0.048148017, 0.06031657, -0.018589457, 0.069881916, -0.019261498, -0.053929918, 0.015195895, -0.033499304, -0.022446774, -0.009839232, 0.04372597, -0.04638693, 0.018299902, 
  -0.012267739, 0.0559993, -0.021922022, -0.5415288, 0.6189634, 0.03482626, 0.059055343, 0.040808503, -0.02291625, -0.060769647, -0.016793452, 0.067659125, 0.049194597, 0.05335133, -0.06616089, -0.002092954, 
  -0.07978885, 0.0033704606, -0.01853384, -0.07889885, 0.110503934, -0.08529734, 0.010263644, 0.04646344, -0.02745527, 0.014856256, 0.048877634, 0.05042028, 0.01325854, 0.031486094, -0.061087787, 0.017756222, 
  0.03957627, -0.063044466, 0.047154326, -0.12671055, 0.1629663, 0.05186557, -0.030407712, 0.057013724, 0.0495639, 0.062447768, -0.055469092, 0.0683081, -0.047134873, 0.06669013, -0.0057603526, -0.007873714, 
  0.04994957, 0.06286888, -0.06559124, -0.035980847, -0.004003197, -0.06409195, 0.056758434, -0.0606865, -0.0127737, -0.03823191, -0.05978045, -0.05676166, 0.00949166, 0.029130578, -0.048037425, 0.0736227, 
  -0.0683086, -0.08113719, -0.02485424, 0.18719754, -0.18765107, -0.063802674, -0.019931301, 0.042654432, 0.009544149, -0.030729963, 0.015869368, -0.018770786, 0.025354356, -0.0022970575, -0.05165987, 0.04887836, 
  0.054866433, 0.041151427, -0.072319716, 0.00091749756, -0.08672682, -0.0567015, 0.062446564, -0.054399516, 0.075787544, 0.029019345, -0.016054122, 0.028384656, 0.057150416, -0.011966178, -0.06850202, -0.037069727, 
  -0.021203242, -0.008239798, 0.051873654, 0.019124381, 0.030037694, 0.017886132, 0.0747377, 0.022666968, -0.011086412, -0.01743333, 0.03812463, -0.0511923, 0.04435026, -0.016269103, -0.04934764, -0.03525931, 
  -0.007380247, -0.075235136, 0.029834777, 0.013547722, -0.06699154, 0.055938736, -0.018599957, 0.062500805, 0.01357618, 0.05559816, 0.013990692, 0.021208202, -0.06470414, -0.08362485, -0.06537718, -0.0061578294, 
  -0.009306915, -0.07916137, -0.041647546, -0.18124075, 0.18044029, 0.013182309, 0.07765494, 0.07149917, -0.04604847, 0.04759273, 0.049296997, -0.033769168, -0.018834233, 0.019081648, -0.037137456, 0.021122329, 
  0.046274066, -0.07395658, -0.0070043923, 0.05069879, -0.091894254, -0.041049935, -0.06435713, -0.009870042, -0.066115245, -0.07219108, 0.03975859, 0.06754734, 0.018343002, -0.07993458, -0.00635109, 0.015821092, 
  -0.023670465, -0.046222858, 0.0075394325, 0.08888548, 0.007213862, -0.016451454, -0.027256157, -0.07667472, 0.006408386, 0.072269425, -0.03633116, 0.021253636, 0.011661417, -0.026833177, -0.07533148, 0.06837977, 
  -0.043931488, -0.009016618, -0.026651025, 0.02453576, 0.05339445, 0.077316985, 0.079010844, 0.03763002, -0.0055916533, -0.0055815727, -0.017537914, -0.07316581, 0.07736334, -0.038787775, -0.016139165, 0.077993885, 
  -0.034576163, 0.025850654, 0.03932324, 0.08427914, -0.056570534, -0.08128915, 0.018453449, -0.0757814, -0.078144945, 0.04686466, -0.02083779, 0.06417675, -0.061600197, 0.014544135, 0.04633915, 0.04085118, 
  0.0105443075, -0.08150163, -0.07621291, 0.08596339, -0.048065837, -0.040691495, -0.028247207, -0.05267756, 0.05506912, -0.006630999, -0.019781899, -0.024141653, 0.04971188, -0.033335365, -0.072895564, -0.030820375, 
  -0.03941816, 0.07421924, 0.06314029, 0.02488409, 0.079620436, -0.07453181, -0.017694842, -0.019871078, -0.027442042, 0.036106966, -0.04249, 0.06633258, -0.078882, 0.00014240295, 0.06417708, -0.021330431, 
  0.06368685, -0.021241538, -0.029271573, 0.053829484, -0.11261154, -0.041419324, 0.012574054, -0.032037497, -0.037460953, -0.055882663, 0.020440342, 0.04728983, 0.066648476, -0.048689283, 0.061438885, 0.012468177, 
  -0.07961306, -0.020664591, 0.0123280715, 0.15373784, -0.10346775, 0.023856087, -0.05079592, -0.061316654, -0.031282548, -0.026032664, -0.014827239, -0.061590236, 0.073306456, 0.06601901, -0.045561537, 0.02392301, 
  -0.034583934, -0.06572576, -0.08496639, 0.13456908, -0.053214043, 0.034331612, -0.0694281, -0.03175407, -0.015032075, 0.040333822, -0.030391533, 0.04473701, 0.03883671, -0.025735008, -0.02998384, 0.022957612, 
  -0.027405526, -0.06133269, 0.0065390514, 0.1349349, -0.039567128, -0.066708215, 0.05322568, 0.016978946, -0.073420666, -0.023062281, 0.0099858465, 0.0054232767, -0.041467834, -0.051111497, -0.05276659, 0.009212681, 
  0.06738214, 0.008263824, -0.05673373, 0.07568656, 0.037654966, 0.036765546, -0.07788404, -0.071450226, 0.052142352, -0.021780191, 0.05397895, -0.07497008, -0.02512566, -0.015801527, 0.048336916, 0.024360143, 
  -0.077665515, 0.039357707, -0.013745924, -0.12727365, -0.008302371, -0.06600495, 0.046586722, -0.03152763, -0.024898637, -0.0669109, -0.08976335, 0.06913859, 0.06880624, 0.040098894, 0.055997357, -0.026307363, 
  0.07765731, 0.06294194, -0.07531385, 0.1243808, -0.08507581, -0.078309245, -0.07090752, 0.06866362, -0.06541484, -0.014471055, -0.029496659, -0.08129072, -0.025148233, 0.054064557, 0.059665214, -0.07793396, 
  0.056270927, 0.018080682, 0.016512983, -0.050132036, -0.071063034, -0.021425743, 0.012142003, 0.014901474, 0.07215342, -0.06266484, 0.066008136, -0.011652373, -0.008388713, -0.077626, -0.023280386, -0.003220275, 
  0.04853925, -0.05640368, 0.058087107, 0.06196386, -0.11129298, -0.07131176, -0.037734114, -0.005544751, -0.0011015534, 0.01960298, 0.047423556, -0.08273838, 0.05937077, 0.05681595, -0.0085405875, -0.051462706, 
  -0.055032674, -0.06660339, -0.08313861, 0.4872617, -0.59984046, -0.024399793, -0.07413873, 0.015820421, -0.03345892, 0.06348789, -0.019690104, 0.022366762, 0.052826986, -0.017034583, -0.06264025, 0.058493346, 
  0.030628264, 0.0012909081, -0.07761639, -0.008486775, -0.081893824, -0.048054945, -0.03344777, 0.029620877, 0.03991086, 0.06708354, -0.008524511, 0.066220276, 0.0151105225, -0.021993551, 0.04744931, 0.031128848, 
  0.0023559183, 0.023643197, 0.05841238, 0.13446622, -0.06889019, 0.023595968, 0.046197206, 0.03388866, 0.038374424, -0.05696252, -0.084145226, 0.032644782, 0.05290399, 0.037403926, -0.032137826, 0.07444587, 
  -0.03330743, -0.02508485, -0.04785734, -0.01930143, 0.07547182, 0.058380425, -0.07149045, -0.07843464, -0.01562833, 0.07211417, 0.041888133, 0.0035605133, -0.015267499, -0.023904875, -0.019508716, 0.079093754, 
  0.02735962, -0.062755, 0.08226098, -0.3122606, 0.34622273, -0.010394818, 0.019210167, 0.018398108, -0.078284465, -0.020000564, 0.014636788, 0.07030709, -0.011494061, 0.0050089154, -0.035744917, 0.05153736, 
  -0.040530883, 0.02391059, -0.07296771, 0.012421621, 0.04506035, -0.06007256, 0.029461384, 0.06552441, 0.055921316, -0.05350162, -0.019198451, 0.065603524, 0.07074534, 0.06665464, -0.049510658, -0.011581511, 
  0.010443211, -0.04832389, 0.038105696, -0.05998424, -0.041206624, -0.07305233, -0.04020628, -0.057948615, 0.011438809, 0.009709612, 0.05899629, -0.022425782, 0.0018409938, 0.0017112345, -0.0056359023, -0.027207326, 
  0.011023052, 0.024038166, -0.0003148559, -0.03785167, 0.118131354, 0.015427071, 0.04351463, -0.061745945, -0.05320897, -0.058547556, 0.024468577, -0.073473394, -0.06430128, 0.029441955, -0.008628918, 0.013277198, 
  -0.01588025, -0.03034031, -0.045398038, 0.29741675, -0.34909344, 0.057444423, 0.04049229, -0.049479492, -0.072938375, -0.0636869, -0.07796648, -0.030219419, 0.032465786, -0.05366753, -0.05282013, -0.037174802, 
  -0.019148357, -0.053869676, 0.053227767, -0.075673334, 0.09257104, -0.040669005, 0.06519315, -0.047163717, 0.029278703, -0.07549324, -0.07500672, -0.015866697, 0.03892756, -0.06006186, 0.0031540897, 0.01460218, 
  0.035679802, -0.090527214, -0.030492593, 0.020758785, -0.05566626, 0.029619915, -0.024739973, 0.01677181, -0.061285615, 0.04338247, 0.03485859, -0.01834305, 0.033710275, 0.049610976, -0.010378118, 0.026697613, 
  0.06785545, -0.07663567, 0.008151472, -0.0714492, 0.028973706, 0.06217794, 0.07254246, 0.05407183, -0.005881518, 0.030319653, -0.034761265, 0.011318527, -0.05985988, -0.004557863, -0.008608192, -0.030567314, 
  -0.060113013, -0.03805321, -0.08949029, 0.31840694, -0.24698569, -0.030858144, 0.06727968, 0.05041929, -0.04557673, -0.04733641, -0.059365604, 0.020547412, 0.0006768355, 0.011128223, -0.02713075, 0.0630029, 
  -0.02733314, 0.051892616, -0.07367494, -0.0625038, 0.099074766, -0.07729396, -0.003239289, 0.062215284, -0.052441373, 0.011448769, -0.066860214, -0.031207476, 0.07547786, -0.028668975, 0.03837083, -0.003430164, 
  0.027551018, -0.075146556, 0.03908968, 0.035494603, 0.027397908, 0.003978841, 0.0465568, -0.033362996, 0.0386732, 0.02320195, -0.009901345, 0.042978518, 0.0069806874, -0.019210853, -0.021417554, 0.021795072, 
  0.044983044, -0.014783058, -0.022841018, -0.090436846, 0.1107853, 0.036460213, 0.04887843, -0.0650534, -0.055239633, 0.052926708, 0.0037442676, -0.07841559, 0.04813784, -0.014045324, -0.039984897, -0.013796983, 
  0.021910004, 0.04810046, -0.05044381, -0.5007006, 0.6093258, 0.011291108, -0.06568594, 0.03718511, 0.012731478, -0.017052632, -0.025208026, -0.05800558, 0.03418918, 0.05907657, 0.06196362, -0.06792127, 
  -0.025403459, 0.006263507, 0.020899098, 0.0041355877, 0.08836997, 0.02067581, -0.011603467, -0.020197624, 0.061566293, 0.026228534, 0.024388865, 0.043512154, -0.080284595, 0.018151257, -0.05873555, -0.06966036, 
  -0.059129465, -0.008748064, -0.047416817, -0.13249893, 0.18004161, -0.047824174, 0.024738632, -0.047598466, -0.0127122775, -0.013470234, -0.08006013, 0.016665494, -0.038930856, 0.005133537, 0.019556854, 0.042038977, 
  0.009104021, 0.0519, -0.0064195916, 0.056668773, 0.027382504, 0.06408042, -0.006681733, -0.048747964, -0.045560353, -0.03502047, 0.047567055, 0.064779565, 0.025629967, -0.07514257, 0.025120014, -0.07089063, 
  -0.014700368, -0.03719022, 0.009362379, 0.19118255, -0.15988854, 0.025281072, -0.0415256, -0.035504032, -0.060070027, -0.03107181, -0.007175402, -0.0063180793, -0.009720605, -0.041300192, 0.055630837, -0.07368137, 
  -0.022924151, 0.026112283, -0.072724424, 0.09390281, -0.0968018, 0.015095211, -0.022327382, -0.03299768, -0.054027423, 0.0154995015, -0.0776023, -0.03156306, -0.0046370556, 0.011180796, 0.059610285, -0.053285055, 
  -0.06136642, 0.027973495, 0.03532011, -0.079386115, -0.07963057, 0.057722643, -0.046409212, 0.03349828, -0.014847621, -0.012762174, -0.020349823, 0.039158724, 0.029985756, -0.01919312, 0.0037222505, -0.013014451, 
  0.07599819, -0.022710927, 0.016201476, 0.1088217, -0.16756228, 0.013142645, 0.042039834, 0.0020951151, -0.04636338, -0.0869732, 0.03782771, 0.051474538, 0.035836983, -0.028039036, -0.073983796, 0.04420222, 
  -0.037301656, 0.0043058298, -0.010353913, -0.13318281, 0.043481678, 0.033285834, -0.04209475, -0.0025962496, -0.051622123, 0.07508893, -0.015918823, -0.07385445, -0.07945438, 0.060198463, 0.06949645, -0.042414512, 
  -0.073970824, -0.06603516, 0.0003113988, 0.110000275, -0.12250492, -0.04445569, 0.058104903, -0.0074637504, -0.07398434, 0.049960043, 0.0089336, 0.04257627, 0.07475554, -0.0845698, 0.01951381, -0.07921294, 
  0.07502164, -0.05854455, 0.04712708, 0.054345053, -0.008743919, -0.017255032, -0.046669334, 0.011462719, 0.07525414, 0.05484529, -0.018205864, 0.07252968, 0.0021380056, 0.019794412, 0.04012293, 0.0048584077, 
  -0.07191403, 0.06317678, 0.02850926, 0.06502402, -0.0651656, 0.054720134, 0.020415507, 0.0017018169, -0.05321966, 0.07417333, 0.064621165, -0.06202229, 0.001959078, 0.05815725, 0.027366474, 0.034480162, 
  0.026962094, 0.032185175, 0.042141527, 0.07523006, -0.14417675, 0.004735124, 0.063056886, -0.06912299, -0.012834981, 0.010666573, 0.041931123, 0.04954621, -0.06632239, -0.025575912, -0.032921795, 0.037491623, 
  -0.010768622, -0.05023203, -0.021809323, 0.08559246, -0.1184441, 5.8405978e-05, 0.0071512237, -0.05016063, 0.016217276, 0.009102988, -0.040520106, -0.008214359, 0.061539292, -0.024445223, 0.06104265, -0.081676096, 
  0.050894722, -0.02316992, 0.060150385, -0.010665201, -0.016662769, -0.060806125, -0.02061617, 0.035899527, -0.005462095, 0.018958502, 0.024862543, 0.055590063, -0.015596591, -0.033256233, 0.07394625, 0.078330144, 
  -0.06767667, -0.024836756, 0.07142072, 0.052229017, -0.081806205, -0.04406698, 0.072031274, 0.004710378, 0.036326334, 0.030495996, 0.049685184, 0.018161032, 0.02552946, -0.06252802, -0.074311234, -0.07937843, 
  0.024269283, 0.019021332, 0.0042344015, 0.01727302, -0.00028858258, -0.04352811, -0.034881085, 0.07361996, -0.06787038, 0.048105314, -0.015132073, -0.0547996, -0.0037225932, -0.078867644, -0.04161224, 0.027785316, 
  -0.051504076, -0.0585626, -0.05451881, 0.10797362, -0.053191986, -0.033121902, 0.05731745, -0.029406043, -0.049294382, -0.034944646, -0.006252785, 0.061187636, -0.031182451, 0.07142367, 0.042674046, 0.055511612, 
  0.013007961, -0.008134536, 0.008454388, 0.1396655, -0.040885083, 0.018058062, 0.0736649, -0.055324953, 0.014770582, 0.03283577, 0.059005246, -0.021442125, 0.009694327, 0.02829336, -0.044911463, -0.036102366, 
  0.004664488, -0.058705363, 0.028176062, 0.037365258, 0.019420063, -0.015544474, -0.025412697, 0.04028568, -0.054362886, -0.014065206, 0.042267315, -0.032327067, -0.06897274, 0.07500404, -0.07565041, 0.008617086, 
  0.057863444, 0.022506902, 0.070162565, -0.06330009, 0.049305387, 0.02315731, -0.05926265, -0.043032054, 0.023708932, 0.060842734, 0.020679623, 0.010200831, 0.039220855, -0.005555336, -0.044447016, -0.008016083, 
  0.0059823617, -0.010104067, 0.03700646, 0.028554937, -0.023331324, -0.07794558, -0.024025116, -0.026799617, -0.068528846, 0.039221447, 0.0238761, -0.029639341, 0.034050427, 0.02632798, -0.0061335727, 0.06499307, 
  0.050759956, 0.008955032, -0.021285404, 0.026132897, 0.058717147, -0.043689862, 0.037569396, 0.0032162443, -0.0037568212, -0.056855805, 0.047209352, 0.0076145083, 0.051447272, 0.055561095, -0.028518077, -0.010209031, 
  -0.030782633, 0.03005778, -0.03273904, -0.008480396, -0.01923287, -0.056666862, -0.0602173, -0.002887429, 0.04883206, 0.016911399, 0.014270248, -0.017587654, 0.06721688, -0.05967554, -0.024645569, -0.048595104, 
  0.0719976, -0.04818367, 0.020561054, 0.47756815, -0.45636716, 0.022905702, -0.03389097, 0.04676819, -0.05397869, -0.0011796504, 0.0518718, 0.05712658, 0.06777634, -0.070282936, 0.03354484, -0.06674972, 
  -0.05673854, 0.010232715, 0.017086186, 0.03946945, -0.021770064, -0.08867127, 0.010769725, -0.07012339, 0.046037793, 0.036577202, -0.06693469, -0.078958526, -0.029140815, -0.0398668, -0.070636325, 0.05479526, 
  0.022552535, -0.07409754, 0.068301305, 0.11513071, -0.071463205, 0.01861752, -0.020512022, -0.047454815, 0.016971879, -0.09681767, 0.057051662, -0.020447778, 0.01298923, 0.011507454, -0.06041626, -0.06662161, 
  -0.07791256, 0.004084401, -0.006631553, -0.035130978, 0.060988292, -0.06139809, -0.06658021, 0.011573613, 0.06901689, -0.06303631, -0.027826358, 0.050098628, 0.07218142, -0.032892305, 0.05043249, 0.010798968, 
  0.036326773, 0.02636933, -0.0676141, -0.38587406, 0.39848197, -0.009587929, 0.017316699, 0.027481887, -0.07896861, -0.006258815, 0.0038839355, -0.055499252, 0.035446327, 0.010535469, -0.021419523, 0.025691923, 
  -0.04678371, -0.074915186, -0.04150276, -0.14711504, 0.104118176, 0.037624445, -0.007510267, -0.036908217, -0.0031800345, 0.017353538, -0.028302297, -0.033587575, 0.008362607, -0.020392437, 0.043191683, -0.024021411, 
  0.07600404, 0.042961992, 0.027289122, -0.01834556, -0.006823525, 0.068877384, -0.042259276, 0.0644131, 0.05199574, -0.047733378, -0.07639426, 0.061945587, 0.052774906, -0.04682928, -0.05182412, -0.03286728, 
  -0.03293663, 0.038935546, 0.05546868, -0.05457278, 0.11676107, 0.0075758123, 0.018696964, -0.028178658, -0.048389744, 0.027135381, 0.06712513, 0.0049574296, -0.053942986, -0.003189691, -0.022766305, 0.026157979, 
  0.054178968, -0.054174542, -0.018466758, 0.3598552, -0.3637047, -0.06587977, 0.04389999, -0.05357494, -0.014800355, 0.039059334, -0.045554318, 0.08077455, -0.019561052, 0.007783253, 0.044324588, -0.037012663, 
  0.010416068, 0.020274684, -0.02946339, -0.04233925, 0.044179007, -0.010647504, -0.018511958, 0.06258699, 0.03257606, -0.05014478, 0.007847472, -0.08532504, 0.06774643, 0.030379914, -0.03274846, 0.034562312, 
  -0.05271314, -0.012040122, 0.015778735, 0.050229523, 0.08327261, 0.013360097, 0.019868769, -0.06696164, -0.030208405, -0.048604984, 0.004977286, 0.051607154, 0.055901658, -0.07249964, 0.0344348, 0.07082309, 
  0.045392334, -0.01476711, -0.034385026, 0.051947355, -0.049827963, -0.0037243739, 0.070492074, -0.07202446, -0.05514814, -0.06566796, -0.025335196, 0.04725372, -0.020107377, -0.005974002, -0.033803497, 0.012165344, 
  -0.042769726, -0.06170019, 0.023874497, 0.2880682, -0.35466895, -0.007849339, -0.023230184, 0.07072117, -0.017071255, 0.029288767, 0.05598835, -0.030805625, 0.05520848, 0.029073833, 0.03661106, 0.06902132, 
  0.019103251, -0.08311124, -0.05170083, 0.0050710426, -0.004527003, -0.08650448, 0.00056869537, -0.019197598, 0.010406338, -0.024213448, -0.088685915, -0.021618897, 0.030378202, -0.0649531, 0.046344604, -0.0829178, 
  -0.053788222, -0.045489054, -0.04421072, -0.0047694594, -0.06348047, 0.051842555, 0.044939756, 0.0068377256, 0.040586263, 0.005081065, 0.02286528, 0.06524134, 0.06338328, 0.047740713, -0.051809877, -0.017237417, 
  -0.0065787733, 0.06234295, 0.04455371, -0.19057995, 0.12682989, 0.00017928463, 0.026199006, -0.013956025, 0.042364813, 0.043722395, -0.088697344, 0.023384908, -0.059189193, -0.048146263, 0.006960605, 0.007664556, 
  -0.008093655, -0.018228624, 0.019137677, -0.5162571, 0.6135423, -0.063687645, -0.01701454, -0.0611842, -0.026698995, 0.066305175, -0.023820747, 0.043488372, 0.053589694, -0.048091676, 0.01998902, -0.07452927, 
  -0.008942783, -0.06827859, -0.035240676, -0.060610432, 0.09715595, -0.08834232, 0.0088837, -0.082185276, -0.060328774, -0.05890023, -0.07700905, 0.030180264, -0.039377492, 0.05014339, -0.07648003, -0.046433218, 
  -0.028770585, -0.0284052, -0.048718702, -0.15647908, 0.19381663, -0.08262657, -0.05516026, -0.014398965, -0.055598445, -0.06733061, -0.025375733, 0.06981903, -0.07137185, -8.426641e-05, 0.078898616, 0.045671158, 
  0.07507306, 0.04268901, -0.04354557, 0.053711653, 0.023641126, 0.066658854, 0.023535028, -0.05411735, -0.052757367, 0.003560533, 0.026349612, 0.078851216, -0.07197143, 0.044676736, -0.062995434, -0.025545174, 
  -0.007909372, -0.030502029, 0.042330507, 0.27984664, -0.3385707, 0.058248043, -0.035818957, 0.05893346, 0.057224125, 0.0010516505, 0.0380992, 0.03457692, 0.00018443387, 0.001137648, -0.00021142996, 0.051029842, 
  -0.04897993, -0.0947062, 0.009437015, 0.066076726, -0.18157908, -0.014449295, -0.01213032, -0.043903288, 0.06867501, 0.06553722, 0.018792292, -0.0060005086, -0.054225564, -0.06425039, 0.055571117, -0.006920074, 
  -0.03940787, 0.012504779, -0.027792055, 0.01122646, -0.0093018785, 0.013935022, 0.039968148, -0.074789025, 0.08000323, -0.057881497, -0.013579883, -0.028752279, 0.07806912, 0.041570134, 0.0111089945, -0.049093187, 
  -0.0032125413, -0.016566707, 0.007388924, 0.20366886, -0.17294064, -0.077090405, -0.03620184, 0.04618546, -0.012449153, 0.028744655, 0.02074119, 0.0005465543, -0.041261096, -0.054708853, 0.01765192, 0.046001732, 
  0.059383735, 0.07027235, 0.075596705, -0.29000154, 0.19573843, 0.04241816, -0.046086382, 0.053110957, -0.058386914, 0.016334532, -0.08497523, 7.7243996e-05, -0.049418975, 0.0069022328, 0.035339676, -0.013426764, 
  -0.07123369, 0.038270872, -0.054394223, 0.090867795, -0.14783064, 0.043369304, -0.07138178, 0.0057630716, 0.007760823, -0.017197844, -0.0673492, -0.017644517, -0.06497916, -0.006436163, 0.04445591, -0.028416755, 
  -0.014038086, -0.07731773, -0.004469399, 0.0061647203, 0.045322053, -0.083484456, -0.007953867, 0.0019291992, -0.069396414, -0.003830027, 0.059940267, 0.0057579237, 0.054495268, -0.08241663, -0.025180647, -0.0375545, 
  0.013841242, -0.0043265447, -0.060610674, 0.025868595, 0.040797748, 0.02963958, -0.0058514327, -0.06493575, -0.039763514, 0.054506183, -0.03626107, 0.027576044, 0.00040670484, 0.079515725, -0.021108773, 0.07199465, 
  -0.016740233, -0.055804443, 0.009620743, 0.22301936, -0.18665347, -0.019890603, -0.013526849, 0.048069093, -0.06534232, 0.028753607, -0.08437522, 0.02696814, 0.002532293, -0.02924821, 0.014549612, -0.06766524, 
  0.0006308481, -0.022675093, 0.044345103, 0.10248982, -0.12000765, 0.03690845, -0.025806233, 0.0010740422, 0.016490974, -0.035815675, 0.020007659, -0.06863719, 0.0053275013, 0.004326308, 0.00864355, 0.046116132, 
  -0.04350972, -0.02717673, -0.0041546896, -0.046062406, -0.05242897, 0.055186078, 0.021128893, -0.0748058, 0.05634883, 0.010794386, 0.035900734, 0.0010800064, -0.042056095, 0.06302668, -0.004260175, 0.051436484, 
  -0.046829984, 0.011462447, 0.003659346, 0.062789194, -0.16486734, -0.0082692355, 0.038870603, -0.033804923, -0.021228898, -0.031791024, -0.049877893, 0.010437843, 0.0025334188, 0.06563285, 0.07291481, -0.0053311726, 
  -0.06363884, -0.06549121, -0.0021517926, 0.1605736, -0.07011524, 0.03311586, 0.003627248, -0.0008645281, -0.051392063, 0.045149963, 0.04616276, -0.064420894, 0.0014590323, 0.078465566, -0.058256384, -0.032976698, 
  -0.05891586, -0.044535365, -0.058517378, 0.0753379, -0.050296247, -0.0337666, -0.020593092, 0.024375645, -0.07479124, 0.06602611, -0.07364235, 0.068647556, -0.014462341, 0.058307886, 0.01917788, 0.050894458, 
  -0.073749244, -0.06851254, 0.031728968, -0.003283292, -0.051038314, 0.02067347, 0.025316201, -0.067580186, -0.038298454, 0.057308853, 0.009009103, 0.04882087, -0.041287005, -0.0489739, 0.035896566, 0.021499617, 
  0.037403516, 0.017590044, 0.044761546, -0.00054282695, -0.016884902, 0.05450873, 0.0018592477, -0.048337363, -0.009045534, -0.009728203, 0.02384685, -0.027958198, 0.025071464, 0.026993744, 0.067589276, -0.044803157, 
  0.060715914, -0.08551018, 0.07511558, 0.03548383, 0.05836891, -0.069358625, -0.035097726, 0.051821094, -0.0008100346, 0.059219155, 0.046372227, -0.042800564, -0.054132964, -0.07857494, 0.054244604, -0.0047886884, 
  0.05309789, -0.0622664, 0.05231994, 0.03475125, -0.052485667, -0.03129469, -0.070973605, 0.07326135, -0.0708219, -0.007670577, -0.021518664, -0.08348946, -0.05475941, 0.006709426, -0.0023802004, 0.064724885, 
  0.028992489, -0.012526162, -0.05391764, -0.03011636, -0.030773718, -0.05012314, -0.04003404, -0.07392935, 0.07116133, -0.053908613, -0.024591345, -0.0784802, -0.07449029, 0.020954251, -0.006838225, -0.025062133, 
  0.01590892, -0.057314407, -0.023505358, 0.07864619, 0.06374889, -0.07784596, -0.015174761, 0.014345466, 0.016173027, -0.06767707, -0.049634147, 0.017586222, -0.07479848, -0.04215145, 0.047293115, 0.014356511, 
  0.036317363, 0.022715593, -0.021455644, 0.4296941, -0.330424, -0.07498537, 0.010760434, 0.04648301, 0.03252025, 0.061295956, -0.057941053, 0.061562598, -0.06551958, 0.024106912, -0.027684622, 0.074164, 
  -0.0035083592, 0.06499676, -0.058674436, 0.1055418, -0.058511604, -0.05760075, 0.06895991, 0.016433787, -0.044845037, 0.0445718, -0.057475608, -0.00079879764, 0.049906027, 0.01958979, -0.034549717, -0.010919581, 
  -0.023500614, 0.023652563, 0.047649387, 0.037038047, -0.022446763, 0.059596363, -0.04362351, 0.041361567, -0.06793822, -0.059235036, 0.0036490103, -0.0029351478, 0.07744689, -0.012327514, -0.075921014, 0.029435622, 
  -0.0054704994, 0.005716838, -0.03154607, 0.005590506, 0.0022723079, -0.06447209, 0.0056434423, 0.07638918, -0.014546171, -0.0018612295, -0.030015, -0.05396004, -0.05843488, 0.065221265, 0.011394292, 0.012199514, 
  0.010368675, 0.07443663, -0.021047337, -0.40745947, 0.45396537, -0.03127348, -0.048699997, -0.011608263, 0.052084416, 0.06663813, -0.041766807, -0.029154489, 0.005940975, -0.004961601, 0.005277583, 0.021959433, 
  -0.04422563, 0.014665481, 0.04377918, -0.14049853, 0.15558013, -0.086291395, -0.016363516, -0.043495223, -0.007237561, -0.061753444, 0.043806516, -0.0100968685, 0.05591763, -0.084973894, 0.009867987, -0.0411436, 
  -0.055272523, 0.04705891, 0.022787802, 0.032226644, -0.041676745, -0.008968189, -0.0043379217, -0.05192071, -0.045964576, 0.051729128, -0.059692472, 0.07274088, -0.030926257, 0.03561098, -0.073966645, 0.013682693, 
  0.019085594, 0.046105128, 0.06854255, 0.01496694, 0.020710818, -0.0030293602, -0.07217534, 0.005848019, 0.046982154, -0.019360425, 0.05678456, 0.05560303, -0.05802604, 0.010263766, -0.07556736, 0.013996775, 
  -0.07784414, 0.05557368, 0.006872087, 0.23211057, -0.26865092, 0.053598672, 0.01057867, -0.008244826, 0.05817619, 0.024396705, -0.0380676, -0.04645525, -0.055944365, 0.03669492, -0.07916636, -0.0621823, 
  -0.0019673482, 0.05427707, -0.045622464, -0.07050011, 0.14729063, 0.019602282, -0.023411509, 0.054828074, -0.032625023, 0.011160238, -0.06706752, -0.040330958, 0.027161734, -0.08466003, -0.047085572, 0.007976868, 
  -0.020942833, -0.062212665, 0.055507883, -0.053747453, 0.10723862, -0.038748298, 0.047641277, 0.05103493, -0.05932457, -0.068188645, 0.043143403, -0.021142548, -0.0015126213, 0.017380271, 0.032778483, -0.038741574, 
  0.01353281, -0.02483181, 0.0058233887, -0.073186696, -0.02904124, 0.044530228, 0.061667293, 0.039207686, -0.0163832, -0.07774221, -0.078561045, -0.05066064, -0.04244062, 0.014229871, 0.04727935, 0.046662882, 
  -0.0712762, -0.048028503, 0.00519069, 0.33881226, -0.42225385, -0.03031601, 0.04082063, 0.034380883, -0.052169323, 0.045603067, -0.016284242, 0.07021787, 0.024917293, -0.04631965, -0.05302524, 0.084858894, 
  -0.06213776, 0.065293655, -0.002265819, -0.065806314, 0.0021842816, -0.052583545, 0.0018666163, -0.03159371, -0.018802162, 0.059868056, -0.041493915, -0.0074326126, -0.07308029, -0.02123525, 0.021266378, -0.025198564, 
  0.06269172, 0.013932258, 0.07796408, 0.0091171935, 0.054808795, 0.030154102, 0.057193324, -0.047977105, 0.051148668, -0.021528706, 0.00013314188, -0.068776734, 0.06010127, 0.013513967, -0.07886805, 0.009917453, 
  -0.032213222, 0.0040907133, 0.03916945, -0.09113329, 0.1866653, 0.00041932485, 0.054124177, 0.02045271, -0.0040889084, -0.07380417, 0.028950574, 0.037678737, -0.0020454936, -0.055657517, 0.033954855, -0.028689753, 
  -0.073741265, 0.09933212, 0.032444905, -0.6473373, 0.672857, 0.04569493, 0.0799174, -0.086140886, 0.056021705, -0.017443413, 0.044599097, 0.06141965, 0.021644933, -0.02222054, 0.07600222, 0.039241392, 
  -0.059125245, 0.037478592, -0.072916225, -0.023106957, 0.038714454, -0.068828754, 0.027009606, -0.08388839, 0.050878763, -0.077522695, -0.013207415, 0.07326272, 0.012985993, -0.07944394, 0.052711252, -0.05320024, 
  -0.0065449625, -0.063797705, -0.028193265, -0.12572676, 0.15349297, -0.076049745, -0.0693799, 0.017716065, -0.034933448, -0.06284762, -0.050462104, -0.008626665, 0.025626367, -0.0005498269, 0.003145331, -0.015559783, 
  -0.06596494, 0.020829536, 0.0249141, -0.029547725, -0.03469322, 0.07058345, -0.0060270503, 0.0799488, -0.03794304, 0.0062171654, -0.07832131, -0.0048988615, -0.0017989427, 0.038094737, -0.008520228, 0.07824408, 
  0.017306715, 0.013384801, -0.076865375, 0.40677533, -0.33914462, -0.0053183935, -0.057954498, -0.06209619, -0.049557004, 0.045840103, 0.030457683, -0.028249828, -0.043453142, -0.027437346, 0.029625216, -0.06419952, 
  -0.05180738, 0.030635191, 0.047418654, 0.10282899, -0.22967157, -0.0055508683, 0.008168042, 0.02193166, -0.027307447, -0.0141641935, -0.07933345, 0.04441978, -0.03657563, 0.042694643, -0.08250771, -0.018781675, 
  -0.0057059154, -0.03295364, -0.030891974, 0.03149247, -0.07411527, 0.027589984, -0.01772298, -0.035034254, -0.039301127, -0.043342847, 0.07375273, 0.04114125, 0.03757865, -0.079393946, 0.07485576, 0.052083522, 
  -0.009673342, -0.047355883, -0.06002355, 0.19864471, -0.28252357, -0.06457263, 0.027105607, 0.047923837, 0.02073986, -0.07809126, 0.06015012, -0.028796777, -0.04416035, 0.0101977745, 0.008732713, -0.0061957813, 
  -0.0243388, -0.049783297, -0.025747051, -0.11784493, 0.15902555, -0.06720191, 0.07821417, 0.033155024, -0.046830498, -0.058412787, 0.009235381, 0.074820355, -0.053249262, 0.006026, -0.011043459, 0.07740359, 
  0.018249065, 0.045529313, 0.05048287, 0.21737207, -0.13944249, -0.057725117, -0.024843737, -0.025367148, 0.010472894, 0.007684649, 0.055136945, -0.07813851, -0.029393712, -0.07457747, 0.06060403, -0.0184786, 
  -0.050597742, -0.009832646, -0.015946398, 0.11761467, -0.08457599, -0.032389544, -0.015846707, -0.07691807, 0.038648047, 0.056253985, 0.04478064, 0.071785405, -0.06347463, -0.046439502, -0.0053075883, -0.05057792, 
  0.03497319, 0.013035104, 0.030612744, 0.032047726, -0.0052478835, 0.061220467, 0.06367208, -0.07018646, 0.013360813, 0.0550178, 0.03262447, -0.07580724, 0.0018871948, -0.042537037, 0.020483613, -0.0733219, 
  -0.05451905, -0.009684082, 0.01248705, -0.039310645, 0.027564446, -0.051108032, 0.016839474, -0.03605543, 0.05035545, 0.051120985, -0.05091301, -0.0039016332, -0.058627278, -0.078516886, -0.027348695, -0.023896854, 
  0.0119339675, -0.087960705, 0.03937415, 0.14207546, -0.17356557, 0.061470438, -0.027414974, -0.07885635, 0.062444806, 0.047790755, -0.0681081, -0.0077588954, 0.044092186, 0.07327301, 0.027274536, 0.0024297787, 
  0.037332676, 0.04527265, -0.04375931, -0.061808094, 0.044261783, -0.07305218, -0.026458628, -0.054677393, 0.04606366, -0.011179276, -0.070673, -0.00064630806, -0.05806975, 0.06824805, 0.033721536, -0.0075999647, 
  0.07093164, 0.030551955, -0.0017154453, 0.17293333, -0.1635424, -0.058166966, -0.0735042, 0.01671607, -0.035117596, -0.08932865, -0.08597273, -0.019108819, -0.0580391, 0.023398593, -0.046722695, 0.039667208, 
  0.026781172, 0.029006982, -0.0121299345, 0.35387912, -0.38267112, -0.03312672, -0.028335359, -0.06857312, -0.010484025, 0.046229348, -0.08696757, 0.039343104, -0.02645002, -0.030628264, -0.066464186, 0.04113502, 
  -0.055994976, 0.023871908, -0.027195243, 0.18959302, -0.17210962, -0.05293746, 0.06378035, 0.057851404, 0.051671028, 0.023291597, -0.007754773, -0.0713189, -0.027528865, -0.03738656, 0.0077312505, -0.017067255, 
  0.047112226, -0.016708072, 0.025507417, 0.14082162, -0.17937168, 0.019268282, -0.022431035, 0.0588282, -0.051462922, -0.006689672, -0.021231791, -0.003697933, 0.03555438, -0.0056605116, -0.00505417, -0.011773282, 
  -0.024524327, 0.03622639, -0.07154239, -0.0028688908, -0.080471374, 0.024705037, -0.021617107, -0.06823315, -0.014182247, 0.046280872, -0.0020542368, 0.036779217, -0.00019814074, -0.017387725, -0.017426517, 0.0390124, 
  -0.020453896, 0.047051482, -0.03634408, 0.10873625, 0.029775016, 0.04066853, -0.014249854, -0.047034156, 0.02904401, -0.0786889, -0.08106316, -0.0293556, 0.044418015, 0.03675665, -0.05456505, 0.074681826, 
  0.037152305, -0.08470797, -0.069118105, 0.09308636, -0.11254208, -0.031932008, 0.010698371, 0.017662734, 0.0045882314, 0.0141163375, -0.011189573, -0.02443914, -0.027585195, 0.07008325, -0.03689145, -0.023549493, 
  0.06133905, -0.078860566, -0.03851297, 0.04752773, -0.047490265, -0.0058463886, -0.015670866, 0.06740551, 0.043361686, -0.073927246, 0.052008837, -0.0053121746, -0.049527228, -0.008417875, 0.0014969781, 0.0356702, 
  0.030765548, -0.015969457, -0.02208131, 0.01296453, 0.030312888, -0.040571403, 0.023500383, -0.03875286, -0.023934044, -0.067476764, 0.014039577, 0.02579757, -0.058183633, -0.0062797647, -0.035199303, 0.013478437, 
  0.061951563, -0.022418713, 0.020603156, 0.14166911, -0.20692301, -0.076529145, 0.012713365, -0.009011939, -0.018544503, 0.014322452, -0.07159583, -0.036947712, 0.046647653, -0.030837055, -0.033060666, 0.009644903, 
  -0.05553112, -0.054527674, -0.048144206, -0.03549318, 0.04341909, 0.010395487, -0.06020859, -0.065962605, 0.00632596, 0.03593743, -0.01464269, -0.06996287, -0.039410163, -0.04851477, -0.045330025, 0.042456914, 
  0.018142894, -0.03656242, -0.042885475, 0.067318074, -0.06588909, 0.0024771316, 0.010768503, 0.0110861445, 0.03869214, -0.028625969, -0.03853311, 0.011914913, -0.0058638426, 0.01954659, -0.011889713, -0.01926673, 
  0.07878427, -0.07338312, 0.057076648, -0.07613707, 0.05448109, -0.02199854, -0.039333615, 0.06691158, -0.042144418, -0.053112917, 0.0039894953, -0.039987065, 0.020375095, 0.05050434, 0.05114177, -0.0786073, 
  0.04540594, -0.025531286, 0.0463549, -0.42734915, 0.46663514, -0.016767805, 0.052735895, -0.046559285, 0.071610734, -0.035530042, 0.07301183, -0.07965509, 0.028893635, 0.062418267, 0.036220618, 0.009327619, 
  -0.04325151, 0.052033458, -0.028687228, 0.050041027, 0.048137315, 0.013772506, 0.06251708, 0.010365474, -0.054912835, -0.01058553, -0.049418006, -0.007813496, -0.07231299, 0.015741501, -0.08113613, 0.02603964, 
  -0.0040495098, 0.04017946, -0.051350415, -0.05828215, -0.063719526, 0.039436623, 0.06085269, -0.013569728, 0.06287533, -0.025428731, -0.017716605, 0.021378018, 0.029748693, 0.053472504, 0.054263398, -0.04038493, 
  -0.078839816, 0.0661817, -0.016771719, 0.04463369, 0.06293641, -0.048258997, -0.007906526, -0.07728426, 0.03688682, -0.039412003, -0.06334422, 0.047957566, -0.07522339, -0.056894906, 0.016723236, -0.012372843, 
  0.03820263, 0.011248582, -0.046731576, 0.2548981, -0.16349722, 0.026531503, -0.06326279, -0.009443253, -0.051740646, -0.051721662, -0.011241228, -0.024007719, 0.01480479, 0.0032312023, 0.06404139, -0.0015371434, 
  -0.010891572, -0.027272476, -0.085566185, -0.029646404, 0.029558936, 0.006948009, -0.053042993, 0.00559337, 0.0538058, -0.051809188, -0.032376684, -0.012321976, 0.00521605, -0.08338728, 0.035605896, -0.0318655, 
  -0.037348863, 0.0022002212, -0.05732913, -0.06992751, -0.0022539534, -0.029245691, -0.036254697, -0.052417032, -0.016737275, -0.06654146, 0.0015098185, -0.004889619, -0.0529226, 0.0688671, -0.017372174, 0.020678647, 
  0.04988633, 0.0038006708, 0.03794951, 0.047180325, 0.035277117, 0.035376363, -0.04514733, -0.07182331, -0.05521016, -0.046384368, 0.04927455, -0.051800597, -0.011049643, -0.045638043, 0.07821287, 0.06781645, 
  -0.07785917, -0.09761332, -0.072271444, 0.3459114, -0.34690407, -0.08742295, -0.0011328235, -0.009935017, -0.057869226, -0.034543075, -0.01567986, 0.008335832, 0.045731798, 0.04409711, 0.012996824, 0.05748984, 
  -0.041859463, -0.017739309, 0.048338644, -0.0769807, 0.12020708, -0.07155144, 0.0040400624, -0.016315605, 0.01950457, 0.057061527, -0.044830568, -0.004336664, -0.05440419, -0.07388224, 0.05204802, -0.008538485, 
  -0.079965994, 0.02030798, 0.06455335, 0.024811193, -0.07342338, -0.053429637, -0.06706067, 0.07479487, 0.034736715, -0.028363172, -0.052886333, -0.0397529, 0.064753294, -0.061805673, 0.049624726, 0.027276963, 
  0.019796424, 0.040126294, -0.07431643, -0.13648938, 0.116231404, -0.040072847, 0.057097062, -0.06568442, -0.023968842, 0.057649452, 0.049537987, -0.06311399, -0.023867697, -0.05827401, 0.03796623, -0.0372531, 
  -0.0036310107, -0.05609959, -0.0150135895, -0.44747072, 0.4669164, 0.04811628, -0.014107719, 0.068055995, -0.0018011183, 0.08234292, -0.026577907, -0.015881142, 0.08118424, -0.005332142, -0.023601733, 0.0132288365, 
  0.014519349, -0.062480684, -0.0076540494, -0.060472265, 0.043578506, -0.083830714, 0.038631245, -0.065188766, -0.033675935, -0.014891732, 0.0038173723, -0.055941418, 0.078323565, -0.009392551, -0.052909907, 0.022012876, 
  0.07970229, 0.04711641, -0.03773038, -0.18183678, 0.27678597, -0.010110919, 0.053563252, -0.08714726, 0.048036695, -0.031784076, -0.050078485, 0.014594487, -0.05295162, 0.016837513, -0.013464375, 0.02589765, 
  0.0045930967, 0.030078657, -0.07771856, 0.039529793, -0.063305765, -0.034024805, 0.077577025, 0.020918958, 0.06295799, 0.07505648, -0.01121711, -0.034625143, -0.080056496, 0.0075698793, 0.00021314621, -0.027569804, 
  -0.025361348, -0.06865442, -0.0038487057, 0.16388908, -0.23216689, 0.05955949, -0.030398626, -0.040367994, 0.057987943, -0.06076485, 0.049142946, -0.0125157, 0.016361387, -0.038399562, -0.005502947, -0.031119423, 
  -0.019706208, 0.016240962, -0.0895705, 0.16986082, -0.15987809, -0.076196976, -0.06841434, 0.029309573, -0.061333492, -0.0091625685, -0.03673536, -0.076369554, -0.02760064, -0.06121665, 0.026413284, 0.05067055, 
  0.07234563, 0.012564048, 0.056411058, -0.032562204, -0.008030906, -0.073185116, 0.055191264, 0.043465726, 0.06939793, -0.029514223, 0.0114099085, -0.073131725, -0.005326718, -0.046141222, 0.00048508495, -0.03926898, 
  -0.061045483, -0.08465679, 0.05381504, 0.26229855, -0.16614114, -0.054427415, -0.06113583, 0.081101574, -0.07924339, 0.018670747, 0.06695065, -0.005523749, 0.049036328, 0.06828357, -0.030884676, -0.01696594, 
  0.07434137, -0.013843813, 0.01716846, -0.040758904, -0.05994477, 0.04878543, 0.03860937, 0.02547472, -0.009592637, -0.020604648, -0.07476903, 0.013231166, 0.0024986044, 0.025263637, -0.05210757, -0.031964134, 
  0.07973042, 0.0069329985, 0.023358386, 0.169553, -0.119643256, 0.02887433, 0.05018875, 0.06703496, -0.0047040805, -0.006263134, 0.021670483, 0.06657561, -0.07809189, 0.018738106, 0.015427497, -0.07423118, 
  -0.006358579, -0.057910822, -0.06292112, 0.0692911, -0.146634, 0.01670119, -0.022202272, 0.060911037, 0.014024861, 0.06240455, -0.017078225, -0.051372934, -0.06158243, -0.017790414, -0.011490397, -0.048174404, 
  0.06410369, -0.078247376, -0.077885285, -0.02317578, -0.040890533, 0.008636519, -0.01675789, 0.06130828, -0.025240134, -0.052709572, -0.043779675, 0.055493265, -0.0012889132, -0.020568695, 0.037645943, -0.077183254, 
  0.034167893, 0.007138792, -0.0066208225, -0.114031166, 0.1712067, -0.00071389176, 0.07911277, -0.08648907, -0.07875968, 0.020787932, -0.073252074, -0.03428259, -0.01569973, -0.048636153, -0.018779289, 0.06924402, 
  0.05295372, -0.039077204, 0.0530584, 0.06320866, -0.112025745, -0.08044764, -0.047258087, 0.039491866, 0.053619057, -0.055371787, 0.026443848, 0.013849414, -0.023450498, -0.049941834, -0.07324932, 0.067718685, 
  -0.025337335, 0.038335882, 0.058257192, -0.00021521002, -0.05967277, -0.04905894, 0.05846837, -0.0648099, 0.0532507, -0.057157673, 0.048507527, -0.023689076, -0.013748623, 0.07533793, 0.010476597, 0.07545586, 
  0.049171686, -0.027930953, -0.03695773, 0.0806102, -0.0656609, -0.023517398, 0.076577276, -0.037848044, -0.0006744638, 0.03901352, -0.02075786, 0.071183205, -0.020660302, 0.0032413, 0.055136487, 0.0705337, 
  0.057233036, 0.036992494, -0.093127064, 0.29372153, -0.33425722, -0.012924715, 0.019970074, -0.016313583, 0.07713921, 0.029891996, 0.028346231, -0.026742954, 0.057447836, 0.05078374, 0.04086137, -0.042548086, 
  0.029749267, 0.021602131, -0.03444891, 0.021783598, -0.026973203, 0.0588002, -0.07787012, 0.049186725, -0.012795217, -0.08622905, -0.07806464, -0.010328296, -0.041353576, -0.020892654, 0.05902716, -0.039241806, 
  -0.04326892, 0.016540838, 0.04061523, 0.22771034, -0.09014848, 0.034269683, -0.03822376, -0.024201669, -0.070610955, -0.047381453, -0.0603525, 0.028397137, 0.005092306, 0.033225715, 0.05990993, -0.05299369, 
  -0.049041245, 0.026672494, -0.03952336, 0.053733096, -0.06792707, -0.025016509, 0.027482681, 0.051299125, -0.053873472, -0.0795406, 0.009473905, 0.013342422, -0.077582456, -0.001591295, 0.04815659, -0.0058385422, 
  -0.07438293, 0.022139106, 0.06975409, 0.03608843, -0.053744487, -0.030295549, 0.00569807, -0.053121835, 0.0036924183, -0.07893643, -0.06352907, 0.06685853, -0.02123212, 0.046974093, -0.014550314, -0.0040266686, 
  -0.032840822, 0.010868122, -0.07655576, 0.076060206, 0.032479517, 0.05258323, -0.013324492, -0.001417911, 0.06852089, 0.054995902, -0.029817926, -0.0022385253, -0.06514526, 0.03626377, 0.0067231413, -0.036333475, 
  -0.06349768, 0.07966699, -0.008711137, -0.06430554, -0.06544689, -0.018823143, 0.019198313, -0.047165908, 0.065005735, -0.017116457, -0.07514362, 0.026105143, 0.01336439, 0.06889711, -0.07182145, 0.070693016, 
  -0.018096432, -0.0219462, 0.04734278, 0.06241016, 0.007560246, 0.059802774, 0.048685074, 0.025889665, 0.024610758, 0.046107505, 0.037163213, -0.022207288, 0.024977257, -0.054833785, 0.07322995, 0.07189545, 
  -0.004821077, 0.05163916, 0.02175934, -0.000354418, 0.052672785, -4.062777e-06, 0.045270562, 0.03505218, 0.026374675, -0.048411623, -0.038049437, 0.04361637, 0.054343805, -0.037267756, 0.07769148, 0.04772356, 
  -0.07836804, 0.057566274, -0.026340567, 0.06048106, -0.019239288, -0.035615124, 0.053648397, -0.010049519, -0.06825534, 0.039916992, 0.020418184, 0.051650573, -0.017213259, -0.073943354, 0.042546194, 0.062773615, 
  -0.07794419, 0.04835763, 0.03626285, 0.06314872, -0.09214226, -0.016954076, -0.030255385, -0.042557556, -0.05229512, -0.06501351, 0.05278348, -0.019358063, 0.060198795, 0.05563182, -0.08834577, 0.02725238, 
  -0.07403481, -0.011453658, -0.0036636665, 0.01533746, 0.020049363, -0.053277347, 0.037871778, -0.053083386, -0.0570041, -0.07412327, 0.0507551, 0.038547635, -0.04456371, 0.04497385, -0.042485304, -0.01111462, 
  0.047127023, -0.008689627, 0.061992086, -0.21146265, 0.15198521, -0.018943924, 0.03814637, -0.013723971, -0.0074118227, 0.04762598, 0.015011238, -0.05581253, 0.004128079, 0.021662459, 0.012428221, 0.023701224, 
  0.061661154, -0.038422734, -0.053817496, -0.04788839, 0.049569484, 0.006516725, 0.03479813, 0.019051109, 0.025586024, 0.021338737, 0.035385534, 0.008787402, -0.030433608, 0.026937045, 0.04877822, -0.0011136059, 
  0.013093419, -0.023315758, -0.020096287, 0.003823556, 0.061818287, -0.016021542, -0.027687695, 0.053660065, -0.011170305, 0.07485673, 0.06949434, 0.025243953, -0.006980248, -0.050767787, -0.005615227, -0.037193995, 
  -0.035835065, 0.024071198, 0.0213708, -0.03357588, 0.02317933, 0.024879055, -0.038053963, 0.06842612, -0.028207675, 0.05495107, -0.045540716, -0.0195811, -0.052634645, 0.03444815, -0.037029028, 0.028423514, 
  -0.015851118, -0.012588661, -0.008995773, 0.042626485, 0.021138346, -0.086273275, -0.07707573, 0.06552187, -0.06341128, -0.017772395, 0.014297644, 0.012170533, -0.037702587, -0.046286557, -0.047820084, -0.059593286, 
  -0.027947895, -0.006424022, -0.081303574, -0.060280275, 0.010755654, 0.03693826, -0.06747666, -0.08554952, 0.016100146, 0.02515986, -0.054521117, -0.052360035, -0.0114932265, 0.0101432325, -0.008976746, 0.006228978, 
  0.06580229, 0.02040862, -0.009739229, 0.013591629, 0.03496098, 0.01749512, 0.04451765, 0.05699889, -0.055621028, -0.059960835, -0.031132154, -0.042628214, -0.041764587, 0.07356644, -0.06268147, -0.040790897, 
  -0.009307489, 0.032562427, -0.05545883, 0.033695348, 0.07014219, -0.036975753, -0.0399058, 0.009753154, -0.060999475, -0.0738926, 0.060178965, 0.0021454245, 0.07150698, 0.07264313, 0.06886316, -0.016876414, 
  -0.0017326474, 0.020932581, 0.048263833, 0.16726373, -0.123320036, 0.004908245, -0.044993054, 0.04847567, 0.062011927, 0.033191644, -0.07538847, -0.064476624, -0.06248777, -0.06546037, -0.05477519, -0.025467511, 
  0.028818361, 0.06762346, -0.08203113, -0.03921073, 0.10659855, -0.02776213, 0.004874736, 0.022123711, -0.07139732, 0.009676622, 0.049384378, 0.06715373, -0.050467797, -0.07675891, -0.0077515305, -0.079958275, 
  0.05503714, 0.057111725, 0.074328795, 0.00040876865, -0.06583344, -0.043080684, 0.06894228, 0.031139418, 0.025408477, -0.0734316, 0.022620678, 0.07128124, -0.04640581, -0.054994266, -0.026094511, 0.03476835, 
  0.032963395, 0.030096859, -0.053247076, 0.023425275, 0.056016356, -0.0486711, 0.019894384, 0.0618298, 0.00071235746, 0.04595577, -0.073119394, 0.03184432, 0.015010572, 0.04260354, -0.036900576, 0.0013658886, 
