#include "poids.h"

const float biases[] = {
  -0.021533974, -0.03466286, 0.0, -0.0053342, 0.023085067, -0.09387255, 0.0, 0.0, -0.0059467703, 0.0, 0.0, -0.014098146, -0.14938943, 0.0, 0.0, -0.005417997, 
  0.0, 0.0, 0.0, 0.0, -0.016623087, -0.011744265, -0.0106052505, -0.0077983066, -0.0060951156, 0.0, 0.0, -0.008814615, 0.022628464, 0.0, -0.014026033, 0.0, -0.01407935, -0.020868173, 0.0, 0.0, -0.0044603315, -0.048627127, 0.0, 0.0059656524, -0.025058461, -0.065693654, 0.0, -0.043800537, 0.0, -0.023207644, -0.012179048, -0.007140189, 
  0.0057057524, 0.013846026, 0.0110238455, -0.006841778, 0.0, -0.011205844, 0.005858256, -0.0060045663, 0.0, 0.010684947, 0.0, 0.0057609584, 0.0039951527, -0.005419588, -0.0060050436, -0.0022298682, 0.011669814, 0.0068722484, -0.0060049775, -0.012167322, 0.012748678, 0.010664253, -0.0021293412, 0.0, -0.0015781878, 0.008748144, 0.0092981765, 0.006516238, 0.0053041563, 0.0, 0.012779914, -0.0153326355, 
  0.0032226262, -0.00322259, 
};

const float weights[] = {
  0.17322893, 0.343683, 0.046449795, -0.08402106, -0.36200926, -0.078673236, 0.09155293, -0.17449275, -0.00012911558, -0.033841327, -0.04278104, -0.37786368, 0.084256865, 0.0003811568, -0.020438388, -0.029471664, 0.009289649, 0.17223331, -0.18221034, -0.022410873, 0.0036216008, 0.27038723, -0.10646171, 0.1399865, -0.079646364, 0.021926478, 0.13415234, 0.02715331, 0.3388009, -0.17422614, -0.17370768, 0.1664075, 0.14182802, -0.08347374, -0.18252257, -0.07582989, 0.24626829, 0.3190198, -0.013935417, -0.1803605, 0.17954202, -0.08436999, -0.08096808, 0.44215468, 0.14089642, 0.06521399, -0.18234773, 0.026611803, 
  0.08183418, 0.23621678, -0.008635655, 0.14861308, -0.27093983, -0.05636007, -0.014083728, 0.07465954, -0.015295975, -0.13521191, -0.15264376, -0.46321276, -0.16417675, -0.19400711, 0.0023629665, 0.14312981, 0.08379835, 0.30495057, -0.09028386, 0.16918242, 0.022670101, 0.34658715, -0.04754767, 0.00963518, -0.06887461, 0.104315355, -0.16797104, 0.11898044, 0.065830275, 0.0032884479, -0.045128137, -0.16536584, -0.18899466, -0.28701693, 0.16538255, -0.08657637, 0.45127282, 0.37715098, -0.11714664, 0.19189386, -0.043292247, -0.08018013, -0.19180624, 0.46013165, 0.2587278, -0.050338387, 0.008732215, -0.09817083, 
  0.12259462, 0.22272764, -0.03746429, -0.044979263, -0.3278076, -0.22820945, -0.07336655, 0.028427452, 0.012499504, 0.15093137, 0.17843686, -0.29565975, 0.15638097, 0.04004477, 0.028966203, -0.168515, 0.13893762, 0.07229414, 0.047401205, -0.1400246, 0.16508932, -0.0032007722, -0.019240052, -0.14172526, 0.07754624, -0.091429695, -0.048704743, 0.19181055, 0.3294765, 0.1287675, -0.031117603, -0.019733168, -0.12041385, -0.17830206, 0.08078979, -3.9228792e-07, 0.28695503, 0.30810845, -0.099856764, -0.050394997, -0.16396941, -0.10088513, -0.08036271, 0.2799741, 0.48493, -0.033511683, -0.015928224, -0.005960776, 

  -0.006220959, -0.06158787, -0.10948583, -0.061082248, -0.067443565, -0.0053562545, -0.05088695, 0.0046299053, -0.0028573386, -0.09249093, -0.03092949, -0.07822669, 0.038095944, -0.08877981, 0.008393381, -0.07068746, -0.09221445, 0.049536712, -0.024537869, 0.10669809, -0.002974132, 0.008011948, 0.09375986, 0.0035406644, -0.005384007, 0.0051289503, 0.0037143454, 0.10236947, -0.08809335, -0.24789399, 0.06501245, -0.06779283, -0.032898113, 0.01146201, 0.019929565, 0.050707065, -0.064639054, -0.095228404, -0.032919098, 0.023467725, -0.070965484, -0.0940106, 0.0005744919, 0.015103887, 0.08374925, 0.0125961825, -0.104169816, 0.039381422, 0.05313267, 0.114869125, -0.0064437464, -0.0028542131, -0.005492865, 0.15745108, -0.07056251, -0.024326142, 0.16946414, 0.1203082, 0.03295692, 0.0833553, -0.109938905, -0.28896603, 0.039393, 0.08409293, -0.05747577, 0.09525328, 0.11336269, -0.071617216, 0.059348293, -0.07292433, 0.033513315, 0.04684431, -0.01648327, -0.056689423, 0.05431647, 0.08628426, -0.076964304, -0.06775227, -0.068964355, 0.026857652, -0.0042015314, -0.03294445, -0.10601121, -0.03903591, -0.11638959, 0.08195413, 0.08703063, 0.055090405, -0.027924761, -0.061657973, 0.11388003, -0.10445495, 0.09935709, 0.108342834, -0.03663671, -0.041735075, 0.10623027, -0.09765456, -0.011986144, 0.09388404, -0.07637, -0.03379351, 0.09582744, -0.072587214, 0.06654864, 0.10314671, -0.048971802, 0.009296276, 0.1004687, 0.08450704, 0.015041448, 0.01913444, -0.009038353, 0.07943752, -0.052427813, 0.0391782, 0.01463119, 0.05022154, 0.101973124, 0.025027506, 0.033111386, 0.055170454, -0.0734342, -0.07783458, -0.062564015, 0.06459581, -0.09681505, -0.03654705, -0.10074111, -0.052933462, -0.10914986, -0.06291957, -0.024160828, 0.053126484, 0.283241, -0.054947175, 0.08901996, 0.050556414, -0.097513735, 0.07525153, 0.08292725, -0.09675939, 0.10066253, 0.053168617, -0.013496459, 0.07422266, 0.026397191, -0.08681402, -0.017580822, -0.29236302, 0.0036956072, 0.20778678, -0.4287907, -0.36968005, -0.059797894, -0.33061877, -0.020199887, 0.19104151, 0.28373393, -0.02769854, -0.040201798, 0.08601759, 0.004319519, -0.09505042, -0.056132875, 0.0709075, 0.015019845, 0.09895021, 0.0063398774, 0.076085396, -0.032057144, 0.05601386, 0.13505873, -0.025563635, -0.09055998, -0.09837265, -0.09120041, 0.16699159, 0.00092405826, -0.027225204, -0.061810337, -0.03559912, -0.055719566, 0.031283807, -0.06016318, -0.046817962, 0.05033002, -0.1273505, -0.09589768, -0.06859233, 0.034048133, -0.108583145, 0.08105496, -0.06812032, 0.057541274, -0.07294203, 0.10098616, 0.00827115, -0.044289373, 0.02821029, -0.097397715, -0.08451938, -0.020317815, 0.042828582, -0.11557132, 0.09299346, -0.072697446, 0.049591504, 0.09957024, -0.04156047, 0.014163338, -0.038851306, -0.09202059, -0.012752853, -0.07241576, -0.104469925, 0.090026684, -0.11184883, -0.043255225, 0.016706787, 0.010987513, -0.057182737, 0.032889567, -0.045724638, 0.029490404, 0.1057662, -0.11538214, 0.08841487, 0.060732536, 0.020538189, -0.033756196, 0.021295287, 0.009835921, -0.0641053, -0.08216266, 0.005600162, 0.116898306, 0.022613354, 0.037901513, 0.060191624, -0.043472707, 0.07228444, 0.043836035, 0.06550775, -0.02597589, -0.041660868, -0.08349608, -0.054410994, 0.007001713, 0.0786209, 0.11334997, -0.09844318, 0.07404541, 0.042263173, 0.097902246, -0.0015783161, 0.032921724, -0.06612475, 0.050877236, -0.053472437, -0.047214195, 0.09435337, -0.09287423, -0.035743617, 0.09822773, 0.096656345, 0.040712558, -0.07178286, -0.09450245, -0.052484743, 0.029559188, -0.010068573, 0.0831146, 0.06963544, 0.0932508, 0.007787101, -0.11780103, -0.11784012, 0.048624285, 0.08067126, -0.054332517, 0.08326731, -0.033664517, -0.0112599805, 0.039984666, -0.063031666, -0.08706573, -0.09070468, 0.0011058226, 0.064061604, 0.10773165, -0.10913651, 0.0035972595, 0.08222299, 0.065685, -0.036935084, -0.09243776, -0.09342523, -0.058605783, -0.01328171, 0.04209768, 0.087655775, -0.07021266, 0.08040186, -0.093669236, 0.059793122, 0.019474067, 0.09699007, -0.029531173, -0.031045705, 0.033200078, 0.097383715, -0.10387386, -0.11260868, -0.026911914, 0.056153066, 0.011661001, -0.07837476, -0.07601611, -0.029289275, 0.015110381, -0.070778355, -0.015272304, 0.039759256, 0.015826784, 0.11307075, 0.09061011, -0.06536923, 0.10243539, 0.04041172, 0.06602483, -0.020719953, -0.07055492, -0.06916273, -0.020373054, -0.059519134, 0.11308677, 0.11644807, 0.09203961, 0.02054625, 0.034481205, 0.084517635, 0.020510994, -0.1012224, -0.070330024, -0.046272747, 0.041741647, 0.1021099, 0.04096047, 0.0709201, 0.044256695, -0.092828825, -0.06335714, -0.09637189, -0.0017625839, -0.06280639, 0.029378252, -0.011881096, 0.34748086, -0.011707348, 0.013937083, -0.07516295, -0.059952684, 0.24725056, 0.005108561, -0.06000503, 0.090520844, 0.078697495, 0.1525976, 0.26196438, 0.053717755, -0.021261543, 0.1118548, -0.4427817, -0.028994754, 0.116859704, -0.35034338, -0.26518363, -0.041163422, -0.30514446, -0.008735888, 0.29975647, 0.2252633, -0.0065607047, -0.0059218034, -0.05955861, -0.09758763, 0.011754893, 0.09410145, -0.09548677, 0.02838653, 0.060751393, -0.049085736, 0.06857053, -0.09758864, 0.14497349, 0.006760347, 0.051916964, -0.11891343, 0.004790075, 0.043981653, 0.061729062, -0.055182785, -0.035198152, -0.0011946056, -0.10339417, 0.046770893, 0.07513583, 0.033985194, 0.08078017, -0.070002966, -0.05415168, -0.008896694, -0.119319975, 0.12800784, 0.006968998, -0.038113818, 0.055800296, -0.06177916, -0.056087986, 0.116140105, -0.030483998, 0.07530079, 0.05884271, -0.109299645, 0.08912075, 0.112099044, -0.056439575, -0.059170242, 0.04513093, -0.06164325, 0.026894294, -0.10232336, 0.048398934, 0.07880264, 0.10821412, -0.017984204, -0.09450754, -0.071999095, -0.10373309, 0.00053678453, -0.03391751, -0.06391212, -0.021865338, 0.03708268, 0.021702148, -0.111782774, 0.020669766, -0.016682625, -0.11454362, 0.1093697, -0.010109231, -0.0040284544, 0.04527297, -0.058309153, 0.069914095, 0.11384819, 0.08647778, 0.08864724, 0.06669255, 0.002460368, -0.06842911, 0.04949195, -0.06332469, 0.07286803, 0.097762175, -0.08037907, 0.066474296, -0.092166394, 0.10863615, -0.008445725, 0.020254232, 0.05470798, -0.0040574744, 0.07069316, 0.11314083, 0.024068467, 0.036357813, -0.047609583, -0.057659447, 0.04935629, 0.09091581, -0.045954168, -0.021244988, 0.01681491, 0.061743107, -0.09064947, 0.07840227, -0.044898197, -0.051783584, -0.02166351, 0.06353357, -0.082159184, 0.03353735, -0.05214911, -0.02797626, 0.03531248, 0.079892494, 0.10613223, -0.015056007, -0.090229094, -0.01811362, 0.077704795, -0.036676668, 0.09173725, 0.07027321, 0.11683764, 0.063937016, 0.11505114, -0.006583616, 0.08772766, 0.06170503, -0.09493934, -0.047520287, -0.1085684, 0.10951533, -0.0016887587, 0.015854394, 0.15878308, -0.08829762, -0.09041782, -0.0067821294, 0.025815226, 0.012916313, 0.1253226, 0.06546789, 0.038580652, 0.045262538, 0.11501337, 0.14936452, -0.0738982, 0.10787477, -0.10357277, -0.15894954, -0.08817528, -0.0077797924, -0.17411847, -0.010736736, -0.03616287, -0.010446494, 0.08896848, -0.004262563, 0.12671435, 0.08986214, -0.026006766, -0.0433101, 0.02330383, -0.059770133, -0.11033208, -0.05245576, 0.12982614, 0.07843809, 0.029471096, -0.08938436, -0.034850977, 0.16686532, 0.18337214, -0.101389214, 0.06521184, 0.055446006, 0.117385805, 0.10195718, 0.015089758, 0.09188608, 0.04809397, -0.17922752, -0.10529162, 0.1629533, -0.10991606, -0.27646998, -0.044970408, -0.16979058, -0.11435342, 0.08842727, 0.15710571, -0.085611865, -0.05034621, 0.019381262, 0.043564223, 0.022123702, 0.0302502, 0.029886417, 0.012392692, 0.0015397668, 0.03846229, -0.08948085, -0.010986134, -0.00389833, -0.04411702, 0.05032236, -0.05032654, -0.08352929, -0.095397815, -0.02950187, -0.017124183, 0.002360113, 0.10335568, -0.013318829, 0.045022674, -0.07940927, -0.10035983, 0.07096007, 0.10407456, 0.07395338, 0.06510163, -0.012762234, -0.030151352, -0.070333645, 0.09661775, -0.016286299, -0.019948497, -0.0056724325, -0.01190269, 0.07014177, -0.041021556, -0.101189725, 0.06598184, 0.0047473907, -0.094725884, 0.013383307, 0.1002297, -0.042476997, -0.022942945, -0.09138201, -0.09844178, -0.051207043, -0.05325485, 0.047278397, -0.076188385, 0.07552417, -0.00390777, 0.0925393, -0.08212075, 0.10196244, -0.048804052, 0.05307486, 0.031669818, -0.058007184, -0.004376471, 0.033830352, 0.11668221, 0.06956587, 0.10261566, 0.0020121187, 0.08927046, 0.021598771, 0.19976476, -0.029332183, 0.08947807, 0.09385521, 0.051586725, -0.1339091, -0.16696882, -0.08278571, 0.05074153, 0.10532256, -0.06434013, -0.2056762, -0.0015521869, -0.104786985, 0.061787672, 0.28905144, 0.050662316, -0.049540337, 0.21635191, 0.21813989, 0.06146469, 0.26459652, 0.035402842, 0.35615605, -0.2013327, -0.007844446, 0.0805308, -0.038512103, -0.10281668, -0.07886979, -0.07046257, 0.12551078, 0.30157447, -0.11118629, 0.099105574, 0.069319345, -0.0059917346, 0.12415121, -0.041348208, 0.096526735, -0.03402862, 0.062101446, -0.07835928, 0.059894625, 0.060344286, -0.045674145, 0.08156221, 0.21328907, -0.029530413, -0.059315283, -0.09238153, 0.07625536, -0.056274332, 0.19156589, -0.09959202, 0.17510661, 0.0056129266, 0.055918768, -0.08350915, -0.09011671, 0.021597512, 0.009713836, 0.025962211, 0.051813565, 0.018363722, 0.05317258, 0.115358986, 0.0070976987, -0.060572073, 0.10098427, -0.056906648, 0.03805054, 0.0148158, 0.07604598, 0.052820258, -0.072948605, -0.03642168, -0.021231167, 0.034652524, -0.008547239, -0.065470465, 0.09748285, 0.0585733, -0.02949892, -0.062425103, 0.058001257, 0.051281117, -0.10907551, -0.01134222, -0.011015728, -0.0063507184, -0.06559041, -0.0017115548, 0.114872865, -0.025567316, 0.09969803, 0.0060411617, -0.04987526, 0.028496556, 0.09612457, 0.11765369, 0.087429814, -0.09271714, 0.054352574, 0.022230752, -0.055171013, 0.0044781864, -0.055119343, 0.06409412, 0.07261307, -0.11610246, 0.060668148, 0.046798877, 0.023896225, 0.06322969, 0.07641988, 0.09071533, 0.0033635423, -0.04624448, 0.0046487674, -0.06706089, -0.04090666, 0.11129724, -0.045222476, -0.033456475, -0.053260215, -0.03337317, 0.03541445, 0.09153455, -0.08970729, -0.03785099, -0.050602406, -0.008148, -0.008724146, 0.068919234, 0.013598062, 0.044990294, 0.08499586, 0.0929785, 0.103641264, 0.11649414, -0.018548071, 0.04896047, 0.09122745, -0.047122, 0.025089853, 0.041145973, -0.019028574, -0.07440017, 0.094676994, 0.06795078, -0.048362248, -0.007628806, 0.026548244, 0.086981066, -0.07735318, -0.08281195, 0.034590848, 0.08379283, -0.058306314, 0.035328977, -0.09637256, 0.08693843, 0.0073805526, 0.057913847, 0.059613295, -0.10911493, 0.0980146, -0.10835913, 0.06120243, 0.05224917, -0.04845845, -0.0874757, -0.10441191, -0.08574234, -0.106304355, -0.06917323, -0.012606658, 0.07834666, 0.025676332, -0.0107369125, 0.06128023, 0.11504292, 0.06984072, -0.10581335, -0.09725956, 0.020040907, 0.012454949, 0.07546211, 0.043220125, -0.08339931, 0.014696576, -0.06917902, 0.04106798, -0.08586167, -0.027852662, -0.069558874, 0.08460257, -0.087633416, 0.0371658, -0.023890294, 0.11739496, 0.06993111, -0.102026924, -0.10189107, 0.114706494, 0.1066108, 0.112085246, 0.077111535, -0.049156882, 0.10877413, -0.017302431, -0.086698145, 0.10372154, 0.10452064, -0.018797383, 0.059142344, -0.089295015, 0.05015748, -0.007585481, 0.10653352, 0.07429656, 0.08515269, 0.21290225, 0.3068348, -0.005304269, 0.0454029, -0.07510538, -0.068819344, -0.030041324, -0.22648941, 0.082076184, 0.041685656, -0.065453246, 0.11001601, -0.1386243, 0.08776494, 0.07467031, -0.0074965493, 0.070183046, -0.08369373, -0.036226846, 0.12240794, 0.31625518, 0.10573397, 0.28375307, -0.09515829, 0.33313534, -0.087205134, -0.12607649, -0.008188598, -0.030361526, 0.01572249, -0.027545214, -0.079375796, 0.057096757, 0.19926727, -0.031733137, -0.023295594, 0.074179746, 0.11029678, 0.07766928, -0.07005637, -0.11611223, -0.04531421, -0.030228503, 0.08513657, -0.10088632, -0.006100446, -0.0059401765, -0.010114878, 0.15281786, 0.08919046, 0.096429154, 0.0011140924, 0.114162095, -0.06409709, -0.023408538, -0.060317226, 0.18050027, -0.095589235, -0.10508265, 0.043271475, 0.093210064, -0.0026487038, -0.050325446, 0.07893068, -0.11105135, -0.0018958747, -0.007787697, -0.0731433, -0.026036859, 0.04283946, 0.11128274, 0.109709285, -0.007014923, 0.03955636, 0.07679585, 0.053870328, -0.008121841, 0.07995813, 0.09189045, 0.027397223, 0.067627735, -0.10841754, 0.10388411, -0.09467525, -0.06404312, -0.047655582, -0.07674669, -0.10989192, -0.01908572, 0.09999124, 0.07101851, 0.03459782, 0.03270576, 0.08164128, 0.034358673, -0.076571666, -0.03149131, 0.106115334, -0.11705767, -0.05671002, 0.11054697, 0.05509854, -0.067586794, 0.01111909, -0.001877673, -0.000400424, -0.10547049, -0.10003552, 0.11582201, -0.012900956, 0.087224565, -0.039187185, -0.016361915, -0.0140343085, -0.10900336, 0.07901155, 0.10788498, -0.11443687, 0.10412455, -0.07219196, -0.090871304, -0.07443519, 0.11380624, -0.110109486, -0.02917225, -0.06417704, 0.07806229, 0.10942403, -0.009386219, 0.038792722, -0.09582111, 0.03635835, -0.06983359, 0.06781388, 0.046735965, -0.024912916, 0.09100016, -0.106541276, 0.042631306, -0.06029205, -0.09979938, -0.009502791, 0.067314245, 0.0010431632, 0.10008494, 0.025698699, -0.061321978, -0.06156303, -0.041151114, -0.0089212805, -0.014473118, 0.053487442, -0.08549022, -0.07070671, -0.08425947, -0.017516121, 0.008355923, -0.0999612, -0.008215576, -0.006651682, 0.06545012, 0.2196052, -0.025286227, 0.047013544, -0.028841034, 0.06539584, -0.01739139, -0.114616424, -0.09314361, -0.09926353, -0.021212056, 0.12547304, 0.12410766, -0.0772103, -0.024316795, -0.013205401, 0.09180001, 0.05803848, 0.008901634, 0.01805095, 0.04384287, -0.078249365, 0.19825496, 0.038255997, 0.19822845, -0.08044879, 0.01290343, 0.09456997, 0.06719003, -0.09384176, 0.06598482, -0.051193967, -0.004951763, 0.4012142, -0.040989194, 0.03291515, -0.065195866, -0.0865553, 0.07610845, -0.18855253, 0.030441262, 0.0873343, 0.11087512, 0.19732371, 0.063080594, 0.06883218, -0.09207052, 0.118725, -0.12703848, 0.018711038, 0.011084634, -0.017668255, 0.052028067, 0.10494172, 0.0877243, 0.039225228, 0.03732702, -0.0052693714, -0.08647849, 0.09496059, 0.00085777044, 0.031122841, -0.09439357, 0.04247064, 0.115197085, -0.009095542, -0.10335377, 0.037931435, -0.0048128366, -0.036247917, 0.07570482, -0.034726754, 0.010130338, 0.088741116, 0.041702084, -0.066844255, -0.048948452, -0.11472619, -0.015105344, -0.0577157, 0.0036176294, -0.048171207, 0.046030514, 0.11016161, 0.11707144, -0.010351211, 0.0659555, -0.055962417, -0.029241093, 0.06100919, -0.062042773, -0.04477524, 0.037265576, -0.059930738, 0.010200046, 0.09281436, 0.024797149, 0.10890075, 0.11781328, 0.10045389, -0.0065606907, 0.042339988, -0.03293276, 0.09898595, 0.071017586, -0.041014813, -0.07098848, -0.049282536, -0.07855007, 0.039624788, -0.02526962, 0.06114299, -0.029919624, -0.08544874, -0.009856127, -0.11754795, 0.08420185, 0.023669831, -0.056201164, -0.06519699, 0.06583641, -0.10558376, -0.01982905, 0.048611976, -0.0036940053, -0.050070763, -0.055228554, 0.047489036, 0.08389515, -0.3541404, -0.0020230487, -0.0811952, -0.026788369, 0.029908977, -0.084926456, -0.26646486, -0.029873043, 0.021524679, -0.09336986, -0.3330143, -0.30605927, 0.0882932, 0.0018052906, 0.079776585, 0.2240579, -0.007716611, -0.120019585, 0.2148331, 0.26858962, 0.04901672, 0.25175533, 0.10001672, -0.25167975, -0.041297156, 0.06440184, -0.09113992, -0.034704275, 0.07701873, -0.092019245, -0.0006140325, 0.11022218, -0.14325929, 0.047394823, -0.11717261, -0.093843326, -0.109925725, -0.11259589, -0.26452938, -0.07031137, 0.03651072, -0.10454419, -0.11884923, -0.12711686, -0.09680614, -0.115123555, -0.0966976, 0.28675845, 0.016442023, -0.10361077, 0.08171333, 0.24084975, -0.04892718, 0.2283965, -0.09716982, -0.18235803, -0.059888937, 0.044962253, -0.06204609, 0.037626512, -0.07829982, -0.024271332, -0.114024505, -0.10117888, -0.08629033, -0.038275324, -0.08562604, 0.094032995, -0.013258755, 0.10211349, 0.10052457, -0.033358723, 0.0829192, -0.033921555, 0.08871006, 0.09037397, -0.03874591, 0.0811831, -0.10111571, -0.09782337, 0.07708774, 0.08884882, -0.03335128, -0.026859261, -0.10942853, 0.06647041, 0.029042102, -0.023114175, -0.06082633, -0.11660845, -0.017811708, -0.049045525, 0.11537022, -0.099886686, 0.025689237, 0.042841516, -0.10608522, -0.07628757, 0.069338955, -0.11378708, 0.10708325, 0.017811336, 0.08410979, -0.04482059, -0.09945763, -0.07022078, -0.050214574, -0.041663595, -0.10534911, 0.012129746, 0.058629446, -0.059686963, 0.11039179, -0.029005997, 0.08139352, -0.0020114407, -0.07987106, 0.027232148, -0.11119716, -0.0065649897, 0.00023793429, 0.053096794, -0.07157805, -0.091374226, -0.0002509132, -0.021305427, -0.10955753, 0.06716221, -0.113856085, 0.040761925, 0.09024494, -0.06716339, -0.1096899, 0.048393942, 0.08739368, -0.08609722, 0.10431028, 0.045451082, -0.043102488, 0.062447496, -0.008549377, 0.05751083, -0.06948815, -0.011859447, 0.06266666, 0.09090393, 0.032620735, -0.04920136, -0.074521616, -0.112125956, -0.034441926, 0.043355025, -0.018841185, -0.09135071, 0.116137974, -0.019983225, -0.058612835, 0.06332707, 0.09611923, 0.010534741, 0.031238116, 0.100017615, 0.008991502, 0.09066617, 0.103425495, 0.085342444, 0.10721228, -0.007321298, -0.0059136525, -0.0013389215, -0.10638916, -0.011470094, -0.10966236, 0.10093673, -0.015601106, 0.031090237, -0.05218634, 0.010835923, -0.075508974, -0.008027233, 0.08656751, 0.05594454, -0.113991044, 0.093584605, -0.035916813, -0.073901296, 0.061800368, -0.030120783, 0.022820555, -0.09654666, -0.098269366, -0.03122823, -0.010982089, -0.021675728, -0.108814396, -0.032891095, -0.02159135, 0.11255116, 0.06522337, -0.053822845, 0.09632171, -0.085326776, -0.039966762, 0.09922031, 0.020157881, -0.11236617, 0.11480551, -0.09228179, 0.007767834, -0.0052130297, 0.06409075, -0.060230374, -0.03537733, 0.05770392, 0.11330175, -0.004057087, 0.013925903, 0.016077302, 0.016215108, -0.0012172833, -0.06468952, -0.110874645, -0.09584665, 0.08021272, -0.49906367, 0.070349574, 0.05503174, 0.10054498, 0.08543096, -0.21638139, -0.19321783, 0.05114826, 0.08263519, -0.025685273, -0.2614082, -0.25687903, 0.030595995, -0.05472164, -0.10201299, 0.08507075, 0.023174383, -0.13593532, 0.08747115, 0.38812453, 0.06250044, 0.23460433, 0.04206095, -0.09180638, -0.19611593, 0.0862618, 0.090821095, -0.09670398, -0.06167618, -0.017727666, 0.05215632, 0.08530217, -0.1958566, -0.07922333, -0.09700035, -0.037086926, -0.010469779, -0.078917876, -0.028418226, -0.10260153, -0.036270015, -0.08494088, -0.09220514, -0.09728326, -0.08925368, 0.07803307, 0.046086047, 0.2941588, 0.025543071, 0.008701382, 0.18105708, 0.08076609, -0.07567017, 0.11391514, -0.014406189, 0.056393936, -0.046927217, -0.10906712, 0.08227698, 0.026996352, 0.11738206, 0.09755101, -0.074333, 0.078628235, -0.0053810254, -0.11676641, -0.0147410855, -0.102476716, 0.117661975, 0.001985535, -0.11346418, 0.075390436, -0.09500605, -0.0737036, -0.05876566, 0.06102445, -0.10609466, 0.04336796, 0.0078785345, 0.07081517, 0.016673796, 0.003917463, -0.0031835735, 0.07433384, 0.041378595, 0.01643511, -0.051278695, 0.0061436594, -0.016594313, 0.0074360743, 0.09311286, -0.054536283, 0.05603657, -0.11377938, -0.08703038, 0.028097682, -0.06699702, -0.04761748, 0.015200995, -0.063642696, 0.05826599, -0.0037736595, 0.059372045, -0.06064662, 0.104743384, -0.10818219, 0.11149389, 0.0973674, 0.11314153, -0.05843978, -0.09197353, 0.030145906, 0.10130588, 0.015063144, 0.01277592, 0.07725074, 0.07027706, 0.026124693, 0.110237025, -0.03474544, 0.10106719, -0.03586413, -0.027629897, -0.0387284, 0.09844265, -0.061796356, 0.04860232, -0.07848294, 0.054028995, 0.006993428, 0.01544971, -0.08864963, -0.06236767, -0.056851126, 0.055151172, -0.040773988, 0.11492305, -0.055717543, -0.065264925, -0.040976264, -0.057747588, -0.034390174, 0.035418294, 0.102177255, 0.024853103, 0.10303413, 0.10881703, 0.0003490895, -0.107178986, 0.05896131, -0.02551081, 0.11081069, -0.045037195, 0.028420858, 
  -0.043689504, -0.097066835, 0.09739106, -0.07010695, -0.07795585, 0.0013390323, 0.04004679, 0.074844316, -0.05389264, -0.052098706, 0.054454796, 0.12880877, 0.026499365, 0.06139455, -0.06523543, 0.07716448, 0.03534545, 0.008208969, 0.11360385, 0.050034456, -0.13372654, 0.19459988, 0.05955527, 0.13504316, 0.016124202, -0.017082185, 0.09882227, 0.13119955, -0.10374542, -0.17538202, -0.053693913, 0.08930773, -0.10647365, -0.043600917, -0.094296716, -0.03410922, 0.086920924, -0.16811886, -0.18576697, -0.08955211, 0.091999836, -0.0029630065, 0.009950079, 0.0068813935, 0.12272006, -0.0039042905, -0.061091818, 0.0023032948, -0.05729705, 0.07017074, -0.032532364, 0.05213084, -0.17912754, 0.13720705, 0.09072418, -0.0954816, 0.18015212, 0.17506029, -0.009740137, 0.15580131, 0.04873828, -0.33996144, 0.11164633, 0.10859763, 0.112493135, 0.039854757, 0.011579059, -0.0906264, 0.033255585, 0.08570098, 0.07662185, -0.10062948, -0.064195275, -0.039678, 0.0706171, 0.020560391, 0.07160058, -0.115875565, -0.05595792, -0.08579196, 0.036904685, -0.03210132, -0.03051398, 0.02242165, 0.048052095, 0.08831141, -0.071281195, 0.019391797, -0.08649477, -0.078561276, -0.023710415, 0.06882339, 0.0060941502, -0.09863748, -0.102585286, -0.067834035, 0.10890459, 0.03479264, -0.027397871, -0.10396515, -0.1037228, 0.012967851, -0.06402275, -0.015137717, 0.10461112, 0.07925572, -0.009307712, -0.045255985, 0.08687507, 0.092227004, -0.112767994, -0.047284216, -0.08568117, 0.051043928, 0.047681324, 0.028262414, -0.08698494, -0.09886233, -0.034861766, -0.08386987, -0.023926847, 0.111836635, 0.08588322, 0.022234492, -0.058709607, -0.05856119, 0.022109808, 0.011962734, -0.0727959, 0.0006632209, 0.09444735, -0.06663023, -0.0399108, 0.0053432556, 0.21497895, -0.077980146, 0.056596015, -0.09901059, -0.099863954, 0.22746333, -0.15006769, 0.11732354, 0.051269118, -0.009800881, -0.007402747, 0.22978722, -0.0433883, -0.06560396, 0.14707302, -0.40455502, -0.09711617, 0.14930658, -0.27886504, -0.45057636, 0.014807455, -0.29477474, -0.10067399, 0.23510657, 0.09606888, 0.100628994, 0.09090213, -0.07155757, -0.07215316, 0.10856397, -0.024844406, 0.016406115, 0.19200179, -0.03693579, -0.050591692, -0.10153814, -0.08981566, 0.080205195, 0.026103752, 0.07540392, 0.098827966, 0.09808218, 0.055601772, 0.10544317, -0.02415318, 0.06524559, -0.019593284, -0.09243554, -0.10371368, 0.11788357, -0.087607145, -0.042273972, -0.103152476, -0.004423066, 0.09005571, 0.07053904, 0.15671961, -0.011907227, 0.112610735, -0.11306547, 0.0046575665, -0.009902433, 0.031941183, -0.024510272, 0.115590625, -0.06371072, 0.09691688, 0.068729736, -0.027285501, -0.05922023, -0.0689489, -0.045323797, 0.103269584, -0.09645146, 0.033081375, -0.085339084, 0.02024401, -0.0568425, -0.027711444, -0.017922074, 0.043827184, -0.06199057, -0.1168298, 0.074303575, -0.0066099465, 0.057863183, -0.106722675, 0.027836673, -0.017311819, -0.074522376, 0.08791838, 0.088685684, 0.062044494, -0.051948376, -0.025879122, 0.06284868, 0.029685207, -0.072732255, -0.10673692, -0.004534863, -0.06723763, 0.005011514, -0.06341429, -0.087502986, 0.014826082, -0.045218423, 0.040898003, 0.10067322, -0.0033950433, -0.084422335, 0.10708756, -0.06450249, -0.039278753, 0.033675052, -0.046137847, -0.08009115, -0.051073663, 0.065424494, 0.0970772, 0.013570808, -0.02061838, 0.09276333, -0.037660487, -0.056228224, -0.10690467, 0.052929975, 0.049514286, -0.026688285, 0.11640083, 0.031976484, -0.032121606, -0.022418305, 0.048401363, -0.079789996, 0.051142894, -0.007718466, 0.09100845, 0.011817716, -0.04691498, -0.0076438934, 0.050342105, -0.025871165, 0.04920324, -0.02333539, 0.08082383, 0.0925984, 0.029923104, -0.0341807, -0.0033170134, -0.096305996, -0.02389209, -0.03392259, 0.08606788, -0.066580445, -0.04596454, 0.100270726, -0.0048885867, 0.043218248, 0.076298915, -0.10366765, 0.018915303, -0.029938452, 0.0689858, -0.05578335, 0.012359254, 0.1139591, -0.019811548, 0.08908262, -0.016699314, -0.10957627, -0.036933422, 0.05743075, -0.04289726, 0.045315005, 0.028626986, -0.054500088, -0.011480182, -0.0038255006, -0.011061303, 0.028359093, -0.018233769, 0.10816676, 0.09268295, 0.10248441, 0.06805586, -0.076925084, 0.1122831, -0.010668322, 0.07735332, -0.070335105, 0.053470917, -0.03274195, 0.082081445, 0.03808243, -0.10718717, -0.06526175, -0.030271746, -0.07818839, 0.095857926, 0.036256827, 0.026934259, -0.035240583, 0.021134235, -0.0725359, -0.0255372, -0.1018782, 0.054294385, -0.055345953, 0.08518418, -0.0370806, 0.037832983, -0.036825895, 0.020543106, 0.017498128, -0.00400766, 0.07086321, -0.073330745, -0.03856445, 0.058903925, 0.027776621, 0.0998474, 0.012317814, -0.002223585, 0.118368074, 0.30362532, -0.027522586, 0.012157575, 0.10410229, -0.10037522, 0.100623615, -0.13383368, 0.03080701, 0.07417565, 0.061334006, 0.09606589, 0.23737304, -0.01023154, 0.033208422, -0.021766879, -0.5230975, -0.09208808, 0.20717703, -0.32802364, -0.3445552, -0.009838842, -0.27664393, 0.10927888, 0.31561968, 0.100505576, -0.06417857, -0.003943458, 0.014431559, -0.007192813, 0.029183574, -0.00053688954, 0.0248953, 0.07094223, 0.07762937, -0.012476312, 0.033580728, 0.06016303, 0.11980688, -0.14004293, -0.10280743, -0.09908098, 0.04064358, 0.10661579, 0.07329436, -0.0739342, -0.09467652, 0.023483874, 0.041926593, 0.0326164, 0.10495075, -0.0519198, -0.04062202, 0.101386435, -0.085549444, -0.08089641, -0.009471443, 0.08034491, 0.020809425, -0.0046326965, -0.100208096, -0.080029644, -9.8370016e-05, -0.003534466, -0.10699292, 0.0071466416, 0.094151594, 0.059164174, -0.092780866, 0.11676984, 0.113481484, -0.028402112, -0.116356015, 0.052152984, -0.09892486, -0.09745473, 0.10674124, 0.033308707, -0.09499023, 0.062426053, -0.11758077, 0.018337958, 0.074196525, 0.033214636, 0.0022243708, -0.059998877, -0.054074883, 0.08736982, -0.024880886, 0.11536958, -0.06913949, -0.041178226, -0.05695804, 0.085459955, -0.019333236, 0.056339942, 0.109821625, 0.117711715, 0.10709717, 0.07003615, -0.05819533, -0.028983854, 0.1141367, 0.06348824, -0.039295927, -0.029631004, 0.006026663, 0.08184496, 0.080190845, 0.02667693, 0.013594441, -0.022213973, 0.030287884, -0.057385154, -0.06656617, -0.010267027, 0.08852223, 0.025317185, -0.11739355, 0.012323879, 0.005538434, -0.018406652, 0.045644276, 0.07628111, -0.091429666, -0.09736374, -0.046357967, -0.084030166, -0.06501101, 0.074663304, 0.012083508, 0.06156356, 0.0023734868, -0.03664694, -0.020121241, -0.09851362, 0.070972346, -0.08694572, -0.08751717, 0.014360271, -0.10121543, 0.10437476, 0.023654215, -0.08045337, -0.058119588, 0.09456513, 0.06420701, -0.11551454, 0.08000324, 0.11060021, -0.014778428, -0.042854324, -0.007348977, 0.07382352, -0.029146314, 0.0065180957, 0.09737828, 0.053804807, -0.0006708652, -0.0775879, 0.08853148, 0.16807188, 0.06523697, -0.051337678, -0.07953341, 0.00012011826, -0.035987586, -0.0028117825, -0.05144076, -0.07149495, 0.09249429, -0.04298316, 0.054259375, -0.056809627, 0.032944612, -0.10864411, -0.107290216, -0.08591444, 0.16320796, 0.017090404, -0.18524837, 0.06352755, -0.058664512, -0.011633679, 0.002459419, -0.03899315, 0.026620358, 0.09495238, -0.047770306, 0.08191755, 0.11145186, -6.1015155e-05, -0.043596853, 0.014909911, -0.028896987, 0.021565476, -0.01257319, -0.03969823, 0.09816085, 0.020772653, 0.10875171, -0.105408736, -0.09083874, -0.0028448922, 0.18892714, 0.023019396, 0.015910633, 0.007634064, -0.2591809, 0.009156294, 0.09682806, -0.18364601, -0.18625739, 0.06714415, -0.07065684, 0.09773717, 0.15232903, 0.09928384, -0.047977265, 0.104931064, 0.05390414, -0.010030024, 0.044981368, -0.041926615, -0.035901897, 0.08996343, 0.04831917, 0.0092271045, -0.06334567, -0.0035931617, -0.014199778, 0.055300318, 0.057888083, -0.055606022, -0.10331811, -0.0001321137, -0.09913537, 0.06452177, -0.049566828, 0.09905038, 0.060411803, 0.06429007, -0.062432744, -0.076046206, 0.07735666, 0.002297759, 0.09081831, 0.02129265, 0.051081978, -0.026102528, 0.113707624, 0.092466556, -0.029620662, 0.09164546, -0.021967694, -0.0890142, -0.07321501, 0.04846213, -0.037224263, 0.04688742, 0.00042700022, -0.10462469, -0.053115033, 0.055127688, 0.08936115, 0.06440257, -0.03646984, -0.09710137, -0.06220043, 0.11190399, -0.027427986, 0.018736862, -0.013624981, -0.011453353, -0.0257399, -0.015153728, -0.10926684, -0.08475414, -0.059277155, 0.012685604, -0.10579147, 0.038019992, 0.050767727, -0.059693087, -0.012290299, 0.09695587, 0.075874634, 0.07186421, 0.0011621045, 0.14645134, -0.008705683, -0.121467784, -0.058588024, -0.08257869, -0.028487032, -0.1542694, 0.027455501, -0.005217998, -0.11238508, 0.06491545, 0.0012300215, 0.028085314, 0.027192555, 0.042565383, 0.28601643, 0.052303903, -0.13757525, 0.08211129, 0.30870417, 0.03329716, 0.28601655, -0.09839564, 0.29586115, -0.022586593, -0.12668906, -0.052902162, 0.0026238412, -0.025154278, 0.05701775, -0.07011584, -0.02833112, 0.026186436, 0.0024969813, -0.069009356, -0.028775565, -0.0342267, 0.032306526, -0.052581828, 0.020992227, -0.078830004, 0.08964311, 0.12452029, 0.044406872, -0.0812061, -0.09970112, 0.1276472, 0.1795412, -0.071714915, -0.018689826, -0.056260727, 0.08200986, 0.044905327, 0.1524431, 0.04139147, 0.2573636, 0.013675259, -0.092718, -0.10060908, 0.03612361, -0.10905823, 0.05050651, 0.02054403, -0.030927442, -0.017629102, -0.09735672, -0.025364228, 0.073770694, -0.05837864, 0.07622435, 0.11363589, -0.03253933, 0.0925907, 0.073294915, 0.07825742, -0.07878435, -0.098037705, -0.0695906, 0.083881386, -0.078612246, 0.056406863, 0.0808138, 0.094978176, 0.011010669, 0.11773708, 0.036385007, 0.06347639, -0.0064315796, -0.098389596, -0.016079023, 0.08856905, -0.09964945, 0.0072144195, -0.082153395, -0.060365245, -0.050772086, -0.055662695, -0.0558532, 0.09915496, -0.07737993, 0.061742328, 0.045718856, -0.068993464, -0.02720885, -0.09557995, 0.062087305, -0.09185855, 0.06411757, -0.008349575, 0.045725428, -0.0312976, 0.07922337, 0.079719774, 0.09166282, 0.10015828, 0.010979615, 0.023656555, -0.078639, -0.01117605, 0.0074128434, 0.088923134, -0.06299223, -0.019275412, -0.09604921, -0.08335722, -0.11037161, 0.09217151, -0.02795668, -0.06026266, -0.078556135, 0.016871445, 0.05444687, -0.072295725, -0.000823237, -0.025555238, -0.063244835, 0.06554753, -0.007686235, -0.11668001, 0.07888671, -0.10216708, 0.025198452, 0.0049742833, -0.036645226, 0.07902034, 0.06968004, -0.010570966, 0.010704927, 0.015608333, -0.01410798, 0.03826838, 0.08311858, 0.09556643, -0.0304754, -0.027063422, 0.03007228, -0.071241155, 0.012452431, -0.03172317, -0.0297677, 0.009973519, -0.01283858, -0.08548862, 0.042113222, -0.047267154, -0.044205472, 0.04833322, 0.11729165, 0.09067062, 0.08817621, 0.07597571, -0.0039208382, -0.059642117, 0.07388789, -0.012545288, 0.09716422, -0.022761852, 0.06959023, 0.019218482, -0.07226451, 0.09307606, -0.06669211, 0.012042232, 0.042716704, -0.024332277, 0.013682105, 0.002228558, 0.06839555, -0.023842864, 0.017904676, 0.1124173, 0.104316, -0.02124384, -0.06658649, 0.11539649, -0.03413622, 0.10927976, 0.01512558, 0.10050554, -0.036108665, 0.042980455, -0.014294893, -0.06752479, 0.03296355, -0.11540164, 0.10163184, -0.017590098, 0.0068100616, 0.06830419, -0.059549563, 0.049591027, -0.007866904, 0.034571283, -0.075997874, -0.029510885, -0.08868467, -0.06328945, 0.035510607, -0.025406964, 0.06537459, -0.024069816, 0.06920909, -0.045057673, 0.16070427, 0.08270947, 0.012296101, -0.06213281, -0.047311157, 0.0043026283, -0.07665369, -0.16772665, -0.034044676, 0.07132968, -0.10194446, -0.133658, -0.0072732577, -0.04018382, -0.080921836, 0.042612307, 0.22768496, -0.05755877, -0.04095465, 0.19678427, 0.19008416, 0.11325578, 0.2333141, -0.009589784, 0.26966584, -0.10426393, -0.04013339, 0.113635294, 0.028126307, -0.091580324, -0.054753818, -0.0809127, -0.048368137, -0.031054167, 0.04664088, -0.022040395, -0.05113761, 0.06090588, 0.0534789, 0.048624974, 0.050286673, 0.056357145, -0.012359478, -0.080163084, -0.03350295, 0.018571787, 0.08607007, -0.039534457, -0.07981704, -0.013752542, 0.0066161966, 0.04283211, -0.06888374, -0.11073992, 0.0147037525, -0.056578465, 0.006605446, 0.067008585, -0.073978364, -0.03284026, -0.1103962, -0.033598512, 0.07049959, -0.0104525015, -0.014895819, -0.103813305, -0.093518995, -0.018369116, -0.06127587, -0.0019782633, -0.036583833, 0.07201677, -0.08979872, 0.069686495, 0.0816888, 0.025415085, 0.094907425, 0.016569637, 0.11004575, 0.038899876, -0.07970489, -0.062403187, -0.048903383, 0.04088708, -0.08640444, 0.06354722, -0.07434845, 0.07082907, 0.006525345, 0.044951133, -0.06536597, 0.018050618, -0.009197228, -0.029941767, -0.07234344, 0.11182281, 0.062442325, -0.04103712, 0.037267618, -0.098348826, -0.09906855, 0.08514563, 0.08628199, 0.057469226, -0.024162985, 0.052037112, 0.11685815, -0.036287338, 0.113510095, -0.034501217, 0.10334424, -0.051492937, 0.103005685, 0.10932129, 0.09000943, 0.014415003, -0.0053373054, -0.06219931, 0.020154767, 0.07443159, 0.025824971, 0.051832758, 0.034055687, 0.018272199, -0.07860536, -0.07259727, -0.080440745, -0.05279567, -0.00696221, -0.051334493, 0.07899421, -0.046856172, 0.018814974, 0.115405016, 0.016378127, -0.10935437, 0.0263732, -0.05707591, 0.034356795, -0.07252255, 0.08807464, 0.054480903, 0.07802967, -0.092708066, -0.0065583885, 0.064547695, 0.061515857, 0.07608276, 0.015845086, 0.05399307, 0.046207972, 0.07682761, 0.11118937, 0.00026422573, -0.0895758, -0.06245073, -0.029740699, -0.0014740154, 0.027233697, -0.039111186, 0.16755396, 0.20501228, -0.082414255, -0.019742634, 0.02684889, -0.086773336, -0.027991695, 0.019732868, -0.03260795, -0.11257588, 0.0030987784, 0.1463838, 0.03861401, -0.10842918, -0.117437616, 0.14313659, 0.078438565, -0.09482968, 0.0052337544, 0.100707754, 0.05589906, 0.07105043, -0.038332615, -0.07725689, 0.09469722, 0.07355193, -0.1157292, 0.057132505, 0.02029989, -0.04155311, 0.071097575, -0.0055263625, 0.18079865, 0.38012668, 0.109404676, -0.09758967, -0.102212206, 0.00389909, -0.047162294, -0.22764063, -0.1176957, -0.082364954, -0.085733935, 0.16146542, -0.087199375, -0.056692652, -0.0705148, 0.1347082, -0.049547795, -0.032154113, 0.022332476, 0.04633499, -0.05498381, 0.0024906248, 0.16445488, 0.074838646, 0.20337917, 0.1115513, -0.10360128, 0.061216302, 0.098984934, -0.08110799, -0.059201937, -0.05724916, 0.029004194, -0.08618972, 0.013225846, -0.03369663, -0.08421331, -0.033264257, -0.08726592, -0.073202275, 0.042856403, 0.056034483, 0.107243024, -0.05689622, -0.0030028522, 0.017908953, -0.07328589, -0.007594414, 0.0071774945, -0.05280225, 0.07523676, 0.027865984, -0.08028941, 0.09455798, -0.09711392, -0.042037435, 0.08059416, 0.010035165, -0.10993008, -0.003289789, -0.10419457, 0.06744651, -0.054457575, -0.009868316, -0.03755942, -0.03791154, 0.09302082, -0.0007773265, 0.055775456, -0.113934286, -0.115146875, 0.019683115, 0.08534063, 0.07942087, -0.0030046478, 0.030948453, -0.063466325, -0.036074415, -0.016279109, -0.009195738, -0.08951046, -0.013305791, -0.09175349, -0.02606842, -0.050165817, 0.1079373, 0.044596992, -0.108977474, 0.06679747, 0.11579225, -0.031969875, 0.032675304, 0.0059522614, -0.02365756, -0.00937099, -0.07494594, -0.1653077, -0.3082679, -0.054783344, 0.0285639, -0.100776345, -0.028167665, -0.22997522, 0.01747094, -0.08868753, -0.060424443, -0.11010974, -0.039256547, -0.011720479, -0.017176412, 0.011126436, 0.06154264, 0.400872, 0.06321358, -0.14524843, 0.21902247, 0.38519415, 0.0145387575, 0.27223736, 0.10704524, -0.5147831, -0.013107464, -0.023476839, -0.10483174, 0.06879827, 0.085153185, 0.05393266, 0.020522637, 0.101818204, -0.27341247, 0.00060092635, -0.067359395, -0.005493924, -0.09474235, -0.17607605, -0.07127856, -0.11640763, 0.055389512, -0.1131365, -0.041492414, -0.034524422, 0.005621068, -0.086069986, 0.122840926, 0.3364738, -0.055431563, -0.001911064, 0.13674909, 0.30347636, 0.030807205, 0.30295762, -0.046472043, -0.00038260422, 0.007897362, 0.0974737, -0.04371544, -0.08704327, -0.091912694, -0.031687126, 0.09420147, -0.114221305, 0.077933006, -0.029482313, 0.06913244, -0.02622807, 0.015147544, -0.045352764, -0.04111004, -0.10710582, 0.028201558, 0.077156045, 0.05391214, -0.022969529, 0.11117842, 0.08237559, 0.10453171, -0.10405807, 0.003354974, -0.116252504, -0.03932956, 0.009867959, 0.015585147, 0.0009171739, -0.05918831, 0.059380524, -0.061695598, 0.011159979, -0.110357985, 0.042100154, -0.054360777, -0.079446726, -0.04704336, -0.08812004, 0.09605775, 0.09998905, 0.11287934, 0.041158117, -0.08256315, -0.091114804, 0.08743698, 0.056386583, 0.08098958, -0.049666576, -0.051309347, -0.08709508, -0.04059767, -0.115307875, 0.0872299, 0.031763576, -0.011507273, -0.062053144, -0.10871796, 0.018181987, -0.050064556, -0.08874303, -0.103814825, -0.09703949, -0.0674478, 0.012953304, 0.09513783, -0.017158091, -0.054103546, -0.024219774, -0.028530806, 0.03939668, -0.108547494, 0.10722459, -0.051318817, 0.07139114, 0.06884334, -0.008262329, -0.0741258, 0.057037465, -0.0031884909, -0.013156898, 0.0714849, -0.10367265, 0.008950613, 0.055980228, 0.099751554, -0.023487903, 0.09904481, -0.0970577, -0.01902096, 0.08466049, 0.058368243, 0.039437093, -0.04145398, -0.10170515, -0.1076725, -0.044162735, -0.038580917, 0.07230329, 0.11507618, -0.0911881, -0.04691433, -0.065443546, -0.087029114, -0.055515546, -0.039622642, 0.09188718, 0.012004666, -0.049878746, 0.028969519, 0.049106307, 0.06445537, 0.050420024, -0.08291701, -0.099500306, 0.017810814, 0.10082392, 0.027080812, 0.00024937093, -0.073686376, -0.06939105, 0.08233058, 0.074784555, 0.02107846, 0.09735795, -0.07069501, 0.0623348, -0.07364726, 0.021651588, -0.06771029, 0.113982044, -0.07428494, 0.026154704, 0.046214946, 0.10307551, 0.015238218, 0.022479244, -0.019027226, -0.036095828, 0.10455414, -0.06803842, -0.05933762, -0.108714454, 0.0722189, 0.03909547, -0.09914209, -0.0009717345, 0.032879375, 0.04175081, -0.06665608, 0.04146815, 0.110454224, -0.050113022, -0.019016348, -0.08428319, 0.079899885, -0.0014935434, -0.09809864, 0.043350197, 0.0052614734, -0.060215935, 0.0014287755, 0.04372289, 0.08275051, -0.033045717, 0.0014782435, 0.023991236, -0.25920612, -0.0450482, 0.0051747607, 0.044749193, 0.07954203, -0.22021802, -0.079723835, 0.100830264, 0.09893494, 0.0701715, 0.04973227, -0.1414608, 0.02777078, -0.02228599, -0.015242781, 0.26565605, 0.00079634786, -0.25441998, 0.18331955, 0.2750579, 0.0058851615, 0.42950514, 0.02436813, -0.34791532, -0.017675677, 0.027857922, 0.015504934, 0.06869445, -0.043774165, 0.070294194, -0.010234461, 0.09682197, -0.025201041, -0.09735735, -0.06011677, -0.033369936, -0.038849026, -0.06646062, 0.14000572, -0.09726268, 0.0044095693, 0.092293106, 0.03814118, 0.050404068, -0.11052927, 0.089469604, -0.06846065, 0.23707235, 0.057410724, -0.032733195, 0.056838848, 0.21390343, 0.07652179, 0.05735172, 0.09857341, -0.042625334, -0.13608754, -0.07925185, -0.08164215, 0.06490087, 0.022888578, 0.07375204, 0.022944547, -0.10322328, 0.11034798, -0.086851895, 0.018592186, 0.043101557, 0.032820262, -0.03594871, 0.042684503, -0.061041225, -0.036302738, -0.04315781, 0.115375616, 0.012544565, -0.079631045, 0.06664597, -0.0062517524, -0.08056457, -0.030616172, 0.099813886, -0.07864487, 0.025918595, 0.063338675, -0.092378646, -0.003950849, -0.1136816, 0.09474238, 0.029058509, -0.04497698, 0.004646972, 0.028537147, 0.102595635, -0.018722191, -0.10658778, -0.08691225, -0.073711075, 0.09054241, -0.011196904, 0.10522073, 0.07590408, 0.08932165, -0.10613473, 0.09914867, -0.11106942, 0.016927235, 0.000103116035, 0.10133187, 0.06425925, 0.054752238, 0.10004041, 0.0059670135, -0.08398114, 0.074941136, 0.06932094, 0.004431404, 0.09434687, -0.011559978, -0.040881373, 0.040167384, -0.091622725, 0.09923919, -0.022511557, 0.08953517, -0.048967026, -0.03694146, -0.0392399, -0.06089107, 0.06633774, -0.0523388, -0.010166183, 0.013170503, -0.04121279, 0.061882026, 0.00046852976, 0.034222253, 0.042005293, -0.06754257, -0.10127593, 0.10243323, -0.01221402, -0.08695024, -0.10361255, -0.11496278, -0.028783344, -0.04971148, -0.037289172, -0.08205202, -0.08334157, 0.0336347, -0.07704356, 0.0908855, 0.08981752, 
  0.09815302, -0.09264667, -0.025231354, 0.020982616, -0.010996636, 0.07397725, -0.04551493, -0.051055945, -0.06544191, -0.051257364, 0.03454376, -0.09057634, 0.0030623532, 0.10551175, 0.020918261, -0.1003648, -0.06542446, -0.038471334, -0.029248394, -0.09341155, -0.112938106, 0.19263361, -0.114154175, 0.044578936, 0.034043737, -0.0028913917, 0.021529965, 0.16864665, 0.094894074, -0.034461092, -0.018225204, -0.10146817, 0.0894695, -0.0718812, 0.0074374005, 0.01397904, -0.050428506, -0.048458643, -0.17613676, 0.0890946, 0.021637762, -0.0809392, 0.0684501, 0.110275134, -0.12041892, 0.012316607, 0.009493223, 0.08151855, -0.13170023, -0.03807995, 0.0362783, 0.07779258, -0.15982279, 0.07464858, 0.054941513, 0.14495486, 0.13527003, 0.012771857, -0.038856976, 0.21193682, -0.11191078, -0.19766791, -0.049764413, 0.08976798, -0.05596298, 0.11572342, -0.01765301, -0.016691841, -0.06514647, 0.042129315, 0.10834385, -0.03148763, -0.039572544, -0.11053399, 0.05623769, -0.023104623, -0.07353796, 0.025378756, 0.1081469, 0.047685556, 0.08410505, 0.042501695, 0.039759286, 0.017635442, 0.11502976, 0.0020518526, -0.029960006, -0.103058904, -0.0937721, -0.058998983, 0.07488815, -0.10570584, -0.09788954, 0.0024201274, 0.025656246, -0.08172013, -0.096961886, 0.06907039, 0.03540265, -0.07946505, 0.11511395, 0.021885512, -0.057137556, -0.06697792, 0.05124647, 0.063306786, -0.041960195, 0.025906973, -0.0010706708, 0.08616344, 0.07405142, 0.0520807, 0.08082075, 0.09354647, -0.08880541, 0.02266983, -0.07016282, -0.011692405, -0.090086274, 0.046161078, 0.06095264, -0.104532674, -0.0098533705, 0.043449663, 0.055770226, 0.09157068, 0.070548914, 0.090867735, 0.058519773, 0.114650585, -0.108205795, -0.0766264, -0.07343075, -0.0138896955, 0.1934313, 0.08287326, 0.07306724, 0.007660337, -0.1096067, -0.06493478, -0.16840759, -0.06537968, 0.012086699, -0.027181484, -0.010069495, 0.15596454, -0.11410871, 0.11343122, 0.14806898, -0.35352948, -0.0883711, 0.26107335, -0.3261784, -0.5054233, -0.04674069, -0.47410196, -0.083828144, 0.26850173, 0.11136278, -0.048623953, -0.053269543, 0.087186284, 0.022232123, -0.10810498, -0.059233103, 0.12334313, -0.033759568, -0.07663717, 0.10135049, -0.054105088, 0.052857794, -0.028371591, -0.1641106, 0.0718463, 0.09607788, -0.06721065, 0.12208123, 0.081728294, -0.0928497, 0.050726913, 0.029830353, -0.035473887, -0.106183, 0.031648435, 0.0701886, -0.07985377, -0.042130724, 0.0738893, 0.08545316, 0.030130828, 0.10999114, -0.06024673, -0.08748728, 0.017993607, -0.023566805, 0.09527483, 0.039115004, -0.1140634, -0.06363258, -0.019181736, 0.06753131, 0.008196853, 0.059863307, -0.098589286, -0.08537504, -0.08765642, 0.029866748, -0.11171921, 0.029504873, -0.024048403, 0.042122804, -0.06337197, -0.026584633, -0.056584675, 0.05696141, 0.033780806, -0.01978977, -0.06680919, 0.10777832, -0.076812774, -0.06738441, -0.07156956, 0.09115819, -0.039044417, 0.025665067, 0.08301581, 0.031168066, -0.027153082, -0.009319708, 0.017700247, -0.011260934, -0.103497654, 0.0167275, 0.057791002, -0.0814001, 0.025685139, -0.07906656, 0.0012569875, 0.006689012, -0.034318157, -0.03325572, -0.05116237, -0.100963734, -0.10221937, -0.08130945, 0.046129085, 0.058743007, 0.076738544, -0.04245407, -0.012233794, 0.035511144, 0.003493078, 0.020289697, 0.09377415, -0.06903151, -0.099538356, 0.08497796, 0.07599161, 0.10185587, 0.058235712, 0.0013738498, 0.08396273, 0.07596733, -0.031660654, -0.025352567, 0.05836939, -0.100335434, 0.06353059, -0.07499394, -0.05682016, -0.08834536, -0.0073222816, -0.020571973, -0.078484, -0.11388053, 0.050271638, 0.059488036, 0.0101912245, -0.100411244, -0.10109328, -0.006349504, 0.09773753, -0.035108946, -0.06463289, 0.11112166, 0.068283424, -0.061756276, -0.11036846, 0.014362656, -0.0054667816, 0.08909211, -0.037896954, 0.10071217, -0.08569595, 0.050598107, -0.044664085, -0.036754556, -0.015077025, 0.031821154, -0.11426637, -0.007364683, -0.0056953877, -0.1060563, 0.05932767, 0.022936426, -0.037227437, 0.0014040545, -0.020520993, -0.056993272, 0.04229433, -0.029432409, -0.10419415, -0.03481695, -0.061355386, 0.076914035, -0.10701259, -0.09269786, -0.01949393, -0.0017697737, 0.045650713, -0.08721234, 0.01877243, -0.04995677, -0.004376471, 0.09201596, -0.058660377, 0.07754489, 0.09574539, 0.08841319, 0.11589866, 0.018501125, -0.11689647, -0.05899744, 0.062371828, -0.047610372, 0.06142818, 0.1032233, -0.050144464, -0.098352, 0.02625198, 0.005514182, -0.014493234, 0.00013939291, -0.08118222, -0.005544305, -0.076844186, 0.10899473, 0.014321558, -0.041149035, 0.02858863, 0.041989468, 0.01155562, -0.032002605, 0.025565349, -0.071155086, 0.10921987, -0.076016754, -0.049555246, 0.124176115, -0.00014533485, 0.008731298, -0.02192299, 0.023510046, 0.14493112, -0.05186346, -0.117699996, -0.036693364, -0.07893256, -0.011485799, 0.06448731, 0.018670209, 0.07651139, 0.03843295, -0.50889146, 0.041660585, 0.23347324, -0.34930107, -0.42291006, 0.046415903, -0.35691983, 0.019032218, 0.24773128, 0.20020692, 0.052946728, -0.10948613, -0.10843477, -0.11217505, -0.019493282, -0.12001066, -0.049030427, 0.14142054, -0.026852101, 0.086429976, 0.08274814, 0.044141628, -0.116809875, 0.019644829, -0.027085982, -0.09865737, 0.011299856, -0.029744703, -0.055690803, 0.005749814, -0.056452107, 0.008836777, 0.11222464, -0.04630714, -0.033629667, 0.13177058, 0.05142642, -0.08420966, -0.02214914, -0.04511688, 0.016600374, 0.023208756, 0.010027359, -0.013941787, 0.06451879, -0.0018567368, -0.078414634, -0.053145915, -0.08798581, 0.045099713, -0.11640591, 0.07995918, 0.01995904, 0.09934471, 0.08765752, 0.04933671, -0.04376509, 0.017550223, 0.062427722, 0.11401919, 0.07674492, -0.0007227659, 0.10352238, 0.020257093, 0.025818937, 0.08804699, 0.06829714, 0.049825273, 0.041063316, -0.0017473549, -0.10905983, 0.029361151, 0.012689345, 0.09896929, -0.020161532, -0.023644693, -0.11613831, 0.022617258, -0.09640251, -0.053244196, -0.012999326, 0.04034636, 0.035493128, -0.013811916, 0.04485149, -0.018646918, -0.07073129, -0.10255739, -0.06779888, -0.08901633, 0.046163894, 0.04054401, 0.06286768, 0.0584322, 0.0069367215, -0.045893364, -0.02770301, -0.0014035478, -0.03703452, 0.10173216, 0.075755976, 0.115882, -0.024219573, 0.07946221, -0.008714534, -0.11670586, -0.07285645, -0.0762931, -0.04095842, -0.015123442, 0.0028549135, -0.04275649, -0.07898077, -0.0943476, -0.061349235, -0.10054513, 0.0663098, 0.029495768, 0.05975636, 0.023540787, -0.05723185, 0.08899378, -0.11036681, 0.04612703, 0.052675195, -0.022575788, 0.08618336, 0.094835944, -0.11336522, -0.0038689673, 0.09700932, -0.109089874, 0.06068284, 0.047763504, -0.037080042, -0.055329934, 0.039556302, 0.10235303, 0.06344464, 0.108108915, -0.07447241, -0.03274352, -0.013598599, 0.013831003, 0.00026960968, 0.052071016, -0.09378187, -0.048069023, 0.0387209, -0.07044289, -0.095807984, -0.012303874, -0.083257645, 0.081604384, -0.03742969, 0.04564061, 0.09868384, 0.09089524, -0.0039422214, 0.02790777, -0.084755, -0.084397495, -0.0065006376, -0.04891618, -0.17271611, -0.07930404, 0.033307966, -0.051264644, 0.12682433, 0.0133955125, -0.10111962, -0.011167176, 0.00033219904, -0.0723973, -0.10757306, 0.091027886, 0.039846238, 0.11934659, 0.0008533548, 0.091005325, -0.060776655, 0.11402147, -0.050157, -0.0782802, 0.07963001, -0.075912766, 0.0141874775, 0.05712504, 0.18840326, 0.0712452, 0.052817978, -0.083799176, -0.27520955, 0.1064299, 0.08749148, -0.05903628, -0.2888936, 0.005919978, -0.043153998, -0.050276555, 0.09374623, 0.07401411, 0.0008850365, -0.006415114, -0.016811475, -0.040713377, -0.08723687, -0.021556146, 0.032026403, -0.067279465, 0.07317536, -0.021168567, 0.103143476, -0.0030442402, -0.092681065, 0.08668264, -0.08682695, 0.0803773, 0.11275836, 0.10554723, -0.042423166, 0.11433797, -0.07853754, 0.02753111, -0.073370665, 0.08114547, 0.029489927, -0.025605954, 0.074195065, 0.042942755, 0.040272348, 0.063889615, -0.047374688, 0.003440529, 0.04315663, 0.11694405, 0.073713146, -0.016189367, -0.11025891, -0.09509456, -0.098931774, 0.012530796, 0.044085555, 0.05727119, 0.036392055, -0.025965497, 0.0344181, 0.0839724, 0.07622994, 0.07214732, -0.025242083, 0.06555128, -0.09138895, 0.013210066, 0.014246948, -0.09796818, 0.07412147, 0.04507696, 0.028903991, -0.10768475, -0.10015316, -0.08055811, -0.071389906, 0.1172659, -0.023890264, 0.05502786, -0.070856325, -0.02796404, 0.114320464, 0.025761135, 0.04620225, -0.114974804, -0.017177755, -0.024808954, -0.03028591, 0.09119828, 0.042120524, -0.008887507, -0.14052474, 0.22089817, -0.053090192, 0.019034134, -0.0034775957, -0.06422261, -0.06823127, 0.078075655, -0.031524576, 0.21435277, 0.24321815, -0.0031783208, 0.009727201, 0.27326977, 0.125486, 0.005231999, 0.14789447, 0.028019644, 0.2986596, -0.01795706, 0.016091239, -0.0056857467, 0.10455304, -0.09955142, -0.021185257, 0.012355479, -0.033294402, -0.07586376, -0.10746913, -0.10439091, -0.09942152, 0.048743643, 0.04796097, 0.14245485, 0.091708206, -0.11301871, -0.08729795, -0.09412961, 0.0011079276, -0.04780043, -0.06421895, 0.10680808, 0.09380108, 0.050742783, 0.07662406, 0.055902842, -0.04182828, -0.009034231, -0.07043656, 0.020147659, 0.078848936, -0.026528062, 0.078019954, 0.031826712, 0.10807382, -0.05058881, 0.078872345, -0.083149835, 0.0045047402, -0.08011956, 0.090994366, 0.0726499, 0.033548333, -0.059261337, 0.009515919, 0.091637366, -0.020010792, 0.05065427, -0.04177039, -0.041175894, -0.0311867, -0.014634706, 0.045714073, -0.071232334, 0.066350974, -0.06292255, 0.010975458, -0.11502791, -0.001966685, -0.07600052, 0.093214504, 0.10255427, -0.050690636, 0.0062910095, 0.01693789, -0.052049674, 0.06445307, -0.085641354, -0.041492507, 0.02351173, 0.11441473, -0.07763907, 0.008498035, -0.08223614, -0.11764281, -0.0031546354, 0.097499706, 0.02772332, -0.02400159, 0.055867873, -0.06718244, -0.04044743, 0.06436866, 0.087128885, -0.08080205, 0.10604239, 0.02161523, -0.0597753, -0.007980563, 0.10233606, -0.061793573, 0.11135433, 0.07020713, -0.08816702, -0.08594866, 0.03571462, -0.03826397, 0.03128878, 0.07487964, 0.0016898662, 0.10575884, 0.010131396, -0.04193212, 0.104796, -0.09038128, -0.10827158, -0.081082955, 0.092025734, 0.054886825, 0.09881764, 0.064262204, 0.05332891, -0.10677609, 0.0809503, 0.025040813, -0.10178897, -0.027505733, -0.09402698, -0.044725396, -0.06149756, 0.10433098, 0.10149332, -0.023906142, -0.086783424, -0.06413773, 0.09986796, -0.109202236, -0.050560907, 0.06435894, -0.045890413, -0.06292508, -0.06662832, 0.10074117, 0.03935785, -0.10037544, -0.1016031, 0.01626008, 0.02128657, 0.0364983, -0.11411759, -0.04037839, 0.051233537, -0.05728465, 0.08897389, 0.10748393, 0.063978516, -0.042513497, 0.042861484, 0.10979726, -0.018845707, -0.031135567, 0.017946608, -0.013472833, -0.07830933, 0.10711422, 0.015877895, -0.08764522, 0.08603475, -0.029245049, -0.10475872, -0.1064943, -0.092758864, 0.0336651, 0.07026865, 0.100794725, 0.070219494, -0.101626225, -0.11235602, -0.0019883513, 0.05976581, 0.09638456, 0.107226916, -0.10864581, 0.060273625, 0.035569213, 0.02919332, -0.07270362, -0.06947927, -0.0723023, 0.09965948, 0.017823257, 0.07354515, -0.095303915, 0.057611994, 0.044336654, -0.09732598, 0.017965995, -0.022117011, -0.08301283, -0.09514679, 0.041444965, -0.100895256, -0.020074688, -0.008596554, -0.11066751, 0.067835964, 0.11755452, 0.023437286, -0.03965196, -0.104511045, -0.07876313, -0.103315964, 0.10787635, 0.07432673, -0.09179521, 0.16638684, 0.042516105, 0.08398892, 0.100766145, 0.10163266, -0.06316215, 0.10528069, 0.02826991, 0.1731994, 0.29578605, 0.019752063, -0.104265474, 0.061707795, 0.1564308, 0.09196197, 0.05307401, -0.08286298, 0.22797096, -0.028628089, 0.0532714, -0.11498062, 0.035685964, 0.066037394, -0.10757581, 0.0497681, 0.035021577, -0.00898247, 0.08918255, 0.03921268, 0.032455765, -0.07683887, 0.04816569, 0.21903296, -0.07430509, -0.024711581, -0.10567814, -0.0912795, -0.06378028, 0.068201326, -0.11302883, 0.11820537, 0.024252733, 0.013475813, -0.08726741, -0.14784825, 0.04678805, -0.09071264, -0.074976675, 0.11781267, 0.12211287, -0.1263057, 0.03798679, -0.08238301, -0.049225494, -0.051468328, 0.083638094, -0.10486594, 0.079533406, -0.0748741, 0.11107633, 0.016313441, -0.114026785, 0.02174788, -0.0942387, -0.07767389, -0.011149414, 0.023646064, -0.04973036, 0.07579594, 0.10622672, 0.033472247, 0.08677592, -0.012151778, 0.0933503, -0.1004093, -0.08325677, -0.041937016, 0.035656802, -0.103873745, -0.0601528, 0.11240249, -0.044981137, -0.10023316, -0.114079356, 0.037381105, 0.027960889, 0.08884188, 0.0017551929, -0.018456101, 0.07237827, -0.09375333, -0.06455293, -0.055426195, 0.0076998696, 0.09918334, 0.06126059, 0.06295986, 0.0771134, 0.053465165, -0.026408061, -0.07465929, -0.0131819025, 0.07965628, 0.0113382265, 0.117417715, 0.098177515, 0.115635924, -0.117010385, -0.052220114, -0.061316386, 0.0046931356, -0.063505046, 0.06487162, -0.014316641, 0.08378325, 0.029857837, -0.10809366, -0.06736587, 0.041692562, -0.050704516, -0.098356105, 0.06694523, -0.043837667, -0.030855708, 0.009792231, -0.058863975, -0.0065374225, 0.04965467, -0.074592926, 0.0032666028, -0.05759721, 0.020496719, -0.11782767, 0.069600396, 0.038921542, 0.07164908, 0.034711786, -0.08661607, 0.11697883, 0.048821468, 0.036278717, 0.10150453, 0.012695618, -0.09938103, 0.07290045, 0.091192655, 0.016328096, 0.065348156, 0.00758601, 0.07385556, 0.004431993, -0.0067914873, -0.050867468, -0.039225444, 0.13198881, 0.10540653, 0.0030906457, -0.10453447, -0.08722029, 0.007274107, -0.050621677, -0.09482763, 0.043725885, -0.0057200566, -0.09836091, -0.01829034, -0.00081621855, -0.03263714, -0.06401752, 0.1947928, -0.052895755, 0.10187994, 0.11870514, 0.04388894, -0.014143132, -0.0066937674, -0.03388851, 0.100131705, -0.057530534, -0.0012489895, -0.11175872, -0.046074286, -0.014595114, -0.06783886, -0.08551206, 0.024912288, 0.16003877, 0.07924462, 0.09725962, 0.023793273, -0.031732276, -0.040024307, -0.0044472893, 0.016756885, 0.0047141765, 0.11698217, 0.08790707, -0.18436967, 0.03700631, 0.10557612, 0.12982601, -0.09442907, 0.043207012, 0.019906515, -0.0116512105, 0.013757099, -0.11649704, -0.07675412, 0.025089689, 0.2920454, 0.114681095, -0.11009064, -0.085785694, -0.022409253, 0.048761316, 0.04514829, 0.08389198, -0.043559358, -0.11687616, 0.07306268, 0.065993585, -0.025823742, -0.08213128, 0.012199096, -0.042393714, -0.08138517, -0.05952051, -0.069409736, 0.09902906, 0.064134516, -0.1114692, 0.07920579, -0.10009082, 0.053079568, 0.028422229, 0.0019557849, -0.09467615, 0.045705445, -0.07991326, 0.012956895, -0.023416117, 0.014564879, -0.0461796, -0.10827556, 0.05275642, 0.114195056, 0.07762215, 0.10273848, 0.03790716, 0.05235683, -0.06088888, -0.045228094, -0.012304686, 0.040742494, -0.01670035, 0.035770647, -0.01053635, 0.040716194, 0.0018977597, 0.0010685325, -0.08475737, 0.030140229, -0.060184408, 0.046994217, 0.08834257, 0.020574741, -0.022337884, 0.0056155026, -0.059546277, 0.06752614, 0.06143973, 0.11611418, -0.06509544, -0.07880516, -0.10024524, 0.035915293, 0.02011428, -0.0970162, -0.09923613, -0.018518709, 0.07927682, -0.056359734, -0.24668142, -0.05445879, -0.024278618, -0.056968518, 0.10548789, 0.0278315, 0.30920208, 0.07485344, 0.042238396, -0.0896146, 0.11420869, -0.07566893, -0.051304653, 0.0027479157, -0.00042642912, 0.43171775, -0.05536896, -0.16004285, 0.13634448, 0.40327597, -0.08969487, 0.18229951, -0.025052056, -0.48274994, -0.19675207, 0.0931365, -0.1017448, 0.042120405, -0.08933564, 0.018585138, 0.07528964, -0.11204391, -0.101805136, -0.114458494, 0.09336963, 0.07096017, 0.056138612, -0.058775805, 0.17639138, -0.09267168, 0.09613182, 0.003936149, 0.10377281, 0.067045584, -0.016693808, -0.024818003, 0.13064232, 0.28023672, -0.051143147, -0.13625193, 0.13013151, 0.29690886, -0.11348413, 0.050060805, -0.07137541, -0.12892388, -0.031419005, -0.054570075, -0.003453344, -0.0427974, -0.06645825, -0.0855483, -0.05535362, -0.11099403, 0.055754803, -0.05233433, 0.10811456, 0.07847648, -0.05986572, -0.043564245, 0.065294005, 0.02804216, -0.06760399, -0.00900653, -0.025267623, 0.05672536, -0.0419176, -0.010867648, 0.049089186, -0.023424737, -0.07291318, -0.048953786, 0.045539074, -0.0735129, 0.06376506, 0.105798684, 0.031747587, -0.10472888, -0.0032122359, 0.041477524, -0.04402469, 0.0823169, -0.071444616, -0.044774227, 0.08602866, 0.07036757, -0.09737372, -0.025557905, 0.064872704, 0.11398769, 0.11245953, 0.065342225, -0.024286956, -0.088063985, 0.10075875, -0.0066224486, -0.1142517, 0.011258967, 0.056721486, -0.11182761, -0.01929716, -0.037782796, -0.08271454, 0.0141820535, -0.00671871, 0.013328068, -0.092343524, -0.112432815, 0.10682004, -0.09242034, -0.049065813, -0.021507256, -0.041012257, 0.09261557, -0.0045200214, -0.11403529, -0.10789627, -0.03324181, -0.08690323, -0.035585903, 0.073258676, -0.022947274, -0.0023878142, -0.068992645, -0.0074474886, -0.032710537, 0.101415314, -0.07790724, 0.0014711767, 0.0904747, 0.05040682, 0.045035534, 0.050343506, 0.044447415, 0.088179715, -0.0044831038, -0.06617977, 0.09708729, 0.08477496, -0.0033777878, -0.03931666, -0.11659024, 0.060372077, 0.07423555, 0.094834544, -0.077233955, -0.017147332, -0.07194327, -0.08062771, 0.10230487, 0.05321338, 0.092802756, -0.10107067, -0.06963952, -0.04897891, 0.069764756, -0.0593941, 0.11143958, 0.10050591, 0.101381965, 0.09911405, 0.022288851, 0.09953549, 0.08082212, 0.0568484, -0.100491434, -0.0191309, -0.037749924, 0.058809213, -0.00872802, 0.06324146, -0.06071501, -0.06477772, -0.024862736, -0.082324035, 0.06166222, 0.08127401, 0.06384043, -0.06065794, 0.10060618, 0.06522261, 0.08511964, -0.093242876, 0.02428221, -0.03529071, -0.024119802, -0.07066436, -0.10470792, 0.014385022, 0.057926513, 0.051978953, 0.10588511, -0.06790273, -0.043672338, 0.062873326, -0.11555601, -0.04272656, -0.0735589, -0.044157676, -0.01529827, -0.008171909, 0.042921, -0.10548926, -0.064487234, -0.083131686, 0.09904217, -0.03206192, -0.002465479, -0.07324988, -0.028768316, 0.083960734, -0.01708018, -0.0719003, -0.0084975045, -0.3619866, -0.03623118, 0.01800512, 0.029646717, -0.07477978, -0.123410985, 0.2628798, -0.078199595, -0.023733374, -0.047509976, 0.0019933083, -0.032969788, 0.116185464, -0.11276044, -0.07837762, 0.41431668, 0.113616444, -0.23019733, 0.2946608, 0.44682357, -0.024123088, 0.3703539, -0.010108389, -0.34746692, -0.13191932, -0.0177407, 0.052724756, -0.10975368, -0.06704597, -0.012117051, -0.07026753, 0.076172896, -0.027635302, -0.11143833, -0.018020337, 0.03509695, 0.021228097, 0.060368955, 0.270737, 0.10770916, -0.063339494, -0.0810786, 0.034990396, 0.0047713825, 0.08601571, 0.04248961, 0.051099885, 0.28665254, -0.04251431, -0.024985358, 0.06738239, 0.1668274, 0.03327901, 0.029580737, -0.031187065, -0.056954976, -0.07863632, 0.095842466, 0.09742769, 0.10750642, -0.099885024, 0.08300681, -0.099116884, 0.019789658, -0.058184482, 0.05302725, -0.012539983, 0.0055031106, -0.035263427, -0.04132732, -0.11691187, -0.08469786, -0.04286874, -0.03434757, -0.0025117248, 0.006556928, 0.009853996, -0.04136969, -0.07982661, -0.045470968, -0.09324341, 0.06482165, -0.0863107, -0.0025820583, -0.107757494, 0.0464646, -0.07727383, 0.108915575, -0.054554403, 0.026697896, -0.07780974, -0.115504816, -0.008744486, -0.059408933, 0.032002635, 0.03658939, 0.015379645, 0.085074596, 0.025185443, -0.0793909, -0.045009606, -0.007849403, 0.10697814, 0.026517086, -0.04128281, -0.0614319, -0.024434328, 0.0073988214, 0.022499315, 0.08986478, 0.09763851, -0.04787101, -0.08427875, 0.039931692, -0.0052276105, -0.10072094, 0.06155429, 0.07233504, 0.048706837, -0.099643946, -0.093988255, -0.04859034, -0.022014454, 0.07258376, -0.0620294, 0.07113356, 0.09975796, -0.08659118, 0.012843497, 0.07452499, 0.095605455, 0.11142901, -0.1090707, -0.02380906, -0.008893773, -0.015618473, -0.016281888, -0.046686202, 0.050107576, -0.04856368, -0.0028000101, -0.10196469, -0.07288255, 0.013828613, 0.07971383, -0.11667723, 0.07134759, 0.036376663, 0.036966912, -0.015633836, 0.08517786, 0.03984616, 0.09580422, -0.044907466, 

  0.08025484, 0.106449425, -0.05614864, -0.07440238, 0.022434056, -0.08104399, 0.03108555, -0.04230711, 0.029727712, 0.11240885, 0.1032144, -0.12834533, -0.02343291, 0.0721385, -0.03088954, -0.057214573, 0.09412253, 0.03911987, -0.047348335, 0.0405028, -0.023200922, -0.11939931, 0.059167176, -0.010282569, 0.091386855, 0.014201745, 0.0007415861, 0.122118816, 0.08131175, -0.018869527, -0.10660456, -0.063985646, 
  0.058262914, 0.07953206, -0.0043047816, -0.09430312, -0.104390115, -0.006580293, -0.036101557, 0.010088265, -0.0013058037, 0.12960754, 0.07046901, 0.07665482, -0.010314658, 0.12020476, 0.07866554, -0.019312382, -0.10024325, -0.07899269, -0.11414856, -0.08783959, -0.075199544, 0.10736504, -0.08119054, 0.014983758, 0.07275747, -0.11171178, 0.1231129, 0.00758484, -0.00921835, 0.095677376, 0.099706635, -0.03907393, 
  0.113847375, 0.11038664, 0.12578331, -0.118626036, -0.049807623, 0.024604708, -0.08121973, -0.042010993, -0.056801476, 0.09233463, 0.023457468, 0.043973953, 0.055262655, -0.07811588, -0.011359021, 0.089772925, -0.108462684, -0.061424285, 0.040596366, 0.014012486, -0.020606257, -0.033244617, -0.0058144033, 0.08718124, 0.085915565, -0.0812432, -0.006472528, 0.09880538, 0.03487751, -0.01069317, -0.085836634, -0.011876702, 
  -0.119524, 0.025658682, -0.03290408, 0.005259365, 0.066116825, 0.00087605417, -0.020384692, -0.026359804, 0.062438264, 0.119034275, 0.10330109, 0.0031669736, 0.004506573, 0.099956095, 0.0013308227, 0.05050479, 0.089026675, 0.06758888, -0.007972971, 0.015931994, -0.120011985, -0.031588294, 0.07656632, 0.13055201, -0.09826344, 0.020699918, 0.12529738, -0.004149139, 0.121621564, -0.09726388, -0.049601004, -0.00047382712, 
  0.059982643, 0.12903593, -0.03168127, 0.11994134, -0.04494159, 0.06965144, 0.019230828, 0.0462213, 0.04858525, -0.015056379, -0.0907215, 0.08658743, -0.07009439, 0.052691996, 0.08122951, -0.06459562, -0.049975462, -0.0053934306, -0.005702868, -0.056479618, 0.03562905, 0.11387579, 0.021223292, 0.10817824, 0.051092044, -0.0072158575, -0.106013544, 0.120083645, 0.037030056, -0.13005902, -0.117600195, 0.029012829, 
  0.14100996, 0.004480609, 0.086164705, 0.07123061, -0.11936198, 0.11322448, 0.058032945, -0.055248562, -0.086141735, 0.12284888, 0.067343876, -0.011110203, 0.02482837, 0.0046755346, -0.11242552, 0.0011013335, 0.0022095502, -0.06966304, 0.034788378, -0.078881115, 0.15344155, 0.10647975, -0.13021992, -0.100289226, -0.13542816, -0.07232839, -0.10517165, 0.12543067, -0.08498761, -0.07501836, 0.016478969, -0.124219544, 
  0.098505735, -0.02954096, 0.0712763, -0.10722169, -0.060789533, -0.033342656, -0.026795603, 0.009642726, 0.003871739, 0.021046089, 0.058117524, 0.19165443, 0.13272658, -0.105054885, -0.10386712, -0.012846548, 0.06508087, -0.23922822, -0.068500474, -0.08568063, 0.20119363, 0.11832181, -0.11622061, -0.029492818, -0.21450067, 0.16231178, 0.12599191, -0.21162057, -0.1855039, -0.071749344, 0.09943893, -0.0762255, 
  -0.013469338, 0.002670467, 0.055927858, -0.029028922, -0.11198828, -0.03513667, -0.007877223, 0.038517028, 0.08401415, 0.0664285, 0.046500117, 0.1264167, -0.087735936, -0.09611129, -0.066813454, -0.056861244, 0.100375235, 0.0759774, -0.04929863, 0.07509017, -0.09781552, 0.1055893, -0.09368229, 0.07909569, -0.07440807, -0.12994677, -0.015836462, 0.044771075, -0.056941926, -0.008272849, 0.045587912, -0.08703765, 
  -0.07887409, -0.030244082, -0.12062427, -0.09228501, -0.046431787, -0.12695628, -0.09971623, -0.028010182, -0.07188749, -0.11621515, 0.063675866, 0.048248634, -0.03896445, 0.09330848, -0.018338084, -0.12671514, 0.088281065, 0.074653015, 0.078961685, 0.057210177, -0.076972604, -0.080437966, 0.10396491, 0.10812691, -0.090263024, 0.044043615, 0.012841031, -0.0046256483, 0.1224315, -0.10205042, 0.03483361, 0.11322436, 
  -0.09796749, -0.05548276, -0.10253308, 0.07277076, -0.028263561, 0.096383974, 0.11447789, -0.035129696, 0.09432989, -0.110866666, -0.038105957, 0.07535322, -0.111531235, -0.10975987, -0.057803445, -0.045591563, 0.1193793, -0.12679243, 0.12119876, 0.024146944, -0.07724105, 0.028582394, 0.012808785, 0.05982767, 0.0063361973, 0.090597525, 0.098355114, 0.054015666, 0.10319473, 0.03635715, 0.0006546378, 0.13035943, 
  -0.12478866, 0.056767732, 0.09629288, 0.1253983, 0.122355476, -0.005270794, 0.027375028, -0.0016863644, 0.027080745, 0.10365538, -0.12577368, -0.12288151, 0.12449695, -0.09658934, 0.033020318, 0.020833641, 0.11969669, 0.086772814, 0.012321115, -0.06478609, 0.12357338, 0.05327545, -0.10319324, 0.048630163, -0.092041895, -0.07364943, -0.0049334615, -0.0538717, -0.06701709, -0.08587227, 0.09696035, 0.10290842, 
  0.09855668, -0.09452477, 0.11768057, 0.004117183, -0.056818254, 0.05855725, -0.23094694, 0.09080316, 0.0060077608, 0.19854477, 0.1192141, 0.15364838, 0.04005799, -0.017751943, 0.023663834, 0.080890134, 0.21331002, -0.06818861, 0.113304235, -0.12369263, 0.30853733, 0.18228446, -0.12846188, 0.0355559, -0.31665125, 0.13720074, 0.07929144, -0.22212237, -0.087777875, 0.12098737, 0.09768298, -0.32626805, 
  0.16243985, 0.02087903, 0.16103616, -0.12113826, 0.115667805, 0.058399588, -0.1854839, -0.0681268, -0.121316075, 0.19815104, 0.1006829, -0.026030507, -0.047745194, -0.019001244, -0.079453595, 0.08420171, 0.12089237, -0.013772196, -0.07699476, -0.00328506, 0.08732536, 0.13417533, -0.023815174, 0.12236883, -0.10857087, -0.055175003, 0.0948446, 0.0153185455, -0.09070086, -0.0070952326, -0.009321283, -0.20497274, 
  0.11306399, -0.1050701, -0.07433651, 0.050036386, 0.11832042, -0.094325505, -0.12681086, 0.0703693, 0.0930545, -0.09205148, 0.11001806, -0.0023965687, 0.10450557, 0.117593065, 0.02504018, 0.093705356, 0.015308142, 0.07094115, -0.08908855, -0.04389987, -0.089876235, -0.046155624, -0.109276265, 0.036299527, -0.057320967, 0.1225418, -0.045037836, -0.04355806, 0.08229485, -0.09115128, 0.04615429, -0.11633278, 
  0.10492426, -0.0028643906, -0.051326305, -0.1169421, 0.04181415, -0.056726553, 0.08784713, -0.058329158, -0.09121889, 0.08531369, 0.102548495, -0.022737026, -0.05531116, -0.041403823, 0.015172392, -0.0022957474, 0.03296466, 0.046042696, -0.12434637, 0.038000062, 0.049792245, -0.005015984, 0.023414046, 0.118385196, -0.020387806, 0.12556086, 0.0971417, 0.08293362, 0.030051365, -0.06163144, -0.1093186, 0.028796613, 
  -0.09463488, 0.051400855, -0.01792857, 0.056311876, -0.11793177, 0.118370265, -0.10425222, -0.048518546, -0.117322885, 0.0200077, 0.12551092, 0.052298725, 0.004369244, 0.024364531, 0.11523332, 0.05824627, 0.025117442, -0.10805404, 0.0635733, -0.03361257, 0.10631433, -0.063219346, -0.09928496, 0.067171946, -0.098506086, -0.10885689, 0.0335619, 0.032742962, 0.048850983, -0.054033525, -0.028928503, 0.102155164, 
  0.10628566, -0.1289978, 0.12721087, 0.02124838, 0.062335208, -0.11147021, -0.021018408, 0.11446185, -0.02187778, 0.21548246, 0.09788036, 0.17103592, 0.21106505, -0.054939736, -0.03269775, 0.04116531, 0.1949209, -0.036182426, 0.025603656, 0.06984282, 0.12621966, 0.11706349, 0.014575719, 0.0747256, -0.13848567, 0.15789512, 0.05104318, -0.012120333, -0.21323128, -0.08095223, 0.0928387, -0.052638758, 
  0.17312092, 0.05091256, 0.14012702, 0.10854318, -0.010173589, 0.09734977, -0.019698, -0.13308665, -0.10937537, 0.10041401, 0.009188309, 0.20464775, 0.07203172, -0.12957865, 0.017263534, -0.09988433, 0.14926487, -0.004094366, 0.08879626, -0.072203554, 0.1368899, 0.17428768, -0.011120466, -0.07369672, -0.07210135, -0.0043257345, 0.05560524, -0.1556615, -0.052108116, 0.008823872, 0.056852724, -0.17252444, 
  0.09978415, -0.04732997, 0.025517553, 0.045370653, 0.06874134, 0.11261976, 0.07341227, -0.0052309483, -0.0726465, -0.059022896, -0.057564884, -0.013077915, 0.024796337, 0.07411152, -0.11951314, 0.06320815, -0.07150487, -0.1236262, 0.014616668, 0.033270955, -0.061875105, 0.11722866, -0.017184965, -0.061507337, -0.0911862, 0.1266162, -0.042894363, 0.040483445, 0.010907263, 0.10102287, -0.08180107, -0.055671178, 
  0.06923011, -0.0020483136, -0.13038984, -0.01217749, 0.016987115, 0.08905867, -0.11218644, -0.1009382, 0.09194684, 0.067925766, 0.05176474, 0.028486058, -0.0007350445, -0.048616685, 0.12704124, 0.1017251, 0.03478533, 0.1075204, -0.10309484, 0.05827412, -0.12210217, -0.07083416, 0.12984593, -0.005607493, 0.0060098767, 0.11845891, -0.028748557, 0.0138928, -0.12872607, 0.11039521, -0.032868624, 0.11153656, 
  -0.034117132, -0.010612047, 0.028199632, -0.09245443, -0.12025388, -0.026597718, -0.052074738, -0.11873575, 0.08769737, 0.141432, -0.12728179, 0.09841868, 0.03487532, 0.08871703, 0.012932202, 0.063624136, -0.074115485, 0.021523962, -0.055116437, -0.1301028, 0.15723142, 0.111013904, -0.034350578, 0.045803294, 0.036905132, 0.032552738, 0.12818475, -0.14397058, -0.13418536, -0.07866613, 0.03615469, -0.19663642, 
  -0.018753344, 0.04820631, 0.025699286, -0.11381739, -0.08580005, 0.03340454, 0.06479049, -0.036663625, -0.08345167, 0.038231164, -0.09417631, 0.11728391, -0.06335963, 0.0871185, -0.08695418, -0.027558923, 0.05834501, 0.11766363, 0.06516879, -0.03924981, -0.0906226, 0.023710335, -0.14276445, -0.04053194, 0.031351235, 0.007339439, -0.01313954, -0.110308975, -0.12196933, -0.10307284, 0.14936733, -0.122703075, 
  -0.06695312, 0.08143346, 0.053332224, 0.066856906, 0.0076846927, 0.046943247, 0.033761308, -0.017598532, 0.026534826, -0.06609326, 0.07674512, 0.053607583, -0.03227026, -0.12675215, -0.009687163, -0.09370822, -0.06771055, 0.00020092726, -0.06301727, -0.0379859, -0.017670467, -0.071595855, 0.07642193, 0.09451607, -0.07091874, 0.08259489, -0.09948069, 0.1090641, 0.09463507, 0.042868152, 0.010052934, -0.06428556, 
  0.09637375, -0.06487594, 0.21246508, -0.016146846, -0.0034606904, 0.010130717, -0.050598785, -0.018821634, -0.029015884, 0.2348403, 0.061287478, 0.2655967, 0.19497994, 0.10958352, 0.05649026, -0.05181797, 0.2085607, -0.1122831, -0.112730086, -0.13540597, 0.25051498, 0.09084982, -0.19248049, -0.020081729, -0.2866527, 0.14516169, 0.27320755, -0.05776299, -0.071017034, 0.027920038, 0.28653604, -0.1627417, 
  0.1222932, -0.12396639, 0.14906962, 0.025938367, -0.049815625, 0.011127127, -0.055463947, -0.04180374, 0.020166487, -0.034023587, -0.11626909, 0.13354535, -0.070635304, -0.037167136, 0.1172036, -0.035692576, 0.11754482, -0.0017547859, 0.08696784, 0.04859804, -0.04807519, 0.14132147, -0.027207501, -0.06571478, 0.035944212, -0.063738406, 0.0064220964, 0.08407694, -0.0023184235, -0.08400263, 0.12632835, -0.0888614, 
  -0.03270962, -0.06321753, -0.020626156, -0.009585894, -0.11612998, 0.0027744265, 0.10281123, 0.10345414, 0.06644441, 0.056471966, -0.061325766, -0.09312801, 0.0835937, 0.0926605, 0.07179343, -0.061226405, -0.019718736, 0.06658609, 0.08572209, 0.09748627, 0.099642746, -0.09685216, 0.08805475, -0.04469543, 0.10753339, 0.051808402, 0.15599023, -0.12699442, -0.009368551, -0.031218745, 0.07228599, 0.08932079, 
  -0.06962841, 0.106888324, -0.043463282, -0.09549612, -0.0983562, -0.11097041, 0.015933678, 0.08981967, 0.09168455, 0.08351813, 0.044985667, 0.015160471, -0.047485918, -0.013358153, 0.06431346, -0.09016998, 0.02659151, 0.070087016, -0.06598385, 0.055994123, -0.11300687, -0.06872867, -0.08071706, 0.07403223, 0.053304464, -0.013983473, -0.03024564, -0.017060086, -0.07533682, -0.015051179, -0.016164482, -0.10116926, 
  0.118840545, 0.0665305, 0.12894963, 0.050390046, -0.080019146, -0.046535823, -0.14049578, -0.010397837, -0.038411938, 0.10138429, -0.1288043, 0.08338799, -0.026789997, -0.027424797, -0.056376778, -0.0130748, 0.1510407, 0.051138822, -0.014871202, 0.10265552, 0.089175865, -0.059627473, 0.087109685, -0.011570968, -0.13961852, -0.018923756, 0.0070215454, -0.058590453, 0.083108224, -0.010264143, 0.0033179466, 0.06569403, 
  -0.0132853165, 0.0038835555, -0.02840279, 0.02779077, 0.061098292, 0.10652836, -0.011829264, 0.12758939, 0.0474236, -0.12380419, -0.087016925, -0.10639672, -0.02839651, -0.02742371, 0.100724205, 0.0005016774, -0.027803965, -0.061892755, 0.037503257, 0.092624694, -0.0697866, -0.09999214, 0.121642336, -0.103014, 0.07141055, 0.07589325, 0.12236361, -0.122171395, 0.124383494, 0.12634684, 0.12977673, 0.072190136, 
  0.1887263, -0.1216827, 0.055923622, -0.06629283, -0.08539574, -0.091891445, -0.14437377, 0.07948071, -0.027623735, 0.032925587, 0.06141673, -0.025392298, -0.05343418, -0.029038882, 0.0029509265, -0.11042441, 0.1760936, -0.1349651, 0.021316836, 0.084361486, -0.035607826, 0.10615566, -0.020757338, 0.020462856, -0.09296701, 0.14736839, 0.029201375, -0.073953226, 0.036576856, -0.06124571, 0.025528466, -0.16230628, 
  0.19026388, -0.2611476, 0.17187667, -0.107551366, -0.10351989, -0.08503948, -0.10067419, 0.010912163, 0.095963314, 0.25831255, 0.034417123, 0.26877838, 0.20980853, 0.12991296, 0.114987865, -0.053822685, 0.12230093, -0.094015345, 0.028048808, -0.09823825, 0.07156587, 0.2094044, -0.22790936, -0.06446102, -0.2239321, 0.29119363, 0.17657523, -0.2229526, -0.24647778, 0.1053161, 0.07879629, -0.13445728, 
  0.033798337, -0.08849013, -0.12554437, -0.014435723, -0.11530949, -0.0884971, -0.10262198, 0.058624208, -0.1258644, -0.12146978, 0.072306186, 0.0013623536, -0.069881976, -0.052951537, 0.055948213, 0.10605495, -0.06895145, 0.03497216, -0.05717949, 0.11980803, -0.109645315, 0.08696453, -0.098074906, 0.028063253, -0.12765576, 0.12981223, -0.041652277, 0.114216074, 0.105272025, 0.07251075, -0.04682169, 0.037012354, 
  0.08458406, 0.12323497, 0.00202927, -0.066549554, 0.113389045, 0.080903664, 0.02263841, -0.007842019, -0.035458125, 0.13025989, -0.104524, 0.111461386, 0.07352695, -0.05902946, -0.12900706, 0.007879034, -0.11403034, 0.103520036, 0.09084751, -0.09673867, -0.08873691, -0.022391014, -0.12694377, 0.06868045, -0.09336139, 0.03386514, -0.04445438, -0.0046257675, 0.07161997, -0.054230317, 0.08671212, -0.0075166374, 
  -0.099174336, -0.07231045, -0.021979414, 0.012148663, -0.10032421, 0.0673805, -0.0035344958, 0.109450325, 0.06592019, 0.08792871, 0.05698909, 0.077656314, -0.07722275, 0.10168451, 0.049819946, -0.03331524, 0.049124375, 0.11979337, 0.09449895, -0.06066347, 0.05891721, -0.00094497204, 0.06767361, 0.05132161, -0.033462755, -0.016884372, 0.09032017, -0.026366591, 0.044691324, -0.032166176, -0.019084148, 0.053827927, 
  -0.010276936, -0.080088064, -0.0045229495, 0.06115955, -0.026823476, -0.09422235, -0.1060974, 0.023811117, 0.112442926, -0.10819701, -0.026844144, 0.031986043, 0.10243602, -0.099847585, -0.034983866, -0.05016341, -0.050748765, 0.106822416, -0.07619012, -0.08284736, 0.03238432, 0.06561984, 0.104008034, -0.091526985, 0.062972665, -0.05058267, -0.065561384, -0.10578752, 0.09265959, -0.022113547, 0.044751465, -0.098401435, 
  0.023548827, 0.12353371, 0.078284666, 0.010816187, -0.12546661, -0.09451544, -0.12820366, -0.038108572, -0.10918245, 0.050832182, 0.11608121, -0.072053805, -0.11078611, -0.059386745, -0.124693595, -0.05787491, -0.10011388, 0.033291116, 0.046187058, -0.06714966, -0.004805401, -0.028735705, 0.091403216, 0.12999181, 0.021950677, -0.058436014, 0.11774121, 0.051095247, -0.10607742, 0.08839689, -0.078943655, -0.028716527, 
  0.1281089, -0.06315591, -0.115331315, 0.015311465, 0.042790607, -0.009468399, 0.10803074, 0.033937052, -0.08035663, -0.079136655, -0.011327051, -0.10391159, 0.1117675, -0.00890854, -0.059235, -0.11193313, -0.014705285, -0.01406914, -0.11400837, 0.03677638, 0.040073395, -0.08728459, -0.07911004, 0.12280865, -0.08837838, 0.05706933, -0.09859377, 0.005570948, -0.06945746, -0.09258267, 0.100052655, -0.12619731, 
  0.06900676, 0.061696775, -0.066858664, -0.008811099, 0.03860481, -0.13897836, 0.06548723, 0.08286564, -0.05289074, 0.08107488, -0.007126048, -0.004793642, 0.1039282, 0.03911413, -0.08209353, -0.08204645, -0.07821863, -0.08936378, -0.09373033, -0.04920282, -0.089429356, 0.028078275, 0.026376355, 0.006154746, 0.04224327, -0.064575054, 0.16039126, -0.09151378, 0.017837716, 0.0511128, -0.053129494, -0.014100332, 
  -0.05286431, -0.062827505, 0.058057923, -0.027870527, -0.050401196, 0.043994017, -0.07667822, -0.11696652, -0.023403436, 0.03728469, -0.10248315, 0.087138064, 0.08930647, 0.036124498, -0.0056403275, 0.037320506, -0.0076416912, 0.091180995, -0.06527318, 0.012493452, 0.1363151, 0.08854705, -0.036917053, -0.12564488, 0.09696773, -0.02941373, 0.068885736, -0.005088062, 0.05376294, 0.076676294, 5.9508297e-05, -0.17118195, 
  -0.0956013, 0.042637005, 0.05854316, -0.029161997, 0.018790022, -0.052396096, -0.09231255, 0.04917209, 0.12859233, 0.0696854, 0.077137485, -0.030405663, 0.015642852, -0.12500939, 0.03824167, 0.09149134, 0.13001637, -0.11359966, 0.071886405, -0.05989512, -0.10954701, 0.12594096, 0.08755754, -0.016487248, -0.060555145, 0.03712432, -0.03660194, 0.008899704, 0.12954654, 0.004688993, -0.10111603, -0.0677659, 
  -0.08865037, -0.06589731, 0.07467608, 0.07168451, -0.0118118, -0.06763731, 0.086200014, 0.014226332, 0.12906922, 0.010824591, 0.054997176, 0.07898413, -0.109725565, -0.046748288, 0.11095217, -0.10363568, -0.012622766, 0.07464865, -0.11595579, 0.07373983, -0.07642949, -0.03000135, 0.1253577, 0.08186324, 0.124194965, 0.027759328, -0.036556177, -0.06601161, 0.048097074, 0.06450553, -0.011321202, 0.07935931, 
  -0.06482783, 0.07985112, -0.039106645, -0.06304242, 0.007213518, -0.046120383, -0.02469258, -0.1257866, -0.1283297, -0.027825631, -0.11293773, -0.057600617, -0.11671521, -0.02445016, 0.07264, -0.07242852, 0.024593249, 0.06462099, 0.10262133, 0.061659858, -0.064423546, -0.077335365, -0.07393192, 0.09759331, 0.053664923, 0.09825644, -0.085700914, -0.09001796, 0.113201916, -0.06622574, 0.0721484, 0.062800094, 
  0.029716507, 0.121185586, -0.10814157, -0.09489806, 0.069234, -0.0055255443, 0.0504044, 0.027549773, 0.04729508, 0.03503725, -0.09589352, -0.09962419, 0.08902411, -0.03577298, -0.0077712312, 0.12035455, -0.12451972, -0.10482354, -0.092026986, -0.061319046, 0.07900508, -0.027458042, 0.011018261, -0.0072052404, -0.000203982, -0.08862677, 0.005445689, -0.046919525, -0.084368214, 0.058026597, -0.0932809, 0.094305456, 
  -0.053213187, 0.042536568, -0.029429259, -0.032910176, -0.011658624, 0.0762603, -0.020026462, -0.074677646, -0.04612051, 0.12856193, -0.052073427, -0.03975986, -0.026989711, 0.031125976, -0.024896339, -0.015399792, -0.022992657, -0.0797812, -0.040020473, -0.004207104, 0.079130106, 0.13573867, 0.105031945, -0.019232288, 0.06630518, -0.03438928, -0.012917093, -0.09049901, -0.07227521, 0.07806365, 0.0035254173, -0.08284815, 
  -0.09303687, 0.111691095, 0.027907226, -0.08715972, -0.0015567839, -0.10166011, 0.06829062, -0.010620781, -0.010088988, 0.030317178, -0.06903272, -0.09974274, -0.14820273, 0.047396835, -0.102975555, 0.11142826, -0.036133, -0.015960725, -0.06692331, 0.030725768, -0.19288492, -0.04177009, 0.09587204, 0.05019267, -0.019769708, -0.028275339, 0.064536326, -0.056531493, 0.11428994, -0.035775006, -0.04811471, 0.2069305, 
  -0.08161051, 0.074860916, -0.12981285, 0.11748201, 0.05962695, 0.030341476, 0.09179969, 0.12037675, -0.047087982, 0.022293955, -0.03828522, -0.004049033, 0.069330364, 0.04675582, 0.08845477, 0.08506146, 0.07778314, 0.1291524, -0.124667265, -0.118889995, 0.07479222, 0.007659763, -0.07954517, 0.06453277, -0.08849765, -0.12965433, -0.11853689, 0.01846154, -0.10804822, 0.101423725, 0.03221473, 0.0005925745, 
  -0.11164939, -0.10707923, 0.13309698, -0.023421332, -0.014942825, 0.12858994, 0.085749775, -0.118192464, -0.10140994, 0.088100545, 0.06455973, -0.10071047, -0.087103896, 0.08104062, -0.119140945, -0.07859615, 0.12784831, 0.04791143, 0.117603004, 0.015832111, 0.0090244105, -0.056681413, 0.06956672, 0.034039244, -0.026130881, -0.06598095, 0.04868075, -0.046768937, 0.100056246, 0.08595246, 0.084171146, -0.033942, 
  0.061196342, 0.010880098, -0.09740719, 0.1276821, 0.11772418, 0.057782874, 0.10935733, -0.031026497, 0.034762263, -0.013598487, -0.027382687, 0.108376086, -0.067757554, 0.07694745, 0.023543447, -0.0519336, 0.04302512, -0.043158792, 0.032285362, -0.0053744465, -0.0230041, -0.029062763, 0.05074428, 0.08022928, -0.12266268, 0.04241264, 0.04214634, 0.091095686, 0.11002363, 0.07435198, -0.037426256, 0.08938746, 
  -0.03618493, 0.16524316, 0.070384845, -0.08188452, -0.07273375, -0.097932346, 0.0005813529, -0.011165421, 0.030026972, -0.0026586403, 0.08446306, -0.045845464, -0.101130985, 0.08516103, 0.09116824, -0.12229532, -0.027653338, 0.054523945, -0.007985769, -0.07510639, 0.09289773, -0.032390796, -0.076239266, -0.122398004, -0.05445667, -0.08171402, 0.068536505, -0.024294637, 0.05750211, 0.009607255, -0.050351743, 0.031751852, 
  0.1185679, -0.10206023, 0.006191655, 0.10715386, 0.06354123, 0.061014246, -0.005312584, 0.013192512, 0.11993854, 0.018925427, 0.06970781, 0.050860222, 0.07109501, -0.061672673, 0.04746589, 0.0767248, 0.095759034, 0.09681329, -0.0669421, -0.06983322, 0.146007, 0.040101666, -0.12042188, 0.09443271, -0.011701527, -0.05104057, 0.1269481, 0.0799549, -0.023429353, 0.12725393, 0.07396642, 0.0036152492, 
  0.012938678, 0.058223322, 0.04814987, 0.09405142, -0.10831548, 0.022369161, 0.0033415407, 0.11439668, 0.0951436, 0.092300355, -0.10381127, -0.11845654, -0.10699608, 0.093333974, 0.12650706, 0.042961255, 0.06408538, 0.010393038, 0.068615556, 0.060315967, -0.08622317, 0.05580251, -0.11318333, -0.115886785, -0.06628214, 0.0061381906, 0.08886552, 0.11130603, 0.04006201, -0.072341666, 0.1271749, -0.10151674, 
  -0.050229438, 0.0025450736, 0.103668705, 0.0060795695, -0.12499547, 0.10741764, 0.051232368, 0.07826437, 0.016224086, -0.013315104, -0.05315371, -0.046904646, 0.07222214, 0.07380018, 0.08759278, -0.014129676, -0.1016923, -0.061319917, 0.10383804, -0.02460032, 0.046067223, 0.10648771, -0.017659724, 0.022124723, -0.013149135, 0.093755305, 0.004926145, 0.041323736, 0.104821295, -0.04052805, -0.11446634, 0.041770935, 
  0.13692942, -0.13432012, 0.054516207, 0.0036645362, -0.102049954, 0.055477824, -0.13406828, 0.08533124, 0.10186228, 0.086486176, -0.121169746, 0.0063005392, -0.025259981, -0.10754928, 0.08000395, -0.00064062845, 0.027145796, -0.103441246, 0.048886526, -0.04869515, -0.023410765, 0.004835309, -0.058852185, 0.034107476, -0.121060535, 0.119539015, 0.17346026, -0.17323092, -0.07239564, -0.024648346, 0.007842963, 0.056404553, 
  -0.082512796, 0.1457883, -0.06978932, -0.09957412, 0.034697995, 0.0077039897, -0.0018164874, 0.091696605, 0.08667107, -0.032808647, -0.05798977, 0.04610937, 0.041049283, 0.10390964, 0.0055134846, -0.07093726, 0.053161398, 0.033477366, 0.012828709, 0.08055402, -0.04295193, -0.0056139696, 0.047936384, -0.12313666, 0.12911968, 0.12764546, 0.06203161, 0.045146722, -0.0403761, -0.10054721, 0.089649014, -0.084729016, 
  -0.06780259, -0.05798638, -0.051737845, -0.111401685, 0.09397595, -0.046022862, -0.015029356, 0.03343655, -0.12329837, 0.039360523, 0.07729627, 0.024333864, 0.017881632, 0.044532627, -0.098435394, -0.010932542, 0.06500077, 0.082891285, 0.04689668, 0.105931714, 0.09295139, -0.050108008, -0.096393526, -0.09944206, -0.08416069, 0.07667455, 0.053322613, 0.061560184, -0.031248748, -0.0037103295, -0.07835199, 0.050488546, 
  -0.01764433, 0.101402454, -0.023666818, -0.111580044, 0.12659027, 0.099260055, -0.028730223, 0.0015289773, 0.032705992, -0.046564665, 0.07812336, -0.018271666, -0.061572693, -0.039262984, 0.037534337, -0.105013266, -0.030641224, -0.10930906, -0.10290095, 0.01643876, 0.08811901, 0.049062263, 0.015708026, -0.08832422, 0.054399285, -0.08865099, -0.08505968, -0.022183036, 0.007078988, -0.07527379, -0.063985534, -0.08588686, 
  -0.0038040178, 0.015481243, 0.034272972, 0.013079185, -0.010935776, 0.0367057, 0.10171403, -0.06697186, 0.009511322, -0.047532335, 0.09011187, 0.09956772, -0.096849695, 0.11809067, -0.056412756, 0.075506605, -0.014958469, 0.03276383, 0.0154352905, 0.015957976, 0.036680747, -0.120713964, 0.15070248, 0.062084377, 0.0017339129, -0.028417729, 0.10463017, -0.08228496, -0.04068247, -0.03527674, 0.045965146, -0.022115562, 
  -0.109227955, -0.012362725, 0.11944036, -0.022622345, -0.0743536, -0.029208086, 0.04576902, 0.10837741, -0.07747728, -0.0035385315, 0.035794854, 0.124460064, 0.018133154, -0.047737937, -0.13371758, -0.032062978, 0.090046965, 0.0021844096, -0.061732106, 0.09649174, 0.033276994, 0.044235703, 0.12940416, 0.05134265, 0.049554184, -0.027524102, -0.045593258, 0.14220908, -0.103544146, -0.12913524, -0.024900408, 0.07231608, 
  -0.06529524, -0.104512796, 0.071123555, 0.084578454, -0.026630893, -0.077680975, 0.09130181, -0.029562823, 0.115538746, -0.053194672, -0.0011116564, 0.07532051, -0.12396204, 0.042190075, -0.015000656, 0.005675286, -0.028723098, 0.082116574, -0.04995601, -0.034669816, -0.049807563, -0.009498686, 0.09369287, 0.10109751, 0.12255712, 0.10902594, -0.12679695, -0.09413034, -0.0009750128, 0.007534936, -0.08960312, 0.025049403, 
  -0.07775412, -8.111614e-05, -0.030493667, 0.10629375, 0.08247611, -0.13866791, 0.130657, -0.08199434, -0.06614008, 0.0023037812, -0.009476118, 0.052221075, 0.025963295, 0.0496061, 0.047772944, -0.0922738, -0.04334531, -0.03800965, 0.017816767, -0.10913122, 0.110879146, -0.025781635, -0.08279093, 0.007794231, -0.0046775434, -0.08052168, 0.015856367, -0.04952493, 0.050217934, 0.09026843, 0.126359, 0.01942081, 
  0.080622524, -0.004695028, 0.08136369, 0.1066242, 0.021994546, 0.009685293, 0.024285808, -0.0070508495, -0.08809954, 0.027268633, 0.09036444, 0.042251796, 0.06797971, 0.071227744, -0.009224296, -0.024519049, 0.037241668, -0.016038448, -0.0582335, 0.0044620633, 0.025517613, 0.05698414, -0.029306859, 0.11155751, 0.11109409, -0.09451915, -0.07933238, -0.04213974, 0.04005587, 0.061345562, 0.007522896, -0.10584374, 
  0.2282761, -0.2016007, 0.17199832, 0.1233489, -0.065793686, -0.017683506, -0.06616801, -0.12431891, 0.07168242, 0.026715407, -0.029000565, 0.08012509, 0.22320662, -0.009477576, -0.036080196, -0.106039196, 0.04534707, -0.10518052, -0.11735349, -0.048396688, 0.104383804, 0.12748307, -0.07126179, -0.1174082, -0.030246817, 0.018116942, 0.23272325, -0.088932954, -0.22260632, 0.06519924, 0.25953847, -0.10357076, 
  -0.01921679, -0.037224315, -0.088969834, -0.018663915, 0.10391213, 0.04805068, -0.04250887, 0.11049884, 0.097243205, 0.069940984, -0.06840074, -0.019047905, 0.006984523, -0.115168795, 0.11765012, 0.13440168, -0.027120687, -0.112173684, 0.10497024, -0.13151658, -0.0950685, 0.007974528, -0.010371472, -0.0958157, -0.050398502, -0.06513958, -0.0701293, -0.056992985, 0.06447081, -0.103223085, -0.036240894, 0.073653445, 
  0.12397997, -0.11351823, 0.016389012, -0.014836088, -0.101488255, -0.10589236, 0.11416359, 0.10670762, -0.115017764, -0.10480573, 0.10103579, 0.046058252, 0.009733766, 0.06257127, -0.10322972, 0.10207003, 0.06907226, 0.038265944, -0.0034279525, -0.065332346, 0.016828597, 0.10954119, -0.02066879, 0.06969248, 0.0316042, 0.033988133, -0.050075166, 0.091263965, 0.067549616, 0.09486458, 0.07618511, 0.09477565, 
  -0.020392254, 0.02520591, -0.0001989305, -0.013857938, 0.0034646094, 0.08666748, 0.07096997, 0.099521026, 0.025425538, -0.12958722, -0.10849631, 0.06493473, -0.077217296, -0.04476005, -0.022975683, 0.058412954, -0.034141555, 0.11576949, 0.038000777, -0.07885072, 0.02516149, 0.09246315, 0.061338156, 0.052436307, -0.0015764832, -0.04544411, -0.06980385, 0.07829636, 0.08418098, 0.07713634, 0.026355565, -0.086432785, 
  -0.0004518479, -0.10642356, 0.12848966, 0.01802747, -0.07934442, -0.12403911, 0.1175852, 0.011501402, 0.009834856, 0.11852026, 0.07647167, 0.121026024, -0.062005498, 0.10527383, 0.099515334, 0.09649211, 0.043884188, -0.01883404, -0.084464684, 0.07688859, -0.102849156, -0.07231048, 0.123380765, -0.11232642, 0.07921967, 0.0682978, -0.054099582, 0.0069238096, -0.0010192394, 0.10749085, -0.02021601, -0.09229363, 
  0.08925237, -0.11455129, 0.076715484, -0.007843979, 0.11318585, 0.043937728, -0.11477074, -0.07325657, 0.027738348, -0.04632897, -0.10468219, -0.055069886, -0.07043293, 0.12517364, -0.0015205145, -0.04276011, 0.03875804, 0.07483041, -0.12305349, 0.0383621, 0.02737914, -0.019088916, 0.12891258, 0.09786981, -0.12690474, 0.007779792, 0.13050662, 0.12923287, -0.08983819, -0.046292335, 0.023757607, 0.021904707, 
  -0.04796774, -0.041630365, 0.04681976, -0.07860733, -0.11055529, -0.053893454, 0.109705105, 0.11286913, -0.040971182, 0.06685682, 0.082009465, -0.12901242, -0.06471577, -0.07244912, 0.0009573549, 0.12280004, 0.05229895, 0.11360672, 0.08173996, 0.103902906, 0.08837557, -0.026609011, 0.0028130263, -0.0045530796, -0.099130906, 0.03352675, 0.08778553, -0.11493674, 0.007837221, -0.12369655, 0.034599036, 0.026229471, 
  -0.10012805, 0.04850313, -0.13015349, -0.067929156, -0.12999517, -0.046598658, -0.068196826, 0.1245787, -0.042071536, -0.058848955, 0.1102698, 0.08073689, 0.059816808, 0.04252121, 0.06561053, -0.07782808, 0.07441978, 0.030750468, 0.049669698, 0.06723343, -0.027636811, -0.105745, 0.013193339, 0.0218267, -0.08947643, -0.12219739, -0.058965497, -0.1084954, 0.057378277, -0.022295512, -0.106092945, 0.102910936, 
  0.07500585, 0.050966416, 0.07760062, 0.016287211, 0.071531326, -0.050275408, -0.08325629, -0.026655162, -0.10485955, 0.16006735, 0.033868283, 0.030686917, 0.16026713, 0.008069553, 0.11229325, 0.07505434, -0.012241308, 0.06224111, -0.0784254, 0.060020417, 0.15400591, 0.0671525, -0.031176604, -0.12604839, -0.012925675, -0.02527275, -0.015810227, -0.046297215, -0.14954653, -0.050239146, 0.15739886, 0.04476175, 
  0.18917385, -0.10782265, 0.0007770727, 0.05517661, 0.07083793, -0.06861718, -0.13689767, -0.071648896, 0.055326715, 0.17202818, 0.12439029, 0.032214303, 0.19759925, -0.019522764, -0.009363103, 0.0826609, 0.10542697, -0.070533365, -0.042671602, -0.09687476, 0.2263229, 0.19420148, 0.0131008625, -0.05821725, -0.12704876, -0.010547329, 0.17746642, -0.122431934, -0.1443231, -0.09767168, 0.10590636, -0.19259693, 
  0.10003118, 0.014451072, -0.04324112, -0.035867266, -0.048297256, 0.122263506, 0.043901682, -0.006960176, 0.08158539, -0.05425226, -0.08984598, -0.10350155, 0.10452452, -0.009134084, 0.006663099, 0.1280156, 0.014344022, 0.05472648, -0.10479823, -0.10063231, -0.124579854, 0.031588107, -0.032834135, 0.10688244, -0.023047931, -0.04846955, -0.112418935, 0.071067646, -0.036143146, -0.099942215, 0.029770255, 0.0578558, 
  0.004203588, -0.10264064, -0.020760521, -0.12906449, 0.0036031306, 0.03155744, -0.06595868, 0.028362706, 0.09857862, 0.01108329, 0.012491092, -0.08823061, 0.041636337, -0.018578544, 0.067331165, 0.09298058, 0.0076137334, -0.015579314, 0.10433608, -0.01760061, 0.073100865, 0.021983996, -0.034217343, -0.05524893, -0.10591165, -0.062734164, 0.06590304, 0.04216408, -0.12551333, -0.09497535, 0.010928959, 0.066810116, 
  -0.09301435, 0.0066519827, 0.048620865, 0.07693258, -0.048845254, -0.04778462, -0.036666557, 0.037253782, -0.07207783, 0.07738012, -0.0063272566, 0.04273294, 0.08142649, -0.044832297, 0.004324451, 0.045492887, 0.113747105, -0.012814134, -0.0407738, 0.028150663, -0.101769336, -0.0648829, -0.082367375, 0.06687033, -0.08306093, 0.024413586, -0.00217475, 0.11955921, -0.03949885, -0.10308183, 0.091035634, -0.080905095, 
  -0.0054201335, 0.121861264, -0.11653529, -0.03935221, -0.1167412, -0.11605714, 0.11286987, 0.11523351, -0.12918317, -0.0787563, -0.06495533, 0.04341553, 0.12284322, 0.024723738, 0.03676109, 0.05093983, -0.06700458, -0.07929225, -0.016061082, 0.1021688, -0.094194144, 0.120217696, 0.06605291, -0.024330847, 0.05598697, -0.015217088, 0.007676631, 0.1109367, 0.09745921, 0.11277901, -0.00682573, -0.08597405, 
  0.07687529, -0.13377543, -0.06080865, -0.07684215, 0.059213087, -0.09321354, 0.0108328005, -0.032095876, -0.01715988, -0.05122102, -0.047664776, 0.14367625, -0.0059724287, -0.04411758, 0.08630225, 0.044463977, 0.14985536, -0.025643805, -0.081342265, -0.13962024, 0.03950393, 0.029006895, 0.100291364, -0.02229464, 0.1056785, 0.14292488, 0.09441597, -0.000398601, 0.08524206, 0.021331087, 0.07250461, -0.14985715, 
  -0.19551927, -0.031135846, 0.0014821404, 0.11251123, 0.044032633, 0.04916147, 0.20430522, -0.10121603, -0.12118957, -0.0797754, 0.08168696, -0.117017835, 0.028087696, 0.09110008, 0.007946028, -0.008196048, -0.20044832, 0.20276223, -0.08050203, 0.04960141, 0.038238958, -0.11894518, 0.1897635, 0.019225508, 0.026707644, 0.026819011, -0.048970543, 0.10441479, 0.19560626, -0.104744315, -0.076219976, 0.04705675, 
  0.017383754, 0.08584258, -0.0756015, -0.03438267, -0.057701066, -0.123843506, 0.08163491, 0.112343356, -0.039550677, -0.030605346, -0.07616438, 0.10656954, -0.12688074, 0.026348472, -0.06859675, 0.10391477, 0.10714331, -0.09420109, -0.055005208, -0.116959095, -0.123808645, 0.009235159, 0.09199007, -0.056845434, -0.112380676, 0.017457962, -0.035599694, -0.02939909, -0.04720048, -0.07192297, -0.024255335, -0.096307516, 
  0.07067591, 0.054315016, 0.038514227, 0.083671406, -0.099580854, 0.05427286, 0.0048344433, -0.09909063, -0.122370206, -0.02707094, -0.033674672, 0.06426719, 0.065074325, 0.0013061762, -0.095631585, 0.09359996, -0.04905232, -0.007137321, -0.1225054, -0.12782696, -0.07815249, 0.047047824, -0.11304493, 0.10953848, 0.06252888, -0.112840585, -0.05136279, -0.02691415, 0.08573039, -0.057353184, -0.114334516, 0.051202416, 
  -0.06675419, 0.023791, 0.08070591, -0.042115398, 0.054191276, -0.07830548, 0.09328164, 0.102308616, -0.04527325, 0.07868785, -0.053296737, -0.039123356, 0.044911698, -0.023534887, 0.081668004, 0.087909505, 0.024921581, -0.041320026, 0.09220886, 0.10442735, 0.057751805, -0.029106714, 0.0806492, -0.09628423, 0.1280361, -0.104370326, -0.11964083, -0.07784003, -0.00466156, -0.065471515, -0.053708337, -0.061611615, 
  0.10041684, 0.13029654, -0.09774591, 0.0072787674, 0.1264943, -0.11259297, -0.10736297, 0.057709515, -0.032847494, 0.14728113, 0.09098823, 0.016640803, -0.04839465, -0.11295054, -0.09874665, -0.016083214, 0.07331475, -0.11657203, 0.02374438, -0.09528741, 0.09557388, -0.04908959, 0.07105172, 0.11632916, 0.09971672, 0.05339597, 0.1283834, 0.047508337, 0.047860194, 0.06043391, -0.09782222, -0.10548728, 
  0.049464323, 0.14211524, -0.08022615, 0.0067267753, -0.06833656, -0.008943901, 0.024118358, -0.06945852, 0.046147868, -0.09752576, -0.0040519238, 0.12819016, -0.08154712, 0.04721486, -0.0873134, 0.09137407, 0.045695033, -0.049046345, -0.08581505, -0.05439889, 0.11334864, 0.07742624, -0.121688895, -0.09846699, -0.065197274, 0.05309612, -0.057232633, 0.07521742, 0.04418535, -0.10682174, -0.112541325, 0.04684169, 
  -0.041153245, 0.027440518, -0.045142762, 0.008141831, 0.05700724, -0.0636913, -0.032649517, 0.1167991, -0.085917845, -0.058905385, 0.00012612343, -0.118522346, -0.052224956, -0.08510314, 0.049675986, 0.07195519, -0.054834656, 0.09952243, 0.123949066, -0.08635786, -0.07592647, -0.11610275, -0.10712184, -0.1159143, 0.07759899, -0.1112904, -0.11458537, 0.0011138618, -0.012037724, 0.12885217, 0.120899096, -0.06842698, 
  -0.027327776, 0.05523953, 0.12735541, -0.0455458, 0.030432954, 0.07157089, 0.122096285, 0.11158559, 0.04588011, -0.065831885, 0.11884944, -0.024321355, -0.12118251, -0.0022092164, -0.06856114, 0.09094407, -0.026649445, 0.104073584, 0.020045623, -0.020523615, -0.034936927, -0.015786693, 0.009714395, -0.052257515, 0.05170515, 0.02200982, 0.0031161457, -0.12454618, 0.008606225, -0.09596783, -0.08492061, 0.01458925, 
  0.16544214, -0.1668071, -0.0014961855, -0.04177554, -0.08905092, 0.04067722, -0.08627246, -0.10718165, -0.0813829, -0.019235956, 0.050939053, 0.14475502, 0.08264529, 0.10200488, 0.022608982, -0.095385335, 0.18226036, -0.07203104, -0.081326485, -0.036675673, 0.234256, -0.013715069, -0.1434208, -0.12227496, -0.22331929, 0.19332805, 0.092068866, -0.044643242, -0.12430883, 0.080717966, 0.15234149, -0.1059376, 
  -0.09120432, -0.0033119393, 0.06294477, 0.109082244, 0.058807865, 0.06002985, 0.13056815, -0.028340979, -0.1266311, 0.060815852, -0.10037585, -0.08763296, 0.081259616, -0.11689523, 0.10655559, 0.11184936, 0.03310542, 0.16693921, 0.07492783, 0.06040359, -0.03605297, 0.06446408, -0.03007865, -0.07201247, 0.07988664, -0.042995743, 0.038009927, 0.152249, 0.10850583, 0.041100144, -0.14241114, 0.14576608, 
  0.034005314, 0.07596438, 0.09691101, 0.0025619566, -0.02868811, -0.0020930767, 0.11341131, 0.04629551, -0.09511982, -0.086755544, 0.029287413, 0.028016403, 0.09791441, -0.11339266, -0.08926445, 0.11698805, -0.011980571, 0.114922106, 0.0952404, -0.028536864, 0.12964915, 0.06378795, 0.025690496, 0.034842893, -0.12283765, 0.08295317, -0.12949234, -0.08183049, 0.12544571, 0.050149158, -0.073571265, 0.058376744, 
  0.08755667, 0.09487249, -0.06534249, -0.13680327, 0.075917944, -0.04339383, -0.10122655, 0.0447836, -0.016285323, 0.013861197, -0.058709443, 0.018136939, -0.031936258, 0.06508964, 0.015675547, -0.006517511, -0.05018107, 0.031196743, 0.08525801, 0.06900946, 0.010101005, 0.122002915, 0.043543875, -0.10910939, 0.0037226675, 0.01347976, -0.072365195, -0.055860452, -0.074770555, -0.105351955, 0.033853583, -0.13452847, 
  -0.057660293, 0.18382302, 0.040607464, -0.12712882, -0.08540334, -0.12725809, 0.1222007, -0.12091574, -0.056948714, -0.0044077537, -0.04297109, -0.08839489, -0.12116744, 0.053457487, 0.014432022, 0.11752844, -0.12938003, 0.07035734, 0.09031767, -0.054881215, 0.05774649, -0.101140216, 0.065262765, -0.022854567, -0.0033209452, -0.16090691, 0.013826166, 0.12516688, -0.039372526, 0.077914715, -0.11015427, 0.12972294, 
