#include "poids.h"

const float weights[] = {-0.06710884, -0.05651313, 0.064038694, 0.037616204, -0.22661498, -0.062970676, 0.34490898, 0.41741678, 0.120866224, 0.32700855, 0.070022106, 0.47561124, 0.3846674, -0.32005775, 0.10539117, -0.19642514, -0.2086679, -0.14783055, 0.29216045, -0.010124781, -0.17824593, 0.78719234, 0.04085971, -0.25034872, 0.016099604, 0.04445849, -0.24238743, -0.32685417, -0.114825636, 0.29594016, 0.044846166, -0.41425496, -0.27069145, 0.26578403, -0.34196985, 0.013187332, -0.015445466, 0.51748955, 0.011971624, -0.20398338, 0.09695454, 0.24316964, 0.19285628, 0.07011466, 0.23707056, 0.1379196, 0.45135757, -0.38849384, -0.09910464, 0.13178414, -0.17312142, 0.13807826, 0.614812, 0.23331559, -0.37641382, 0.21488078, -0.036422003, 0.258236, 0.6262946, 0.4537606, 0.159105, -0.39012912, -0.12934963, -0.060082674, 0.032595754, -0.1635932, 0.029416949, 0.033935595, 0.35761955, 0.017445369, 0.15646762, 0.430606, -0.16325262, 0.36664063, -0.040882085, 0.4157597, -0.32986784, 0.028433442, -0.5779791, -0.4020601, -0.36013404, -0.26114804, -0.22138536, 0.57813853, -0.19159962, 0.09295061, 0.49586958, -0.4413712, -0.7641626, -0.2915076, -0.8598499, -0.56274045, -0.26777163, 0.083209515, 0.8957443, -0.36426672, 0.052877784, -0.18225646, 0.4315701, 0.8278758, -0.46507388, 0.3943703, 0.71069884, -0.7646183, -0.25498122, -0.038898394, -0.6625749, -0.27472362, -0.34762847, -0.10519242, 0.17528863, -0.34420538, 0.22816175, -0.070708185, 0.06714636, -0.6244619, 0.44238886, -1.0456897, -1.1799061, 0.4514985, 1.2946618, 0.8323328, 1.2155495, 0.63775176, -0.22789541, 0.12962842, -1.1730402, 0.012813091, 0.02565831, -0.26531595, -0.36595145, -0.7172425, 0.8935008, -1.2300564, -0.8846465, 0.8211865, 1.1434338, 0.73676884, 0.9254493, 0.36882514, -0.42746443, -0.4038664, -0.90757066, -0.3703573, 0.27739477, 0.19665545, -0.2025555, 0.29371935, 0.31486425, -0.3914436, -0.37079546, -0.2087321, 0.1857496, 0.25569925, 0.35094094, 0.2995381, -0.082531065, 0.11030924, 0.40419877, 0.20582855, 0.16460806, 0.17417324, -0.45367742, 0.14181943, 0.088251226, -0.5717771, -0.17326812, 0.32855588, -0.13043767, -0.33584717, -0.2071998, -0.4990655, -0.1552239, -0.34849855, 0.51387435, -0.40079975, -0.12910396, -0.23881471, 0.3923543, 0.3018103, -0.7816079, -0.109996974, 0.89683044, -0.7356533, -0.71165955, -0.8400189, -0.36834395, -0.5940849, -0.19049516, -0.137808, 1.0793037, 0.17751026, 0.019069165, -0.23608163, 0.22395283, 0.53392214, -0.5560041, 0.34073347, 0.72371995, 0.13754286, -0.28510496, 0.06086224, -0.28666458, 0.1381972, -0.1178436, -0.27271986, -0.025345301, -0.09425253, 0.42905617, 0.41455537, -0.14899746, 0.46585178, -0.37321448, 0.11014408, -0.48608166, 1.0531018, 3.0518095, -2.484985, -5.609013, 5.51206, -2.8482215, 2.8949301, 2.400695, -1.8030454, 2.9697225, -3.8879676, 0.83851385, -0.7355119, 1.8394115, -1.578019, 0.27938026, -0.97617704, 0.17634994, -0.15894964, -0.3404209, -0.3920534, -1.7953987, 2.2949784, 0.014963627, 0.5730232};
const float biases[] = {0.0, 0.0, 0.0, -0.051504217, 0.023583744, 0.29364717, -0.0030135482, 0.034153465, -0.0030901344, 0.025087085, -0.0013540799, 0.022934536, 0.0, 0.0, -0.033739075, 0.0, 0.032916244, -0.03291649};